{"learner":{"attributes":{"best_iteration":"149","best_score":"6.024334660276577","scikit_learn":"{\"_estimator_type\": \"regressor\"}"},"feature_names":["BondsToAtomDescriptor-bondsToAtom_self","DistanceToAtomDescriptor-distanceToAtom_self","EffectiveAtomPolarizabilityDescriptor-effAtomPol_self","IPAtomicHOSEDescriptor-ipAtomicHOSE_self","InductiveAtomicHardnessDescriptor-indAtomHardnesss_self","InductiveAtomicSoftnessDescriptor-indAtomSoftness_self","PartialPiChargeDescriptor-pepe_self","PartialSigmaChargeDescriptor-partialSigmaCharge_self","PartialTChargeMMFF94Descriptor-partialTCMMFF94_self","PartialTChargePEOEDescriptor-pepeT_self","PiElectronegativityDescriptor-elecPiA_self","index_neighbor1","AtomDegreeDescriptor-aNeg_neighbor1","AtomHybridizationDescriptor-aHyb_neighbor1","AtomHybridizationVSEPRDescriptor-hybr_neighbor1","BondsToAtomDescriptor-bondsToAtom_neighbor1","CovalentRadiusDescriptor-covalentRadius_neighbor1","DistanceToAtomDescriptor-distanceToAtom_neighbor1","EffectiveAtomPolarizabilityDescriptor-effAtomPol_neighbor1","InductiveAtomicHardnessDescriptor-indAtomHardnesss_neighbor1","InductiveAtomicSoftnessDescriptor-indAtomSoftness_neighbor1","PartialPiChargeDescriptor-pepe_neighbor1","PartialSigmaChargeDescriptor-partialSigmaCharge_neighbor1","PartialTChargeMMFF94Descriptor-partialTCMMFF94_neighbor1","PartialTChargePEOEDescriptor-pepeT_neighbor1","PeriodicTablePositionDescriptor-periodicTablePosition_neighbor1","PiElectronegativityDescriptor-elecPiA_neighbor1","index_neighbor2","AtomDegreeDescriptor-aNeg_neighbor2","AtomHybridizationDescriptor-aHyb_neighbor2","AtomHybridizationVSEPRDescriptor-hybr_neighbor2","AtomValenceDescriptor-val_neighbor2","BondsToAtomDescriptor-bondsToAtom_neighbor2","CovalentRadiusDescriptor-covalentRadius_neighbor2","DistanceToAtomDescriptor-distanceToAtom_neighbor2","EffectiveAtomPolarizabilityDescriptor-effAtomPol_neighbor2","IPAtomicHOSEDescriptor-ipAtomicHOSE_neighbor2","InductiveAtomicHardnessDescriptor-indAtomHardnesss_neighbor2","InductiveAtomicSoftnessDescriptor-indAtomSoftness_neighbor2","PartialPiChargeDescriptor-pepe_neighbor2","PartialSigmaChargeDescriptor-partialSigmaCharge_neighbor2","PartialTChargeMMFF94Descriptor-partialTCMMFF94_neighbor2","PartialTChargePEOEDescriptor-pepeT_neighbor2","PeriodicTablePositionDescriptor-periodicTablePosition_neighbor2","PiElectronegativityDescriptor-elecPiA_neighbor2","index_neighbor3","AtomDegreeDescriptor-aNeg_neighbor3","AtomHybridizationDescriptor-aHyb_neighbor3","AtomHybridizationVSEPRDescriptor-hybr_neighbor3","AtomValenceDescriptor-val_neighbor3","BondsToAtomDescriptor-bondsToAtom_neighbor3","CovalentRadiusDescriptor-covalentRadius_neighbor3","DistanceToAtomDescriptor-distanceToAtom_neighbor3","EffectiveAtomPolarizabilityDescriptor-effAtomPol_neighbor3","IPAtomicHOSEDescriptor-ipAtomicHOSE_neighbor3","InductiveAtomicHardnessDescriptor-indAtomHardnesss_neighbor3","InductiveAtomicSoftnessDescriptor-indAtomSoftness_neighbor3","PartialPiChargeDescriptor-pepe_neighbor3","PartialSigmaChargeDescriptor-partialSigmaCharge_neighbor3","PartialTChargeMMFF94Descriptor-partialTCMMFF94_neighbor3","PartialTChargePEOEDescriptor-pepeT_neighbor3","PeriodicTablePositionDescriptor-periodicTablePosition_neighbor3","PiElectronegativityDescriptor-elecPiA_neighbor3","index_neighbor4","AtomDegreeDescriptor-aNeg_neighbor4","AtomHybridizationDescriptor-aHyb_neighbor4","AtomHybridizationVSEPRDescriptor-hybr_neighbor4","AtomValenceDescriptor-val_neighbor4","BondsToAtomDescriptor-bondsToAtom_neighbor4","CovalentRadiusDescriptor-covalentRadius_neighbor4","DistanceToAtomDescriptor-distanceToAtom_neighbor4","EffectiveAtomPolarizabilityDescriptor-effAtomPol_neighbor4","IPAtomicHOSEDescriptor-ipAtomicHOSE_neighbor4","InductiveAtomicHardnessDescriptor-indAtomHardnesss_neighbor4","InductiveAtomicSoftnessDescriptor-indAtomSoftness_neighbor4","PartialPiChargeDescriptor-pepe_neighbor4","PartialSigmaChargeDescriptor-partialSigmaCharge_neighbor4","PartialTChargeMMFF94Descriptor-partialTCMMFF94_neighbor4","PartialTChargePEOEDescriptor-pepeT_neighbor4","PeriodicTablePositionDescriptor-periodicTablePosition_neighbor4","PiElectronegativityDescriptor-elecPiA_neighbor4","index_neighbor5","AtomDegreeDescriptor-aNeg_neighbor5","AtomHybridizationDescriptor-aHyb_neighbor5","AtomHybridizationVSEPRDescriptor-hybr_neighbor5","AtomValenceDescriptor-val_neighbor5","BondsToAtomDescriptor-bondsToAtom_neighbor5","CovalentRadiusDescriptor-covalentRadius_neighbor5","DistanceToAtomDescriptor-distanceToAtom_neighbor5","EffectiveAtomPolarizabilityDescriptor-effAtomPol_neighbor5","IPAtomicHOSEDescriptor-ipAtomicHOSE_neighbor5","InductiveAtomicHardnessDescriptor-indAtomHardnesss_neighbor5","InductiveAtomicSoftnessDescriptor-indAtomSoftness_neighbor5","PartialPiChargeDescriptor-pepe_neighbor5","PartialSigmaChargeDescriptor-partialSigmaCharge_neighbor5","PartialTChargeMMFF94Descriptor-partialTCMMFF94_neighbor5","PartialTChargePEOEDescriptor-pepeT_neighbor5","PeriodicTablePositionDescriptor-periodicTablePosition_neighbor5","PiElectronegativityDescriptor-elecPiA_neighbor5"],"feature_types":["float","float","float","float","float","float","float","float","float","float","float","int","float","float","float","float","float","float","float","float","float","float","float","float","float","float","float","int","float","float","float","float","float","float","float","float","float","float","float","float","float","float","float","float","float","float","float","float","float","float","float","float","float","float","float","float","float","float","float","float","float","float","float","float","float","float","float","float","float","float","float","float","float","float","float","float","float","float","float","float","float","float","float","float","float","float","float","float","float","float","float","float","float","float","float","float","float","float","float"],"gradient_booster":{"model":{"gbtree_model_param":{"num_parallel_tree":"1","num_trees":"150"},"iteration_indptr":[0,1,2,3,4,5,6,7,8,9,10,11,12,13,14,15,16,17,18,19,20,21,22,23,24,25,26,27,28,29,30,31,32,33,34,35,36,37,38,39,40,41,42,43,44,45,46,47,48,49,50,51,52,53,54,55,56,57,58,59,60,61,62,63,64,65,66,67,68,69,70,71,72,73,74,75,76,77,78,79,80,81,82,83,84,85,86,87,88,89,90,91,92,93,94,95,96,97,98,99,100,101,102,103,104,105,106,107,108,109,110,111,112,113,114,115,116,117,118,119,120,121,122,123,124,125,126,127,128,129,130,131,132,133,134,135,136,137,138,139,140,141,142,143,144,145,146,147,148,149,150],"tree_info":[0,0,0,0,0,0,0,0,0,0,0,0,0,0,0,0,0,0,0,0,0,0,0,0,0,0,0,0,0,0,0,0,0,0,0,0,0,0,0,0,0,0,0,0,0,0,0,0,0,0,0,0,0,0,0,0,0,0,0,0,0,0,0,0,0,0,0,0,0,0,0,0,0,0,0,0,0,0,0,0,0,0,0,0,0,0,0,0,0,0,0,0,0,0,0,0,0,0,0,0,0,0,0,0,0,0,0,0,0,0,0,0,0,0,0,0,0,0,0,0,0,0,0,0,0,0,0,0,0,0,0,0,0,0,0,0,0,0,0,0,0,0,0,0,0,0,0,0,0,0],"trees":[{"base_weights":[1.8246911E-1,-2.0167358E1,3.2794624E1,-8.098086E1,-1.697599E1,2.7325033E1,4.7504635E1,-8.834507E1,-4.16969E1,-1.4270224E1,-4.170171E1,3.630685E1,2.4727798E1,4.5510783E0,7.2937355E0,-7.1702474E-1,-8.927679E0,-0E0,-4.430931E0,-1.6665194E0,9.9337703E-1,-5.091183E0,-1.1220978E0,3.7558377E0,6.8249786E-1,1.4950218E0,2.5878835E0],"categories":[],"categories_nodes":[],"categories_segments":[],"categories_sizes":[],"default_left":[0,0,0,0,0,0,0,0,0,0,0,0,0,0,0,0,0,0,0,0,0,0,0,0,0,0,0],"id":0,"left_children":[1,3,5,7,9,11,13,15,17,19,21,23,25,-1,-1,-1,-1,-1,-1,-1,-1,-1,-1,-1,-1,-1,-1],"loss_changes":[1.6579236E6,2.947632E5,7.3894875E4,1.3318594E4,9.619466E4,1.40403125E4,5.208875E3,2.4444062E3,1.6316211E3,7.708984E4,3.838067E4,4.688797E3,5.0528125E3,0E0,0E0,0E0,0E0,0E0,0E0,0E0,0E0,0E0,0E0,0E0,0E0,0E0,0E0],"parents":[2147483647,0,0,1,1,2,2,3,3,4,4,5,5,6,6,7,7,8,8,9,9,10,10,11,11,12,12],"right_children":[2,4,6,8,10,12,14,16,18,20,22,24,26,-1,-1,-1,-1,-1,-1,-1,-1,-1,-1,-1,-1,-1,-1],"split_conditions":[8.24E-1,-2.0515822E-1,1.078E0,5.53E-1,1.4389326E-1,4.2204213E-1,9.9E-1,1.382771E-1,1.0681778E0,-1.8612696E-1,2.22E-1,4.0132275E-1,8.86E-1,4.5510783E0,7.2937355E0,-7.1702474E-1,-8.927679E0,-0E0,-4.430931E0,-1.6665194E0,9.9337703E-1,-5.091183E0,-1.1220978E0,3.7558377E0,6.8249786E-1,1.4950218E0,2.5878835E0],"split_indices":[23,9,23,23,40,22,69,22,91,7,23,78,23,0,0,0,0,0,0,0,0,0,0,0,0,0,0],"split_type":[0,0,0,0,0,0,0,0,0,0,0,0,0,0,0,0,0,0,0,0,0,0,0,0,0,0,0],"sum_hessian":[2.494E3,1.536E3,9.58E2,7.4E1,1.462E3,7.03E2,2.55E2,6E1,1.4E1,1.321E3,1.41E2,1.51E2,5.52E2,2.42E2,1.3E1,1E0,5.9E1,1E0,1.3E1,1.203E3,1.18E2,1.07E2,3.4E1,1.44E2,7E0,6.2E1,4.9E2],"tree_param":{"num_deleted":"0","num_feature":"99","num_nodes":"27","size_leaf_vector":"1"}},{"base_weights":[-1.6553453E-1,-1.8736483E1,2.924281E1,-7.418976E1,-1.5619358E1,2.4420118E1,4.2887386E1,-8.522397E0,-5.1309795E1,-1.3057126E1,-3.8503494E1,2.9142698E1,2.0504446E1,4.1196523E0,6.515331E0,-1.0094194E0,-5.3051224E0,-1.5147871E0,9.403847E-1,-4.5476637E0,-9.1538906E-1,3.128763E0,1.9070523E0,2.1897671E0,1.2631439E0],"categories":[],"categories_nodes":[],"categories_segments":[],"categories_sizes":[],"default_left":[0,0,0,0,0,0,0,0,0,0,0,1,0,0,0,0,0,0,0,0,0,0,0,0,0],"id":1,"left_children":[1,3,5,7,9,11,13,-1,15,17,19,21,23,-1,-1,-1,-1,-1,-1,-1,-1,-1,-1,-1,-1],"loss_changes":[1.3843655E6,2.6540056E5,6.1785562E4,1.05909375E4,8.4906125E4,1.1807656E4,3.0934062E3,0E0,5.9428906E2,6.275239E4,2.8705984E4,5.3244062E3,3.5658281E3,0E0,0E0,0E0,0E0,0E0,0E0,0E0,0E0,0E0,0E0,0E0,0E0],"parents":[2147483647,0,0,1,1,2,2,3,3,4,4,5,5,6,6,8,8,9,9,10,10,11,11,12,12],"right_children":[2,4,6,8,10,12,14,-1,16,18,20,22,24,-1,-1,-1,-1,-1,-1,-1,-1,-1,-1,-1,-1],"split_conditions":[8.34E-1,-2.0515822E-1,1.078E0,4.260031E0,1.4389326E-1,5.6E-1,8.5E0,-8.522397E0,-2.3721808E-1,-1.8612696E-1,-1.8355004E-1,3.7025428E-1,2E0,4.1196523E0,6.515331E0,-1.0094194E0,-5.3051224E0,-1.5147871E0,9.403847E-1,-4.5476637E0,-9.1538906E-1,3.128763E0,1.9070523E0,2.1897671E0,1.2631439E0],"split_indices":[23,9,23,2,40,77,3,0,7,7,7,94,46,0,0,0,0,0,0,0,0,0,0,0,0],"split_type":[0,0,0,0,0,0,0,0,0,0,0,0,0,0,0,0,0,0,0,0,0,0,0,0,0],"sum_hessian":[2.531E3,1.552E3,9.79E2,8E1,1.472E3,7.28E2,2.51E2,5E1,3E1,1.327E3,1.45E2,3.23E2,4.05E2,2.39E2,1.2E1,2E0,2.8E1,1.215E3,1.12E2,1.16E2,2.9E1,2.62E2,6.1E1,3.4E2,6.5E1],"tree_param":{"num_deleted":"0","num_feature":"99","num_nodes":"25","size_leaf_vector":"1"}},{"base_weights":[1.0648701E-1,-1.6550732E1,2.669974E1,-6.673092E1,-1.3805458E1,2.2207285E1,3.8717697E1,-8.501871E0,-5.342139E1,-1.1651944E1,-3.2932953E1,2.9958847E1,2.0112734E1,3.697387E0,6.1836176E0,-1.7682446E0,-5.70968E0,-1.2733498E0,2.1935472E0,-3.993878E0,-7.7462083E-1,9.3434095E-1,3.174477E0,1.2301139E0,2.1032379E0],"categories":[],"categories_nodes":[],"categories_segments":[],"categories_sizes":[],"default_left":[0,0,0,0,0,0,0,0,0,0,0,0,0,0,0,0,0,0,0,0,0,0,0,0,0],"id":2,"left_children":[1,3,5,7,9,11,13,-1,15,17,19,21,23,-1,-1,-1,-1,-1,-1,-1,-1,-1,-1,-1,-1],"loss_changes":[1.1212556E6,2.1170425E5,5.0311438E4,9.004125E3,5.9667438E4,9.902969E3,5.0016875E3,0E0,4.0634375E3,4.885364E4,2.5019594E4,4.408078E3,3.2440312E3,0E0,0E0,0E0,0E0,0E0,0E0,0E0,0E0,0E0,0E0,0E0,0E0],"parents":[2147483647,0,0,1,1,2,2,3,3,4,4,5,5,6,6,8,8,9,9,10,10,11,11,12,12],"right_children":[2,4,6,8,10,12,14,-1,16,18,20,22,24,-1,-1,-1,-1,-1,-1,-1,-1,-1,-1,-1,-1],"split_conditions":[8.42E-1,-2.0515822E-1,1.078E0,3E0,1.4389326E-1,-1.6858278E-1,8.5E0,-8.501871E0,2E0,-1.7309779E-1,-1.8355004E-1,6.591626E-1,8.87E-1,3.697387E0,6.1836176E0,-1.7682446E0,-5.70968E0,-1.2733498E0,2.1935472E0,-3.993878E0,-7.7462083E-1,9.3434095E-1,3.174477E0,1.2301139E0,2.1032379E0],"split_indices":[23,9,23,12,40,40,3,0,46,7,7,19,23,0,0,0,0,0,0,0,0,0,0,0,0],"split_type":[0,0,0,0,0,0,0,0,0,0,0,0,0,0,0,0,0,0,0,0,0,0,0,0,0],"sum_hessian":[2.527E3,1.554E3,9.73E2,7.8E1,1.476E3,7.13E2,2.6E2,2.8E1,5E1,1.33E3,1.46E2,1.45E2,5.68E2,2.47E2,1.3E1,6E0,4.4E1,1.29E3,4E1,1.13E2,3.3E1,1.3E1,1.32E2,6.4E1,5.04E2],"tree_param":{"num_deleted":"0","num_feature":"99","num_nodes":"25","size_leaf_vector":"1"}},{"base_weights":[-2.8144586E-1,-1.5282544E1,2.3753817E1,-6.1031143E1,-1.2651483E1,1.9808777E1,3.4769096E1,-6.688992E1,-2.9483027E1,-1.0604648E1,-3.1083548E1,2.4477503E1,1.6763298E1,3.3306317E0,5.42685E0,-4.0280595E0,-7.3847566E0,-0E0,-3.161088E0,-1.1596307E0,2.0167568E0,-3.7446969E0,-1.0042824E0,2.6323879E0,1.4994737E0,1.7881806E0,1.0021219E0],"categories":[],"categories_nodes":[],"categories_segments":[],"categories_sizes":[],"default_left":[0,0,0,0,0,0,0,0,0,0,0,1,0,0,0,0,0,0,0,0,0,0,0,0,0,0,0],"id":3,"left_children":[1,3,5,7,9,11,13,15,17,19,21,23,25,-1,-1,-1,-1,-1,-1,-1,-1,-1,-1,-1,-1,-1,-1],"loss_changes":[9.121252E5,1.8525131E5,4.0315688E4,1.0618031E4,5.4609484E4,9.0185E3,2.7256875E3,5.684E3,1.2107334E3,4.1028734E4,1.8321047E4,3.6823125E3,2.7108047E3,0E0,0E0,0E0,0E0,0E0,0E0,0E0,0E0,0E0,0E0,0E0,0E0,0E0,0E0],"parents":[2147483647,0,0,1,1,2,2,3,3,4,4,5,5,6,6,7,7,8,8,9,9,10,10,11,11,12,12],"right_children":[2,4,6,8,10,12,14,16,18,20,22,24,26,-1,-1,-1,-1,-1,-1,-1,-1,-1,-1,-1,-1,-1,-1],"split_conditions":[8.34E-1,-2.0515822E-1,1.078E0,5.53E-1,1.4389326E-1,3.31E-1,8.5E0,1.9311675E-1,1.0681778E0,-1.7309779E-1,2.22E-1,4.074338E-1,2E0,3.3306317E0,5.42685E0,-4.0280595E0,-7.3847566E0,-0E0,-3.161088E0,-1.1596307E0,2.0167568E0,-3.7446969E0,-1.0042824E0,2.6323879E0,1.4994737E0,1.7881806E0,1.0021219E0],"split_indices":[23,9,23,23,40,77,3,22,91,7,23,94,46,0,0,0,0,0,0,0,0,0,0,0,0,0,0],"split_type":[0,0,0,0,0,0,0,0,0,0,0,0,0,0,0,0,0,0,0,0,0,0,0,0,0,0,0],"sum_hessian":[2.526E3,1.556E3,9.7E2,8.2E1,1.474E3,7.19E2,2.51E2,6.7E1,1.5E1,1.33E3,1.44E2,2.77E2,4.42E2,2.39E2,1.2E1,1.7E1,5E1,1E0,1.4E1,1.29E3,4E1,1.09E2,3.5E1,2.28E2,4.9E1,3.75E2,6.7E1],"tree_param":{"num_deleted":"0","num_feature":"99","num_nodes":"27","size_leaf_vector":"1"}},{"base_weights":[-9.905383E-2,-1.3621802E1,2.1527239E1,-5.5562386E1,-1.1320249E1,1.7878004E1,3.1420645E1,-6.071119E1,-2.675327E1,-2.9152088E1,-9.559199E0,2.2096035E1,1.5031828E1,2.9831445E0,5.1103396E0,-6.691332E-1,-6.2033954E0,-0E0,-2.8840997E0,-3.2011852E0,9.614557E-2,-1.1420504E0,7.357823E-1,2.4029331E0,1.4603575E0,1.603557E0,9.211356E-1],"categories":[],"categories_nodes":[],"categories_segments":[],"categories_sizes":[],"default_left":[0,0,0,0,0,0,0,0,0,0,0,1,0,0,0,0,0,0,0,0,0,0,0,0,0,0,0],"id":4,"left_children":[1,3,5,7,9,11,13,15,17,19,21,23,25,-1,-1,-1,-1,-1,-1,-1,-1,-1,-1,-1,-1,-1,-1],"loss_changes":[7.374736E5,1.4788547E5,3.340378E4,7.7435E3,4.5343203E4,7.5361875E3,4.2118906E3,3.1986406E3,1.0252471E3,1.1653469E4,4.2559695E4,2.9966562E3,1.9876641E3,0E0,0E0,0E0,0E0,0E0,0E0,0E0,0E0,0E0,0E0,0E0,0E0,0E0,0E0],"parents":[2147483647,0,0,1,1,2,2,3,3,4,4,5,5,6,6,7,7,8,8,9,9,10,10,11,11,12,12],"right_children":[2,4,6,8,10,12,14,16,18,20,22,24,26,-1,-1,-1,-1,-1,-1,-1,-1,-1,-1,-1,-1,-1,-1],"split_conditions":[8.34E-1,-2.0515822E-1,1.078E0,5.53E-1,1.385349E-1,3.31E-1,9.9E-1,1.4250804E-1,1.0681778E0,-3.4241322E-2,-1.8612696E-1,5.47E-1,2E0,2.9831445E0,5.1103396E0,-6.691332E-1,-6.2033954E0,-0E0,-2.8840997E0,-3.2011852E0,9.614557E-2,-1.1420504E0,7.357823E-1,2.4029331E0,1.4603575E0,1.603557E0,9.211356E-1],"split_indices":[23,9,23,23,24,77,69,22,91,21,7,95,46,0,0,0,0,0,0,0,0,0,0,0,0,0,0],"split_type":[0,0,0,0,0,0,0,0,0,0,0,0,0,0,0,0,0,0,0,0,0,0,0,0,0,0,0],"sum_hessian":[2.518E3,1.55E3,9.68E2,7.8E1,1.472E3,7.12E2,2.56E2,6.4E1,1.4E1,1.29E2,1.343E3,2.8E2,4.32E2,2.42E2,1.4E1,2E0,6.2E1,1E0,1.3E1,1.18E2,1.1E1,1.211E3,1.32E2,2.18E2,6.2E1,3.64E2,6.8E1],"tree_param":{"num_deleted":"0","num_feature":"99","num_nodes":"27","size_leaf_vector":"1"}},{"base_weights":[4.7728922E-2,-1.1985707E1,1.942372E1,-4.9591385E1,-9.923045E0,2.517019E1,1.4327472E1,-6.557677E0,-3.7733944E1,-2.635231E1,-8.301887E0,2.6782633E1,1.4451942E1,1.5174495E1,8.036291E0,-1.1878765E0,-4.108005E0,-1.4275769E0,-3.2650478E0,-1.0095114E0,6.9744134E-1,2.576989E0,4.0178804E0,6.151864E-1,1.6130322E0,1.7542216E0,1.3530365E0,9.0824014E-1,-1.0481141E0],"categories":[],"categories_nodes":[],"categories_segments":[],"categories_sizes":[],"default_left":[0,0,0,0,0,0,0,0,0,0,0,0,0,0,0,0,0,0,0,0,0,0,0,0,0,0,0,0,0],"id":5,"left_children":[1,3,5,7,9,11,13,-1,15,17,19,21,23,25,27,-1,-1,-1,-1,-1,-1,-1,-1,-1,-1,-1,-1,-1,-1],"loss_changes":[5.871699E5,1.1888344E5,2.714425E4,9.181609E3,3.850172E4,6.5906875E3,2.2789766E3,0E0,2.9066719E3,8.562398E3,3.7044156E4,2.5336562E3,4.7027734E2,9.74125E2,1.4742749E3,0E0,0E0,0E0,0E0,0E0,0E0,0E0,0E0,0E0,0E0,0E0,0E0,0E0,0E0],"parents":[2147483647,0,0,1,1,2,2,3,3,4,4,5,5,6,6,8,8,9,9,10,10,11,11,12,12,13,13,14,14],"right_children":[2,4,6,8,10,12,14,-1,16,18,20,22,24,26,28,-1,-1,-1,-1,-1,-1,-1,-1,-1,-1,-1,-1,-1,-1],"split_conditions":[8.34E-1,-2.0515822E-1,2.43E-1,3E0,1.385349E-1,3.785845E-1,2E0,-6.557677E0,2E0,1.883537E-1,-1.8612696E-1,1.8053457E0,1.1352342E0,4.0316716E-1,1.4354129E0,-1.1878765E0,-4.108005E0,-1.4275769E0,-3.2650478E0,-1.0095114E0,6.9744134E-1,2.576989E0,4.0178804E0,6.151864E-1,1.6130322E0,1.7542216E0,1.3530365E0,9.0824014E-1,-1.0481141E0],"split_indices":[23,9,77,12,24,94,46,0,46,22,7,73,37,76,55,0,0,0,0,0,0,0,0,0,0,0,0,0,0],"split_type":[0,0,0,0,0,0,0,0,0,0,0,0,0,0,0,0,0,0,0,0,0,0,0,0,0,0,0,0,0],"sum_hessian":[2.514E3,1.551E3,9.63E2,7.8E1,1.473E3,4.48E2,5.15E2,2.9E1,4.9E1,1.29E2,1.344E3,3.86E2,6.2E1,4.5E2,6.5E1,7E0,4.2E1,4.7E1,8.2E1,1.204E3,1.4E2,3.65E2,2.1E1,1.3E1,4.9E1,1.74E2,2.76E2,6.3E1,2E0],"tree_param":{"num_deleted":"0","num_feature":"99","num_nodes":"29","size_leaf_vector":"1"}},{"base_weights":[-4.9806345E-2,-1.1160279E1,1.7598152E1,-4.5803074E1,-9.25297E0,1.4588349E1,2.5886673E1,-5.047482E1,-2.0181751E1,-7.7581573E0,-2.4464758E1,2.061367E1,1.300629E1,2.4446724E1,4.3805075E0,-2.9340377E0,-5.484408E0,-1.1869415E-1,-2.3613331E0,-8.651311E-1,1.6471909E0,-2.917884E0,-6.472564E-1,2.1628177E0,3.413677E-1,7.3611176E-1,1.3625735E0,2.695054E0,2.0861223E0],"categories":[],"categories_nodes":[],"categories_segments":[],"categories_sizes":[],"default_left":[0,0,0,0,0,0,0,0,0,0,0,0,0,0,0,0,0,0,0,0,0,0,0,0,0,0,0,0,0],"id":6,"left_children":[1,3,5,7,9,11,13,15,17,19,21,23,25,27,-1,-1,-1,-1,-1,-1,-1,-1,-1,-1,-1,-1,-1,-1,-1],"loss_changes":[4.9444284E5,1.0088516E5,2.3138156E4,6.831797E3,3.2724172E4,5.990922E3,3.7809219E3,2.0344219E3,7.3885693E2,2.9249242E4,1.0291922E4,2.132086E3,1.6072266E3,5.6996875E2,0E0,0E0,0E0,0E0,0E0,0E0,0E0,0E0,0E0,0E0,0E0,0E0,0E0,0E0,0E0],"parents":[2147483647,0,0,1,1,2,2,3,3,4,4,5,5,6,6,7,7,8,8,9,9,10,10,11,11,12,12,13,13],"right_children":[2,4,6,8,10,12,14,16,18,20,22,24,26,28,-1,-1,-1,-1,-1,-1,-1,-1,-1,-1,-1,-1,-1,-1,-1],"split_conditions":[8.42E-1,-2.0515822E-1,1.078E0,5.53E-1,1.734035E-1,-1.6858278E-1,8.5E0,1.9311675E-1,2.8251994E0,-1.7309779E-1,-1.8355004E-1,5.5853286E0,8.87E-1,1.5674531E0,4.3805075E0,-2.9340377E0,-5.484408E0,-1.1869415E-1,-2.3613331E0,-8.651311E-1,1.6471909E0,-2.917884E0,-6.472564E-1,2.1628177E0,3.413677E-1,7.3611176E-1,1.3625735E0,2.695054E0,2.0861223E0],"split_indices":[23,9,23,23,40,40,3,22,70,7,7,80,23,55,0,0,0,0,0,0,0,0,0,0,0,0,0,0,0],"split_type":[0,0,0,0,0,0,0,0,0,0,0,0,0,0,0,0,0,0,0,0,0,0,0,0,0,0,0,0,0],"sum_hessian":[2.518E3,1.546E3,9.72E2,7.8E1,1.468E3,7.18E2,2.54E2,6.4E1,1.4E1,1.34E3,1.28E2,1.43E2,5.75E2,2.4E2,1.4E1,1.4E1,5E1,3E0,1.1E1,1.294E3,4.6E1,1E2,2.8E1,1.34E2,9E0,6.1E1,5.14E2,1.32E2,1.08E2],"tree_param":{"num_deleted":"0","num_feature":"99","num_nodes":"29","size_leaf_vector":"1"}},{"base_weights":[3.562656E-2,-9.816283E0,1.5922928E1,-3.9779743E1,-8.200136E0,1.29146595E1,2.30065E1,-4.5367455E1,-2.2777283E1,3.753406E0,-9.927866E0,1.6112095E1,1.0693483E1,3.076075E0,2.0926776E0,-1.3591614E-1,-4.5926204E0,-2.6488442E0,-4.7677732E-1,6.460949E-2,2.6686199E0,-2.7519946E0,-8.856025E-1,1.1657547E0,1.8626469E0,-1.6328898E-1,1.0908321E0],"categories":[],"categories_nodes":[],"categories_segments":[],"categories_sizes":[],"default_left":[0,0,0,0,0,0,0,0,0,0,0,0,0,0,0,0,0,0,0,0,0,0,0,0,0,0,0],"id":7,"left_children":[1,3,5,7,9,11,13,15,17,19,21,23,25,-1,-1,-1,-1,-1,-1,-1,-1,-1,-1,-1,-1,-1,-1],"loss_changes":[3.9574384E5,7.441136E4,1.9673953E4,4.757242E3,3.0763914E4,4.2522656E3,2.7917812E3,8.0390625E2,1.0389229E3,1.3088946E4,2.3604938E4,2.343E3,1.2194219E3,0E0,0E0,0E0,0E0,0E0,0E0,0E0,0E0,0E0,0E0,0E0,0E0,0E0,0E0],"parents":[2147483647,0,0,1,1,2,2,3,3,4,4,5,5,6,6,7,7,8,8,9,9,10,10,11,11,12,12],"right_children":[2,4,6,8,10,12,14,16,18,20,22,24,26,-1,-1,-1,-1,-1,-1,-1,-1,-1,-1,-1,-1,-1,-1],"split_conditions":[8.34E-1,-2.0515822E-1,1.065E0,4.3310623E0,-1.9356447E-1,3.31E-1,2E0,1.3543652E0,4E0,-1.8917537E-1,1.03866756E-1,-6.612742E-2,-2.9904374E-1,3.076075E0,2.0926776E0,-1.3591614E-1,-4.5926204E0,-2.6488442E0,-4.7677732E-1,6.460949E-2,2.6686199E0,-2.7519946E0,-8.856025E-1,1.1657547E0,1.8626469E0,-1.6328898E-1,1.0908321E0],"split_indices":[23,9,23,2,42,77,64,17,12,7,24,76,60,0,0,0,0,0,0,0,0,0,0,0,0,0,0],"split_type":[0,0,0,0,0,0,0,0,0,0,0,0,0,0,0,0,0,0,0,0,0,0,0,0,0,0,0],"sum_hessian":[2.524E3,1.558E3,9.66E2,7.7E1,1.481E3,6.83E2,2.83E2,5.5E1,2.2E1,1.86E2,1.295E3,2.73E2,4.1E2,5.3E1,2.3E2,1E0,5.4E1,1.7E1,5E0,1.66E2,2E1,7.1E1,1.224E3,1.04E2,1.69E2,6E0,4.04E2],"tree_param":{"num_deleted":"0","num_feature":"99","num_nodes":"27","size_leaf_vector":"1"}},{"base_weights":[-9.123679E-2,-9.089405E0,1.425562E1,-3.770947E1,-7.535931E0,1.8660498E1,1.0455029E1,-5.0980263E0,-2.7968027E1,-6.096063E0,-1.9901844E1,1.7912394E1,3.7400272E0,1.5893661E0,1.079226E1,-3.175011E0,-1.3991016E0,3.2760966E-1,-8.166348E-1,-3.507092E0,-1.4594824E0,1.9165932E0,1.0490065E0,4.168067E-1,-1.0243496E0,1.2679597E0,9.503765E-1],"categories":[],"categories_nodes":[],"categories_segments":[],"categories_sizes":[],"default_left":[0,0,0,0,0,0,0,0,0,0,0,0,0,0,0,0,0,0,0,0,0,0,0,0,0,0,0],"id":8,"left_children":[1,3,5,7,9,11,13,-1,15,17,19,21,-1,23,25,-1,-1,-1,-1,-1,-1,-1,-1,-1,-1,-1,-1],"loss_changes":[3.2965903E5,6.878224E4,1.57919375E4,6.701E3,2.6062852E4,4.4437344E3,1.4384297E3,0E0,1.350125E3,2.6102477E4,1.0877031E4,3.3858594E3,0E0,7.264453E2,7.846836E2,0E0,0E0,0E0,0E0,0E0,0E0,0E0,0E0,0E0,0E0,0E0,0E0],"parents":[2147483647,0,0,1,1,2,2,3,3,4,4,5,5,6,6,8,8,9,9,10,10,11,11,13,13,14,14],"right_children":[2,4,6,8,10,12,14,-1,16,18,20,22,-1,24,26,-1,-1,-1,-1,-1,-1,-1,-1,-1,-1,-1,-1],"split_conditions":[7.73E-1,-2.0515822E-1,2.43E-1,3E0,1.4389326E-1,1.028E1,4.233067E0,-5.0980263E0,5.53E-1,3.4531522E-1,1.9E-1,3.785845E-1,3.7400272E0,1.4354129E0,4.0316716E-1,-3.175011E0,-1.3991016E0,3.2760966E-1,-8.166348E-1,-3.507092E0,-1.4594824E0,1.9165932E0,1.0490065E0,4.168067E-1,-1.0243496E0,1.2679597E0,9.503765E-1],"split_indices":[23,9,77,12,40,54,62,0,23,22,23,94,0,55,76,0,0,0,0,0,0,0,0,0,0,0,0],"split_type":[0,0,0,0,0,0,0,0,0,0,0,0,0,0,0,0,0,0,0,0,0,0,0,0,0,0,0],"sum_hessian":[2.55E3,1.568E3,9.82E2,7.8E1,1.49E3,4.5E2,5.32E2,2.9E1,4.9E1,1.338E3,1.52E2,4.37E2,1.3E1,2.1E1,5.11E2,3.6E1,1.3E1,2.41E2,1.097E3,3.6E1,1.16E2,3.7E2,6.7E1,1.9E1,2E0,1.97E2,3.14E2],"tree_param":{"num_deleted":"0","num_feature":"99","num_nodes":"27","size_leaf_vector":"1"}},{"base_weights":[1.6114435E-1,-8.86023E0,1.1694983E1,-6.2478037E0,-2.4205202E1,9.294157E0,1.8960524E1,-6.6792536E0,2.0815111E1,-3.782179E1,-1.671208E1,1.0259944E1,-7.4158998E0,1.7832863E1,3.4008038E0,3.9216682E-1,-7.3905843E-1,2.1876972E0,-0E0,-1.8284727E0,-4.3689055E0,-1.1124414E0,-2.648795E0,-3.125685E-1,1.105542E0,-7.9978687E-1,2.9242364E-1,2.0132215E0,1.476332E0],"categories":[],"categories_nodes":[],"categories_segments":[],"categories_sizes":[],"default_left":[0,0,0,0,0,0,0,0,0,0,0,0,0,0,0,0,0,0,0,0,0,0,0,0,0,0,0,0,0],"id":9,"left_children":[1,3,5,7,9,11,13,15,17,19,21,23,25,27,-1,-1,-1,-1,-1,-1,-1,-1,-1,-1,-1,-1,-1,-1,-1],"loss_changes":[2.6046733E5,5.567603E4,1.8535203E4,1.4183285E4,1.8902742E4,1.3591578E4,2.8501719E3,9.035992E3,3.8272656E2,5.806617E3,6.408828E3,8.528336E3,3.74323E2,8.634453E2,0E0,0E0,0E0,0E0,0E0,0E0,0E0,0E0,0E0,0E0,0E0,0E0,0E0,0E0,0E0],"parents":[2147483647,0,0,1,1,2,2,3,3,4,4,5,5,6,6,7,7,8,8,9,9,10,10,11,11,12,12,13,13],"right_children":[2,4,6,8,10,12,14,16,18,20,22,24,26,28,-1,-1,-1,-1,-1,-1,-1,-1,-1,-1,-1,-1,-1,-1,-1],"split_conditions":[-1.8612696E-1,-8.844219E-3,1.065E0,8.659062E0,3.9561017E0,4E0,8.5E0,7.07838E-1,-1.874401E-1,1.883537E-1,7.363983E0,-7.021894E-2,1.4E1,1.5674531E0,3.4008038E0,3.9216682E-1,-7.3905843E-1,2.1876972E0,-0E0,-1.8284727E0,-4.3689055E0,-1.1124414E0,-2.648795E0,-3.125685E-1,1.105542E0,-7.9978687E-1,2.9242364E-1,2.0132215E0,1.476332E0],"split_indices":[7,42,23,18,2,46,3,56,7,22,62,21,11,55,0,0,0,0,0,0,0,0,0,0,0,0,0,0,0],"split_type":[0,0,0,0,0,0,0,0,0,0,0,0,0,0,0,0,0,0,0,0,0,0,0,0,0,0,0,0,0],"sum_hessian":[2.499E3,1.402E3,1.097E3,1.201E3,2.01E2,8.29E2,2.68E2,1.184E3,1.7E1,6.8E1,1.33E2,7.85E2,4.4E1,2.54E2,1.4E1,7.3E1,1.111E3,1.6E1,1E0,1.8E1,5E1,8.8E1,4.5E1,4.3E1,7.42E2,4.3E1,1E0,1.37E2,1.17E2],"tree_param":{"num_deleted":"0","num_feature":"99","num_nodes":"29","size_leaf_vector":"1"}},{"base_weights":[-1.2833202E-1,-8.311224E0,1.05043125E1,-5.79239E0,-2.3604168E1,8.472195E0,1.7206625E1,-6.198544E0,1.9041946E1,-3.5012173E1,-1.6237043E1,9.348145E0,-5.4730616E0,1.6169563E1,3.0907867E0,-1.9429798E0,-5.6380177E-1,1.9954596E0,-0E0,-1.7009343E0,-3.9758484E0,-1.1593001E0,-2.5168796E0,-5.6716555E-1,1.0059506E0,-7.994768E-1,6.960402E-1,1.8267357E0,1.3337866E0],"categories":[],"categories_nodes":[],"categories_segments":[],"categories_sizes":[],"default_left":[0,0,0,0,0,0,0,0,0,0,0,0,0,0,0,0,0,0,0,0,0,0,0,0,0,0,0,0,0],"id":10,"left_children":[1,3,5,7,9,11,13,15,17,19,21,23,25,27,-1,-1,-1,-1,-1,-1,-1,-1,-1,-1,-1,-1,-1,-1,-1],"loss_changes":[2.2114734E5,5.4786375E4,1.4501625E4,1.2584719E4,1.5327453E4,1.056077E4,2.138789E3,8.570902E3,3.136172E2,4.659203E3,4.316707E3,8.7483125E3,1.7206676E3,6.2826953E2,0E0,0E0,0E0,0E0,0E0,0E0,0E0,0E0,0E0,0E0,0E0,0E0,0E0,0E0,0E0],"parents":[2147483647,0,0,1,1,2,2,3,3,4,4,5,5,6,6,7,7,8,8,9,9,10,10,11,11,12,12,13,13],"right_children":[2,4,6,8,10,12,14,16,18,20,22,24,26,28,-1,-1,-1,-1,-1,-1,-1,-1,-1,-1,-1,-1,-1,-1,-1],"split_conditions":[-1.8612696E-1,0E0,1.078E0,8.659062E0,3.9561017E0,2.5200567E-1,9.9E-1,3.068461E0,-1.874401E-1,1.883537E-1,7.363983E0,-7.021894E-2,8.72E-1,1.5674531E0,3.0907867E0,-1.9429798E0,-5.6380177E-1,1.9954596E0,-0E0,-1.7009343E0,-3.9758484E0,-1.1593001E0,-2.5168796E0,-5.6716555E-1,1.0059506E0,-7.994768E-1,6.960402E-1,1.8267357E0,1.3337866E0],"split_indices":[7,42,23,18,2,58,69,2,7,22,62,21,23,55,0,0,0,0,0,0,0,0,0,0,0,0,0,0,0],"split_type":[0,0,0,0,0,0,0,0,0,0,0,0,0,0,0,0,0,0,0,0,0,0,0,0,0,0,0,0,0],"sum_hessian":[2.538E3,1.435E3,1.103E3,1.235E3,2E2,8.51E2,2.52E2,1.217E3,1.8E1,7.5E1,1.25E2,8.02E2,4.9E1,2.39E2,1.3E1,4.6E1,1.171E3,1.7E1,1E0,1.8E1,5.7E1,8.6E1,3.9E1,3.5E1,7.67E2,4.2E1,7E0,1.29E2,1.1E2],"tree_param":{"num_deleted":"0","num_feature":"99","num_nodes":"29","size_leaf_vector":"1"}},{"base_weights":[-8.569195E-3,-7.51616E0,9.626421E0,-2.9427639E1,-6.1504674E0,1.0357107E1,-5.502483E0,-3.9828331E0,-2.150306E1,-5.1205745E0,-2.1052134E1,1.3448719E1,7.2543573E0,-7.340389E0,5.1910977E0,-3.4541067E-1,-2.3934937E0,-5.4785997E-1,1.6150795E0,-3.209903E0,-1.6095419E0,-1.0121716E0,1.4148195E0,-5.490931E-1,7.46228E-1,-1.0773691E0,-4.6614558E-1,1.0390605E0,-2.7037126E-1],"categories":[],"categories_nodes":[],"categories_segments":[],"categories_sizes":[],"default_left":[0,0,0,0,0,0,0,0,0,0,0,0,0,0,0,0,0,0,0,0,0,0,0,0,0,0,0,0,0],"id":11,"left_children":[1,3,5,7,9,11,13,-1,15,17,19,21,23,25,27,-1,-1,-1,-1,-1,-1,-1,-1,-1,-1,-1,-1,-1,-1],"loss_changes":[1.8407294E5,4.2103977E4,1.2477219E4,4.5147812E3,2.0241285E4,9.804266E3,1.1196997E3,0E0,1.8431875E3,9.711707E3,3.1938086E3,9.048266E3,1.5247305E3,1.6829565E2,4.6144836E2,0E0,0E0,0E0,0E0,0E0,0E0,0E0,0E0,0E0,0E0,0E0,0E0,0E0,0E0],"parents":[2147483647,0,0,1,1,2,2,3,3,4,4,5,5,6,6,8,8,9,9,10,10,11,11,12,12,13,13,14,14],"right_children":[2,4,6,8,10,12,14,-1,16,18,20,22,24,26,28,-1,-1,-1,-1,-1,-1,-1,-1,-1,-1,-1,-1,-1,-1],"split_conditions":[-1.8612696E-1,-2.0515822E-1,2.5200567E-1,3E0,7.5803375E0,2.43E-1,8.72E-1,-3.9828331E0,2E0,8.659062E0,3.9691558E0,-1.4772792E-1,-1.7847605E-1,4.6778436E0,9.810126E-1,-3.4541067E-1,-2.3934937E0,-5.4785997E-1,1.6150795E0,-3.209903E0,-1.6095419E0,-1.0121716E0,1.4148195E0,-5.490931E-1,7.46228E-1,-1.0773691E0,-4.6614558E-1,1.0390605E0,-2.7037126E-1],"split_indices":[7,9,58,12,26,77,23,0,46,18,71,21,40,2,19,0,0,0,0,0,0,0,0,0,0,0,0,0,0],"split_type":[0,0,0,0,0,0,0,0,0,0,0,0,0,0,0,0,0,0,0,0,0,0,0,0,0,0,0,0,0],"sum_hessian":[2.541E3,1.429E3,1.112E3,8.1E1,1.348E3,1.062E3,5E1,3.1E1,5E1,1.264E3,8.4E1,5.27E2,5.35E2,4.4E1,6E0,7E0,4.3E1,1.245E3,1.9E1,2.2E1,6.2E1,1.4E1,5.13E2,7E0,5.28E2,1.5E1,2.9E1,4E0,2E0],"tree_param":{"num_deleted":"0","num_feature":"99","num_nodes":"29","size_leaf_vector":"1"}},{"base_weights":[-8.148817E-3,-6.6650143E0,8.646987E0,-4.6397314E0,-1.8702908E1,6.8071647E0,1.4194729E1,-5.318523E0,5.972707E0,-2.7349903E1,-1.16461935E1,7.506008E0,-4.4623513E0,1.3242539E1,2.7089932E0,-1.0140091E0,-3.796977E-1,-1.5585468E0,1.1242006E0,-2.0866334E0,-3.450194E0,-7.0134604E-1,-1.9647677E0,2.05002E0,6.8860686E-1,-6.163414E-1,4.5464507E-1,1.7396431E0,1.1692108E0],"categories":[],"categories_nodes":[],"categories_segments":[],"categories_sizes":[],"default_left":[0,0,0,0,0,0,0,0,0,0,0,0,0,0,0,0,0,0,0,0,0,0,0,0,0,0,0,0,0],"id":12,"left_children":[1,3,5,7,9,11,13,15,17,19,21,23,25,27,-1,-1,-1,-1,-1,-1,-1,-1,-1,-1,-1,-1,-1,-1,-1],"loss_changes":[1.4597933E5,3.452976E4,1.0834484E4,8.917465E3,1.1481969E4,6.6499453E3,2.2067188E3,8.27899E3,8.713127E3,2.1798203E3,3.794835E3,5.767461E3,8.2311536E2,9.5748047E2,0E0,0E0,0E0,0E0,0E0,0E0,0E0,0E0,0E0,0E0,0E0,0E0,0E0,0E0,0E0],"parents":[2147483647,0,0,1,1,2,2,3,3,4,4,5,5,6,6,7,7,8,8,9,9,10,10,11,11,12,12,13,13],"right_children":[2,4,6,8,10,12,14,16,18,20,22,24,26,28,-1,-1,-1,-1,-1,-1,-1,-1,-1,-1,-1,-1,-1,-1,-1],"split_conditions":[-1.8612696E-1,0E0,1.065E0,1.4260545E0,4.066215E0,2.5200567E-1,8.5E0,3.7551875E0,3E0,2.196725E-1,1.9E-1,-1.8057056E-1,8.72E-1,1.2395108E0,2.7089932E0,-1.0140091E0,-3.796977E-1,-1.5585468E0,1.1242006E0,-2.0866334E0,-3.450194E0,-7.0134604E-1,-1.9647677E0,2.05002E0,6.8860686E-1,-6.163414E-1,4.5464507E-1,1.7396431E0,1.1692108E0],"split_indices":[7,42,23,55,2,58,3,2,12,22,59,42,23,55,0,0,0,0,0,0,0,0,0,0,0,0,0,0,0],"split_type":[0,0,0,0,0,0,0,0,0,0,0,0,0,0,0,0,0,0,0,0,0,0,0,0,0,0,0,0,0],"sum_hessian":[2.53E3,1.431E3,1.099E3,1.228E3,2.03E2,8.3E2,2.69E2,1.156E3,7.2E1,8.8E1,1.15E2,7.83E2,4.7E1,2.55E2,1.4E1,2.73E2,8.83E2,1.3E1,5.9E1,5.1E1,3.7E1,7.6E1,3.9E1,3.2E1,7.51E2,4.1E1,6E0,6.2E1,1.93E2],"tree_param":{"num_deleted":"0","num_feature":"99","num_nodes":"29","size_leaf_vector":"1"}},{"base_weights":[-4.227787E-2,-6.3743167E0,7.3085074E0,-2.4433672E1,-5.2242403E0,2.865553E-1,8.674646E0,-3.404576E0,-1.7104586E1,-1.34666395E1,-3.8280692E0,1.2738307E1,-1.6585066E0,-4.8297625E0,9.243906E0,-2.4966355E-1,-1.8755823E0,-6.955147E-1,-1.7667925E0,2.8345945E-1,-5.262068E-1,1.645155E0,-1.1428267E-1,-4.3333983E-1,1.9771454E-1,-1.0428737E0,3.3839974E-1,1.1410133E0,5.556701E-1],"categories":[],"categories_nodes":[],"categories_segments":[],"categories_sizes":[],"default_left":[0,0,0,0,1,0,0,0,0,0,0,0,0,0,0,0,0,0,0,0,0,0,0,0,0,0,0,0,0],"id":13,"left_children":[1,3,5,7,9,11,13,-1,15,17,19,21,23,25,27,-1,-1,-1,-1,-1,-1,-1,-1,-1,-1,-1,-1,-1,-1],"loss_changes":[1.1723875E5,2.7570207E4,1.1081219E4,3.9596445E3,1.4407906E4,4.827401E3,7.6210703E3,0E0,8.9988184E2,4.5142695E3,1.0516008E4,1.5823779E3,1.6744938E3,1.9805745E3,7.179664E3,0E0,0E0,0E0,0E0,0E0,0E0,0E0,0E0,0E0,0E0,0E0,0E0,0E0,0E0],"parents":[2147483647,0,0,1,1,2,2,3,3,4,4,5,5,6,6,8,8,9,9,10,10,11,11,12,12,13,13,14,14],"right_children":[2,4,6,8,10,12,14,-1,16,18,20,22,24,26,28,-1,-1,-1,-1,-1,-1,-1,-1,-1,-1,-1,-1,-1,-1],"split_conditions":[4.7403393E0,-2.0515822E-1,4.8224926E0,3E0,7.3E-1,3.8347968E-1,-7.021894E-2,-3.404576E0,2E0,1.753035E0,3.4531522E-1,2.0680148E-2,8.72E-1,5.42E0,5.6E-1,-2.4966355E-1,-1.8755823E0,-6.955147E-1,-1.7667925E0,2.8345945E-1,-5.262068E-1,1.645155E0,-1.1428267E-1,-4.3333983E-1,1.9771454E-1,-1.0428737E0,3.3839974E-1,1.1410133E0,5.556701E-1],"split_indices":[10,9,62,12,69,24,21,0,46,4,22,93,23,35,77,0,0,0,0,0,0,0,0,0,0,0,0,0,0],"split_type":[0,0,0,0,0,0,0,0,0,0,0,0,0,0,0,0,0,0,0,0,0,0,0,0,0,0,0,0,0],"sum_hessian":[2.515E3,1.352E3,1.163E3,7.8E1,1.274E3,1.91E2,9.72E2,3E1,4.8E1,1.81E2,1.093E3,2.5E1,1.66E2,3.8E1,9.34E2,6E0,4.2E1,7.4E1,1.07E2,1.92E2,9.01E2,2E1,5E0,9.7E1,6.9E1,2.3E1,1.5E1,5.84E2,3.5E2],"tree_param":{"num_deleted":"0","num_feature":"99","num_nodes":"29","size_leaf_vector":"1"}},{"base_weights":[-1.1146739E-2,-5.740514E0,6.6159115E0,-4.2919765E0,-1.7149372E1,1.4057621E-1,7.916356E0,-3.8754377E0,-2.33592E1,-2.7708702E1,-1.2522923E1,1.0733E1,-1.5788541E0,-7.4627447E0,8.247043E0,-4.6370283E-1,6.0077363E-1,-2.6610143E0,-5.968154E-1,-2.8275447E0,-0E0,-1.4444711E0,-5.3992927E-2,-2.6628533E-1,1.3489364E0,-3.1726405E-1,2.6160896E-1,7.1813962E-3,-1.2879676E0,1.0387259E0,5.2050656E-1],"categories":[],"categories_nodes":[],"categories_segments":[],"categories_sizes":[],"default_left":[0,0,0,0,0,0,0,0,0,0,0,0,0,0,0,0,0,0,0,0,0,0,0,0,0,0,0,0,0,0,0],"id":14,"left_children":[1,3,5,7,9,11,13,15,17,19,21,23,25,27,29,-1,-1,-1,-1,-1,-1,-1,-1,-1,-1,-1,-1,-1,-1,-1,-1],"loss_changes":[9.63562E4,2.2147004E4,9.820086E3,9.172588E3,6.3292266E3,3.76802E3,5.104711E3,8.991529E3,7.7002344E2,5.965586E2,2.3677207E3,1.2508977E3,1.1788164E3,9.8702625E2,5.979504E3,0E0,0E0,0E0,0E0,0E0,0E0,0E0,0E0,0E0,0E0,0E0,0E0,0E0,0E0,0E0,0E0],"parents":[2147483647,0,0,1,1,2,2,3,3,4,4,5,5,6,6,7,7,8,8,9,9,10,10,11,11,12,12,13,13,14,14],"right_children":[2,4,6,8,10,12,14,16,18,20,22,24,26,28,30,-1,-1,-1,-1,-1,-1,-1,-1,-1,-1,-1,-1,-1,-1,-1,-1],"split_conditions":[4.7403393E0,9.5E-2,4.9146614E0,1.7113863E0,5.792375E0,3.8347968E-1,-1.3202246E-1,1.384728E0,1.6326696E-2,7.85766E0,4.926547E0,-1.3202246E-1,-1.6833301E-1,2.335232E0,3.31E-1,-4.6370283E-1,6.0077363E-1,-2.6610143E0,-5.968154E-1,-2.8275447E0,-0E0,-1.4444711E0,-5.3992927E-2,-2.6628533E-1,1.3489364E0,-3.1726405E-1,2.6160896E-1,7.1813962E-3,-1.2879676E0,1.0387259E0,5.2050656E-1],"split_indices":[10,41,62,19,35,24,21,55,6,17,2,21,7,52,77,0,0,0,0,0,0,0,0,0,0,0,0,0,0,0,0],"split_type":[0,0,0,0,0,0,0,0,0,0,0,0,0,0,0,0,0,0,0,0,0,0,0,0,0,0,0,0,0,0,0],"sum_hessian":[2.534E3,1.36E3,1.174E3,1.21E3,1.5E2,1.98E2,9.76E2,1.187E3,2.3E1,4.2E1,1.08E2,2.7E1,1.71E2,1.9E1,9.57E2,1.104E3,8.3E1,1.8E1,5E0,4.1E1,1E0,9.2E1,1.6E1,4E0,2.3E1,1.26E2,4.5E1,8E0,1.1E1,5.57E2,4E2],"tree_param":{"num_deleted":"0","num_feature":"99","num_nodes":"31","size_leaf_vector":"1"}},{"base_weights":[-7.639464E-2,-4.561257E0,6.85387E0,-2.9990706E0,-1.4056147E1,6.473479E0,2.3313494E1,-3.5414796E0,1.1948093E1,-2.1165419E1,-9.71017E0,5.1223183E0,9.960267E0,-0E0,2.528625E0,4.8436403E-1,-4.0968567E-1,-0E0,1.8500074E0,-2.3895032E0,-8.7045115E-1,-1.1676586E0,3.3085966E-1,9.297606E-2,5.572416E-1,1.4134744E0,8.846418E-1],"categories":[],"categories_nodes":[],"categories_segments":[],"categories_sizes":[],"default_left":[0,0,0,0,0,0,0,0,0,0,1,0,0,0,0,0,0,0,0,0,0,0,0,0,0,0,0],"id":15,"left_children":[1,3,5,7,9,11,13,15,17,19,21,23,25,-1,-1,-1,-1,-1,-1,-1,-1,-1,-1,-1,-1,-1,-1],"loss_changes":[7.836443E4,2.2468965E4,5.5987734E3,1.0694323E4,5.923004E3,4.3217227E3,7.345947E2,5.9697695E3,3.7007627E3,1.9450742E3,3.693788E3,1.2568809E3,7.6158203E2,0E0,0E0,0E0,0E0,0E0,0E0,0E0,0E0,0E0,0E0,0E0,0E0,0E0,0E0],"parents":[2147483647,0,0,1,1,2,2,3,3,4,4,5,5,6,6,7,7,8,8,9,9,10,10,11,11,12,12],"right_children":[2,4,6,8,10,12,14,16,18,20,22,24,26,-1,-1,-1,-1,-1,-1,-1,-1,-1,-1,-1,-1,-1,-1],"split_conditions":[7.61E-1,1.204049E-2,1.14E0,7.679808E0,3.722979E-2,1.065E0,-1.9873448E-1,7.07838E-1,-6.176154E-2,5.17E-1,9.9E-1,-3.77E-1,1.1857176E0,-0E0,2.528625E0,4.8436403E-1,-4.0968567E-1,-0E0,1.8500074E0,-2.3895032E0,-8.7045115E-1,-1.1676586E0,3.3085966E-1,9.297606E-2,5.572416E-1,1.4134744E0,8.846418E-1],"split_indices":[23,42,69,26,6,23,7,56,21,23,87,59,55,0,0,0,0,0,0,0,0,0,0,0,0,0,0],"split_type":[0,0,0,0,0,0,0,0,0,0,0,0,0,0,0,0,0,0,0,0,0,0,0,0,0,0,0],"sum_hessian":[2.518E3,1.53E3,9.88E2,1.317E3,2.13E2,9.69E2,1.9E1,1.273E3,4.4E1,7.7E1,1.36E2,7.04E2,2.65E2,2E0,1.7E1,7.7E1,1.196E3,1.6E1,2.8E1,6.1E1,1.6E1,1.19E2,1.7E1,7.1E1,6.33E2,4.9E1,2.16E2],"tree_param":{"num_deleted":"0","num_feature":"99","num_nodes":"27","size_leaf_vector":"1"}},{"base_weights":[-2.2460267E-2,-4.7258925E0,5.368331E0,-1.1661584E1,-2.7446105E0,3.9208314E0,9.183411E0,8.805247E0,-1.3869972E1,4.7140503E0,-3.8081095E0,1.4481733E1,3.4406936E0,1.3466238E1,7.362777E0,1.7921959E0,2.715041E-1,-1.201042E0,-2.5489779E0,1.9075693E-1,1.1292843E0,-7.2327894E-1,-2.6933017E-1,1.5309631E0,-0E0,4.4381848E-1,-2.869747E-1,1.0827518E0,2.0423305E0,9.5591897E-1,6.149784E-1],"categories":[],"categories_nodes":[],"categories_segments":[],"categories_sizes":[],"default_left":[0,0,0,0,0,0,0,1,0,0,0,0,0,0,0,0,0,0,0,0,0,0,0,0,0,0,0,0,0,0,0],"id":16,"left_children":[1,3,5,7,9,11,13,15,17,19,21,23,25,27,29,-1,-1,-1,-1,-1,-1,-1,-1,-1,-1,-1,-1,-1,-1,-1,-1],"loss_changes":[6.4421227E4,1.8452965E4,6.3298555E3,1.385452E4,8.435058E3,4.097125E3,2.1041953E3,1.3619915E3,4.889992E3,2.2620615E3,3.4123887E3,4.1914062E2,5.2593857E3,9.341387E2,3.4343848E2,0E0,0E0,0E0,0E0,0E0,0E0,0E0,0E0,0E0,0E0,0E0,0E0,0E0,0E0,0E0,0E0],"parents":[2147483647,0,0,1,1,2,2,3,3,4,4,5,5,6,6,7,7,8,8,9,9,10,10,11,11,12,12,13,13,14,14],"right_children":[2,4,6,8,10,12,14,16,18,20,22,24,26,28,30,-1,-1,-1,-1,-1,-1,-1,-1,-1,-1,-1,-1,-1,-1,-1,-1],"split_conditions":[4.7403393E0,4E0,1.046E0,1.5884838E-1,3.4531522E-1,-1.873934E-1,6.2019176E0,1.3388833E0,1.9205052E-1,1.0302577E0,6.187E0,3.895841E-1,8E-3,7.5E-1,8.725637E-1,1.7921959E0,2.715041E-1,-1.201042E0,-2.5489779E0,1.9075693E-1,1.1292843E0,-7.2327894E-1,-2.6933017E-1,1.5309631E0,-0E0,4.4381848E-1,-2.869747E-1,1.0827518E0,2.0423305E0,9.5591897E-1,6.149784E-1],"split_indices":[10,12,23,22,22,42,80,91,42,19,18,22,59,69,19,0,0,0,0,0,0,0,0,0,0,0,0,0,0,0,0],"split_type":[0,0,0,0,0,0,0,0,0,0,0,0,0,0,0,0,0,0,0,0,0,0,0,0,0,0,0,0,0,0,0],"sum_hessian":[2.537E3,1.356E3,1.181E3,2.98E2,1.058E3,8.61E2,3.2E2,2.8E1,2.7E2,1.3E2,9.28E2,3.4E1,8.27E2,9E1,2.3E2,9E0,1.9E1,2.37E2,3.3E1,9.4E1,3.6E1,2.23E2,7.05E2,3.2E1,2E0,7.16E2,1.11E2,7E1,2E1,7.4E1,1.56E2],"tree_param":{"num_deleted":"0","num_feature":"99","num_nodes":"31","size_leaf_vector":"1"}},{"base_weights":[-3.03502E-2,-4.1835423E0,4.8295813E0,-1.689008E1,-3.354323E0,6.63309E0,2.2049706E0,-2.4906572E1,-1.1721444E1,-7.949553E0,-1.9413772E0,-4.315104E0,7.3154936E0,-2.0552146E0,3.3541324E0,-2.53604E0,-5.818736E-2,-5.986754E-1,-1.5452384E0,-7.014443E-1,-2.4239385E0,2.913572E-1,-3.049047E-1,-9.630276E-1,2.9909784E-1,6.251556E-1,1.297404E0,-5.8644224E-2,-9.251561E-1,2.952512E-1,8.6990005E-1],"categories":[],"categories_nodes":[],"categories_segments":[],"categories_sizes":[],"default_left":[0,0,0,0,1,0,0,0,0,0,0,0,0,0,0,0,0,0,0,0,0,0,0,0,0,0,0,0,0,0,0],"id":17,"left_children":[1,3,5,7,9,11,13,15,17,19,21,23,25,27,29,-1,-1,-1,-1,-1,-1,-1,-1,-1,-1,-1,-1,-1,-1,-1,-1],"loss_changes":[5.1423E4,1.4171941E4,5.4347754E3,2.4888867E3,8.271921E3,5.263133E3,2.3913708E3,4.2240234E1,7.773574E2,3.947709E3,5.364536E3,1.716157E3,3.5768086E3,9.688882E2,6.5426855E2,0E0,0E0,0E0,0E0,0E0,0E0,0E0,0E0,0E0,0E0,0E0,0E0,0E0,0E0,0E0,0E0],"parents":[2147483647,0,0,1,1,2,2,3,3,4,4,5,5,6,6,7,7,8,8,9,9,10,10,11,11,12,12,13,13,14,14],"right_children":[2,4,6,8,10,12,14,16,18,20,22,24,26,28,30,-1,-1,-1,-1,-1,-1,-1,-1,-1,-1,-1,-1,-1,-1,-1,-1],"split_conditions":[4.7403393E0,-2.0515822E-1,5.6E-1,3E0,4.931875E0,-7.021894E-2,-1.6824912E-1,2.6418534E-1,3E0,2.6418534E-1,3.4531522E-1,5.42E0,-1.6145384E-1,1.5952383E0,4.595725E-2,-2.53604E0,-5.818736E-2,-5.986754E-1,-1.5452384E0,-7.014443E-1,-2.4239385E0,2.913572E-1,-3.049047E-1,-9.630276E-1,2.9909784E-1,6.251556E-1,1.297404E0,-5.8644224E-2,-9.251561E-1,2.952512E-1,8.6990005E-1],"split_indices":[10,9,77,12,71,21,9,40,46,40,22,35,9,91,75,0,0,0,0,0,0,0,0,0,0,0,0,0,0,0,0],"split_type":[0,0,0,0,0,0,0,0,0,0,0,0,0,0,0,0,0,0,0,0,0,0,0,0,0,0,0,0,0,0,0],"sum_hessian":[2.544E3,1.373E3,1.171E3,8.1E1,1.292E3,6.9E2,4.81E2,2.8E1,5.3E1,3E2,9.92E2,3.9E1,6.51E2,1E2,3.81E2,2.7E1,1E0,2.4E1,2.9E1,2.87E2,1.3E1,1.82E2,8.1E2,2.3E1,1.6E1,5.53E2,9.8E1,8.6E1,1.4E1,3.59E2,2.2E1],"tree_param":{"num_deleted":"0","num_feature":"99","num_nodes":"31","size_leaf_vector":"1"}},{"base_weights":[-7.882894E-2,-3.9029882E0,4.389519E0,-1.7303474E1,-3.202423E0,4.9928627E0,-2.3728027E0,-2.3136172E0,-8.714784E0,-8.952398E0,-2.2174675E0,-9.015287E0,5.2303023E0,-8.261145E-1,-7.6996595E-1,3.4899217E-1,-1.1714914E0,-7.258386E-1,-2.2040968E0,5.351479E-1,-2.8511497E-1,-5.1981736E-2,-1.2343053E0,7.212413E-1,3.283582E-1,6.377642E-2,-3.073939E-1],"categories":[],"categories_nodes":[],"categories_segments":[],"categories_sizes":[],"default_left":[0,0,0,0,0,0,0,0,0,0,0,0,0,0,0,0,0,0,0,0,0,0,0,0,0,0,0],"id":18,"left_children":[1,3,5,7,9,11,13,-1,15,17,19,21,23,-1,25,-1,-1,-1,-1,-1,-1,-1,-1,-1,-1,-1,-1],"loss_changes":[4.346627E4,1.256433E4,4.8316562E3,2.6346172E3,7.250754E3,3.6419805E3,8.030203E2,0E0,1.2991045E3,3.5775898E3,5.3773745E3,3.6741577E2,3.9455234E3,0E0,2.8450906E2,0E0,0E0,0E0,0E0,0E0,0E0,0E0,0E0,0E0,0E0,0E0,0E0],"parents":[2147483647,0,0,1,1,2,2,3,3,4,4,5,5,6,6,8,8,9,9,10,10,11,11,12,12,14,14],"right_children":[2,4,6,8,10,12,14,-1,16,18,20,22,24,-1,26,-1,-1,-1,-1,-1,-1,-1,-1,-1,-1,-1,-1],"split_conditions":[4.7403393E0,3E0,3.8710794E-1,4.0946838E-2,-1.6619283E-1,-1.4772792E-1,3.565125E0,-2.3136172E0,-1.2667963E-1,2.6418534E-1,7.1273756E-1,-1.7130563E-1,2.43E-1,-8.261145E-1,-1.8684691E-1,3.4899217E-1,-1.1714914E0,-7.258386E-1,-2.2040968E0,5.351479E-1,-2.8511497E-1,-5.1981736E-2,-1.2343053E0,7.212413E-1,3.283582E-1,6.377642E-2,-3.073939E-1],"split_indices":[10,12,60,6,76,21,2,0,96,40,56,94,77,0,40,0,0,0,0,0,0,0,0,0,0,0,0],"split_type":[0,0,0,0,0,0,0,0,0,0,0,0,0,0,0,0,0,0,0,0,0,0,0,0,0,0,0],"sum_hessian":[2.54E3,1.37E3,1.17E3,6.5E1,1.305E3,1.076E3,9.4E1,3.6E1,2.9E1,1.87E2,1.118E3,1.6E1,1.06E3,1.7E1,7.7E1,5E0,2.4E1,1.69E2,1.8E1,8.4E1,1.034E3,6E0,1E1,5.2E2,5.4E2,4.6E1,3.1E1],"tree_param":{"num_deleted":"0","num_feature":"99","num_nodes":"27","size_leaf_vector":"1"}},{"base_weights":[-3.3492293E-2,-3.0277736E0,4.6559644E0,-1.9135209E0,-9.841329E0,4.3214326E0,1.9013302E1,4.1379685E0,-2.6797006E0,-7.3438683E0,-1.6132984E1,5.464524E0,2.403829E0,-0E0,2.0554142E0,-1.4676902E-1,1.0074404E0,-1.1923794E0,-2.2567032E-1,-4.475536E-1,-1.2990153E0,-2.117235E0,-9.2886275E-1,-1.5299912E-1,5.832317E-1,2.743684E-1,-4.0195867E-2],"categories":[],"categories_nodes":[],"categories_segments":[],"categories_sizes":[],"default_left":[0,0,0,0,0,0,0,0,0,0,0,0,0,0,0,0,0,0,0,0,0,0,0,0,0,0,0],"id":19,"left_children":[1,3,5,7,9,11,13,15,17,19,21,23,25,-1,-1,-1,-1,-1,-1,-1,-1,-1,-1,-1,-1,-1,-1],"loss_changes":[3.527025E4,1.1498542E4,4.2996445E3,6.14172E3,2.8908906E3,1.9971699E3,4.3536377E2,5.0407285E3,4.406717E3,2.2679424E3,1.3025566E3,1.5941016E3,3.736726E2,0E0,0E0,0E0,0E0,0E0,0E0,0E0,0E0,0E0,0E0,0E0,0E0,0E0,0E0],"parents":[2147483647,0,0,1,1,2,2,3,3,4,4,5,5,6,6,7,7,8,8,9,9,10,10,11,11,12,12],"right_children":[2,4,6,8,10,12,14,16,18,20,22,24,26,-1,-1,-1,-1,-1,-1,-1,-1,-1,-1,-1,-1,-1,-1],"split_conditions":[7.61E-1,1.204049E-2,1.14E0,1.82E-1,1.6300544E-1,3.7831706E-1,-1.9873448E-1,-1.8889083E-1,3.068461E0,7.363983E0,3.9155312E0,-1.750833E-1,4.3966752E-1,-0E0,2.0554142E0,-1.4676902E-1,1.0074404E0,-1.1923794E0,-2.2567032E-1,-4.475536E-1,-1.2990153E0,-2.117235E0,-9.2886275E-1,-1.5299912E-1,5.832317E-1,2.743684E-1,-4.0195867E-2],"split_indices":[23,42,69,23,42,76,7,9,2,62,2,58,76,0,0,0,0,0,0,0,0,0,0,0,0,0,0],"split_type":[0,0,0,0,0,0,0,0,0,0,0,0,0,0,0,0,0,0,0,0,0,0,0,0,0,0,0],"sum_hessian":[2.509E3,1.533E3,9.76E2,1.321E3,2.12E2,9.57E2,1.9E1,1.46E2,1.175E3,1.56E2,5.6E1,5.94E2,3.63E2,2E0,1.7E1,7.5E1,7.1E1,4.8E1,1.127E3,1.07E2,4.9E1,2.9E1,2.7E1,2.8E1,5.66E2,3.27E2,3.6E1],"tree_param":{"num_deleted":"0","num_feature":"99","num_nodes":"27","size_leaf_vector":"1"}},{"base_weights":[-7.438877E-2,-2.814286E0,4.151314E0,-1.3936066E1,-2.2077425E0,3.8797188E0,1.7845903E1,-2.012037E1,-9.4680395E0,2.920355E0,-2.9389644E0,5.203433E0,2.2900372E0,1.8550055E0,-0E0,-2.0945017E0,-1.7876701E-1,-2.7559454E-2,-1.1228548E0,-1.3789464E0,4.0131885E-1,-7.5356084E-1,-2.1124385E-1,5.845174E-1,4.7371276E-2,-2.6747933E-1,2.5324365E-1],"categories":[],"categories_nodes":[],"categories_segments":[],"categories_sizes":[],"default_left":[0,0,0,0,0,0,0,0,0,0,1,1,0,0,0,0,0,0,0,0,0,0,0,0,0,0,0],"id":20,"left_children":[1,3,5,7,9,11,13,15,17,19,21,23,25,-1,-1,-1,-1,-1,-1,-1,-1,-1,-1,-1,-1,-1,-1],"loss_changes":[2.9198111E4,1.0111658E4,3.3301777E3,1.4783828E3,5.4770273E3,1.9529092E3,1.1720508E2,1.5132715E2,6.87938E2,3.3181655E3,4.7233184E3,1.5308525E3,5.536863E2,0E0,0E0,0E0,0E0,0E0,0E0,0E0,0E0,0E0,0E0,0E0,0E0,0E0,0E0],"parents":[2147483647,0,0,1,1,2,2,3,3,4,4,5,5,6,6,7,7,8,8,9,9,10,10,11,11,12,12],"right_children":[2,4,6,8,10,12,14,16,18,20,22,24,26,-1,-1,-1,-1,-1,-1,-1,-1,-1,-1,-1,-1,-1,-1],"split_conditions":[7.61E-1,-2.0515822E-1,1.14E0,3E0,-1.9356447E-1,3.31E-1,4.774932E0,2.4745698E-1,2E0,-3.45E-1,4.5021877E0,3.8226697E-1,4.16425E0,1.8550055E0,-0E0,-2.0945017E0,-1.7876701E-1,-2.7559454E-2,-1.1228548E0,-1.3789464E0,4.0131885E-1,-7.5356084E-1,-2.1124385E-1,5.845174E-1,4.7371276E-2,-2.6747933E-1,2.5324365E-1],"split_indices":[23,9,69,12,42,77,1,40,28,41,71,94,71,0,0,0,0,0,0,0,0,0,0,0,0,0,0],"split_type":[0,0,0,0,0,0,0,0,0,0,0,0,0,0,0,0,0,0,0,0,0,0,0,0,0,0,0],"sum_hessian":[2.519E3,1.53E3,9.89E2,7.6E1,1.454E3,9.73E2,1.6E1,2.8E1,4.8E1,1.79E2,1.275E3,5.25E2,4.48E2,1.5E1,1E0,2.6E1,2E0,9E0,3.9E1,9E0,1.7E2,1.9E2,1.085E3,4.6E2,6.5E1,1.8E1,4.3E2],"tree_param":{"num_deleted":"0","num_feature":"99","num_nodes":"27","size_leaf_vector":"1"}},{"base_weights":[2.1003682E-2,-2.3732295E0,3.7070568E0,-1.2018342E1,-1.842021E0,3.46709E0,1.5079355E1,-1.7754549E1,-8.089191E0,8.314979E-1,-3.1359448E0,4.353853E0,1.5904416E0,-0E0,1.559069E0,-0E0,-1.8522294E0,-7.697474E-2,-9.59297E-1,9.786338E-1,-2.5734652E-2,-6.708977E-1,-1.9902979E-1,4.7082064E-1,-0E0,1.9838777E-1,-3.9898154E-1],"categories":[],"categories_nodes":[],"categories_segments":[],"categories_sizes":[],"default_left":[0,0,0,0,0,0,0,0,0,0,0,1,0,0,0,0,0,0,0,0,0,0,0,0,0,0,0],"id":21,"left_children":[1,3,5,7,9,11,13,15,17,19,21,23,25,-1,-1,-1,-1,-1,-1,-1,-1,-1,-1,-1,-1,-1,-1],"loss_changes":[2.2164715E4,7.6049424E3,2.4116582E3,1.2123193E3,5.023532E3,1.545918E3,5.4901367E1,4.646123E2,4.4295288E2,4.683028E3,3.8814941E3,9.9816797E2,6.961277E2,0E0,0E0,0E0,0E0,0E0,0E0,0E0,0E0,0E0,0E0,0E0,0E0,0E0,0E0],"parents":[2147483647,0,0,1,1,2,2,3,3,4,4,5,5,6,6,7,7,8,8,9,9,10,10,11,11,12,12],"right_children":[2,4,6,8,10,12,14,16,18,20,22,24,26,-1,-1,-1,-1,-1,-1,-1,-1,-1,-1,-1,-1,-1,-1],"split_conditions":[7.61E-1,-2.0515822E-1,1.14E0,3.585375E0,1.4523748E-1,4.0585002E-1,-1.9890894E-1,1.3543652E0,2E0,-1.9879775E-1,6.0255E0,4.074338E-1,1.647631E0,-0E0,1.559069E0,-0E0,-1.8522294E0,-7.697474E-2,-9.59297E-1,9.786338E-1,-2.5734652E-2,-6.708977E-1,-1.9902979E-1,4.7082064E-1,-0E0,1.9838777E-1,-3.9898154E-1],"split_indices":[23,9,69,2,58,76,7,17,28,42,18,94,91,0,0,0,0,0,0,0,0,0,0,0,0,0,0],"split_type":[0,0,0,0,0,0,0,0,0,0,0,0,0,0,0,0,0,0,0,0,0,0,0,0,0,0,0],"sum_hessian":[2.506E3,1.518E3,9.88E2,7.6E1,1.442E3,9.71E2,1.7E1,2.7E1,4.9E1,4.68E2,9.74E2,6.54E2,3.17E2,1E0,1.6E1,1E0,2.6E1,1E1,3.9E1,5E1,4.18E2,2.32E2,7.42E2,6.04E2,5E1,2.99E2,1.8E1],"tree_param":{"num_deleted":"0","num_feature":"99","num_nodes":"27","size_leaf_vector":"1"}},{"base_weights":[5.991596E-2,-2.51645E0,3.0350087E0,-1.2094668E1,-1.9527223E0,2.5499022E0,7.7746058E0,-2.6717327E0,-1.3696828E1,7.901315E0,-2.2949913E0,4.148027E0,1.2920834E0,2.0965395E0,6.595758E0,-4.7576433E-1,9.859635E-2,-1.4596306E0,-2.838709E-1,1.9510017E-1,1.17848E0,-6.5465224E-1,-1.4544703E-1,-2.8070492E-1,4.880711E-1,-4.535408E-1,2.0126109E-1,1.0942423E-1,7.20746E-1],"categories":[],"categories_nodes":[],"categories_segments":[],"categories_sizes":[],"default_left":[0,0,0,0,0,0,0,1,0,0,0,0,0,0,0,0,0,0,0,0,0,0,0,0,0,0,0,0,0],"id":22,"left_children":[1,3,5,7,9,11,13,15,17,19,21,23,25,-1,27,-1,-1,-1,-1,-1,-1,-1,-1,-1,-1,-1,-1,-1,-1],"loss_changes":[1.916745E4,7.036829E3,2.528787E3,8.6521094E2,4.253455E3,2.06363E3,1.0805654E3,1.539133E2,3.3854492E2,7.8719165E2,4.285633E3,2.4024312E3,2.5081501E3,0E0,2.3773828E2,0E0,0E0,0E0,0E0,0E0,0E0,0E0,0E0,0E0,0E0,0E0,0E0,0E0,0E0],"parents":[2147483647,0,0,1,1,2,2,3,3,4,4,5,5,6,6,7,7,8,8,9,9,10,10,11,11,12,12,14,14],"right_children":[2,4,6,8,10,12,14,16,18,20,22,24,26,-1,28,-1,-1,-1,-1,-1,-1,-1,-1,-1,-1,-1,-1,-1,-1],"split_conditions":[4.7403393E0,-2.0515822E-1,-1.6196616E-1,2E0,-2.0462705E-1,4.214548E-1,4.414483E-1,7.7914767E0,6.5356135E0,1.4235908E-1,4E0,-7.021894E-2,-1.6833301E-1,2.0965395E0,-2.217927E-1,-4.7576433E-1,9.859635E-2,-1.4596306E0,-2.838709E-1,1.9510017E-1,1.17848E0,-6.5465224E-1,-1.4544703E-1,-2.8070492E-1,4.880711E-1,-4.535408E-1,2.0126109E-1,1.0942423E-1,7.20746E-1],"split_indices":[10,9,7,28,7,22,22,71,52,24,12,21,7,0,76,0,0,0,0,0,0,0,0,0,0,0,0,0,0],"split_type":[0,0,0,0,0,0,0,0,0,0,0,0,0,0,0,0,0,0,0,0,0,0,0,0,0,0,0,0,0],"sum_hessian":[2.496E3,1.336E3,1.16E3,7.1E1,1.265E3,1.057E3,1.03E2,1.2E1,5.9E1,4E1,1.225E3,4.6E2,5.97E2,5E0,9.8E1,9E0,3E0,5.3E1,6E0,1.8E1,2.2E1,1.98E2,1.027E3,4.2E1,4.18E2,6.3E1,5.34E2,1.2E1,8.6E1],"tree_param":{"num_deleted":"0","num_feature":"99","num_nodes":"29","size_leaf_vector":"1"}},{"base_weights":[3.3515982E-2,-2.329825E0,2.7271707E0,-5.243696E0,-7.9870576E-1,2.3801136E0,8.758522E0,-3.2578273E0,-1.2902818E1,-2.5045222E-1,-7.1302123E0,-7.683019E-1,3.2682114E0,1.33201275E1,3.0149722E0,3.3626312E-1,-4.3965942E-1,-1.4025329E0,1.2801877E-1,8.022036E-1,-5.118075E-2,-0E0,-9.0133923E-1,-1.6979896E-1,6.844285E-1,2.7352592E-1,7.2598743E-1,1.8423172E0,7.660831E-1,-0E0,6.39431E-1],"categories":[],"categories_nodes":[],"categories_segments":[],"categories_sizes":[],"default_left":[0,0,0,0,0,0,0,0,0,0,0,0,0,0,0,0,0,0,0,0,0,0,0,0,0,0,0,0,0,0,0],"id":23,"left_children":[1,3,5,7,9,11,13,15,17,19,21,23,25,27,29,-1,-1,-1,-1,-1,-1,-1,-1,-1,-1,-1,-1,-1,-1,-1,-1],"loss_changes":[1.607816E4,5.922972E3,2.3211113E3,6.7509307E3,2.994696E3,3.1672466E3,1.3807178E3,2.8218577E3,1.6439746E3,1.7016729E3,9.6031323E2,1.7128029E3,1.7281611E3,4.0991504E2,3.3151617E2,0E0,0E0,0E0,0E0,0E0,0E0,0E0,0E0,0E0,0E0,0E0,0E0,0E0,0E0,0E0,0E0],"parents":[2147483647,0,0,1,1,2,2,3,3,4,4,5,5,6,6,7,7,8,8,9,9,10,10,11,11,12,12,13,13,14,14],"right_children":[2,4,6,8,10,12,14,16,18,20,22,24,26,28,30,-1,-1,-1,-1,-1,-1,-1,-1,-1,-1,-1,-1,-1,-1,-1,-1],"split_conditions":[4.7403393E0,6.463875E0,5.71425E0,2E0,7.363983E0,8.88E-1,1.4350951E0,3.4099975E-1,9.9E-1,1.5884838E-1,6.5255E0,2.4E1,3.9946954E0,3.1506953E-1,-1.21658295E-1,3.3626312E-1,-4.3965942E-1,-1.4025329E0,1.2801877E-1,8.022036E-1,-5.118075E-2,-0E0,-9.0133923E-1,-1.6979896E-1,6.844285E-1,2.7352592E-1,7.2598743E-1,1.8423172E0,7.660831E-1,-0E0,6.39431E-1],"split_indices":[10,18,35,28,62,23,73,22,69,22,35,81,53,22,39,0,0,0,0,0,0,0,0,0,0,0,0,0,0,0,0],"split_type":[0,0,0,0,0,0,0,0,0,0,0,0,0,0,0,0,0,0,0,0,0,0,0,0,0,0,0,0,0,0,0],"sum_hessian":[2.521E3,1.341E3,1.18E3,4.58E2,8.83E2,1.12E3,6E1,3.67E2,9.1E1,8.16E2,6.7E1,2.44E2,8.76E2,3.1E1,2.9E1,5.2E1,3.15E2,8.5E1,6E0,2.2E1,7.94E2,1.4E1,5.3E1,2.2E2,2.4E1,7.78E2,9.8E1,1.3E1,1.8E1,1.6E1,1.3E1],"tree_param":{"num_deleted":"0","num_feature":"99","num_nodes":"31","size_leaf_vector":"1"}},{"base_weights":[1.4963149E-2,-2.0977533E0,2.4968054E0,-1.133528E1,-1.6554221E0,2.157074E0,8.315342E0,-1.7061312E1,-6.428594E0,-1.1499013E0,-8.116678E0,-7.1579725E-1,2.9664512E0,1.3070382E1,2.038607E0,-0E0,-1.9556866E0,-0E0,-7.902825E-1,2.7592552E-1,-1.7108609E-1,-0E0,-9.6584934E-1,-1.5847217E-1,5.430767E-1,2.4837768E-1,6.7713153E-1,1.7811097E0,6.926546E-1,-2.8368112E-1,4.8744345E-1],"categories":[],"categories_nodes":[],"categories_segments":[],"categories_sizes":[],"default_left":[0,0,0,0,0,0,0,0,0,0,0,0,0,0,0,0,0,0,0,0,0,0,0,0,0,0,0,0,0,0,0],"id":24,"left_children":[1,3,5,7,9,11,13,15,17,19,21,23,25,27,29,-1,-1,-1,-1,-1,-1,-1,-1,-1,-1,-1,-1,-1,-1,-1,-1],"loss_changes":[1.3275098E4,5.4100176E3,2.1642803E3,1.2595869E3,4.154454E3,2.5984648E3,1.6460801E3,1.2285371E3,4.0700134E2,2.6633044E3,1.1494624E3,1.2712498E3,1.4642305E3,4.9617383E2,4.6280734E2,0E0,0E0,0E0,0E0,0E0,0E0,0E0,0E0,0E0,0E0,0E0,0E0,0E0,0E0,0E0,0E0],"parents":[2147483647,0,0,1,1,2,2,3,3,4,4,5,5,6,6,7,7,8,8,9,9,10,10,11,11,12,12,13,13,14,14],"right_children":[2,4,6,8,10,12,14,16,18,20,22,24,26,28,30,-1,-1,-1,-1,-1,-1,-1,-1,-1,-1,-1,-1,-1,-1,-1,-1],"split_conditions":[4.7403393E0,3.068461E0,5.71425E0,6.34E-1,7.4041147E0,8.88E-1,1.4350951E0,3.0960026E-1,-1.9552892E-1,-1.9356447E-1,2E0,0E0,4.0011873E0,3.1506953E-1,4.938928E0,-0E0,-1.9556866E0,-0E0,-7.902825E-1,2.7592552E-1,-1.7108609E-1,-0E0,-9.6584934E-1,-1.5847217E-1,5.430767E-1,2.4837768E-1,6.7713153E-1,1.7811097E0,6.926546E-1,-2.8368112E-1,4.8744345E-1],"split_indices":[10,2,35,23,62,23,73,56,40,42,28,8,53,22,98,0,0,0,0,0,0,0,0,0,0,0,0,0,0,0,0],"split_type":[0,0,0,0,0,0,0,0,0,0,0,0,0,0,0,0,0,0,0,0,0,0,0,0,0,0,0,0,0,0,0],"sum_hessian":[2.527E3,1.363E3,1.164E3,5.9E1,1.304E3,1.104E3,6E1,2.4E1,3.5E1,1.213E3,9.1E1,2.4E2,8.64E2,3.2E1,2.8E1,3E0,2.1E1,6E0,2.9E1,1.49E2,1.064E3,1.5E1,7.6E1,2.13E2,2.7E1,7.72E2,9.2E1,1.5E1,1.7E1,9E0,1.9E1],"tree_param":{"num_deleted":"0","num_feature":"99","num_nodes":"31","size_leaf_vector":"1"}},{"base_weights":[-3.345837E-2,-1.9677671E0,2.2086585E0,-1.3182567E0,-7.1969604E0,3.557067E0,9.80926E-1,-3.4691107E0,8.1194535E-2,-1.4081803E1,-5.046587E0,2.9169395E0,8.190635E0,-1.6768906E0,1.412446E0,-2.7255252E-1,-9.1823846E-1,-1.5793193E-2,1.4137044E0,-1.534658E0,-1.6081162E-1,-1.9451134E-1,-9.370266E-1,3.209576E-1,-5.5286145E-1,1.4035797E0,4.6684796E-1,4.560009E-2,-4.54597E-1,-3.3176616E-1,1.6569446E-1],"categories":[],"categories_nodes":[],"categories_segments":[],"categories_sizes":[],"default_left":[0,0,0,0,0,0,0,0,0,0,0,0,0,0,0,0,0,0,0,0,0,0,0,0,0,0,0,0,0,0,0],"id":25,"left_children":[1,3,5,7,9,11,13,15,17,19,21,23,25,27,29,-1,-1,-1,-1,-1,-1,-1,-1,-1,-1,-1,-1,-1,-1,-1,-1],"loss_changes":[1.0957074E4,4.5116016E3,1.881248E3,3.6855906E3,1.8577236E3,1.4784146E3,7.1087744E2,1.8743037E3,2.6113225E3,3.017163E2,1.4193376E3,1.2233228E3,9.9951025E2,5.590781E2,6.142738E2,0E0,0E0,0E0,0E0,0E0,0E0,0E0,0E0,0E0,0E0,0E0,0E0,0E0,0E0,0E0,0E0],"parents":[2147483647,0,0,1,1,2,2,3,3,4,4,5,5,6,6,7,7,8,8,9,9,10,10,11,11,12,12,13,13,14,14],"right_children":[2,4,6,8,10,12,14,16,18,20,22,24,26,28,30,-1,-1,-1,-1,-1,-1,-1,-1,-1,-1,-1,-1,-1,-1,-1,-1],"split_conditions":[4.7403393E0,1.45E-1,2.36E-1,6.49E0,5.544344E0,-1.6196616E-1,-1.7030619E-1,2E0,6.5291996E0,7.091344E0,7.4041147E0,8.121732E0,-1.4997159E-1,-1.8684691E-1,4.16425E0,-2.7255252E-1,-9.1823846E-1,-1.5793193E-2,1.4137044E0,-1.534658E0,-1.6081162E-1,-1.9451134E-1,-9.370266E-1,3.209576E-1,-5.5286145E-1,1.4035797E0,4.6684796E-1,4.560009E-2,-4.54597E-1,-3.3176616E-1,1.6569446E-1],"split_indices":[10,41,77,18,35,7,40,28,44,71,62,62,7,7,71,0,0,0,0,0,0,0,0,0,0,0,0,0,0,0,0],"split_type":[0,0,0,0,0,0,0,0,0,0,0,0,0,0,0,0,0,0,0,0,0,0,0,0,0,0,0,0,0,0,0],"sum_hessian":[2.523E3,1.357E3,1.166E3,1.211E3,1.46E2,5.5E2,6.16E2,4.79E2,7.32E2,3.1E1,1.15E2,4.88E2,6.2E1,8.2E1,5.34E2,4.28E2,5.1E1,7.21E2,1.1E1,2.7E1,4E0,7E1,4.5E1,4.74E2,1.4E1,2E1,4.2E1,4.6E1,3.6E1,2.3E1,5.11E2],"tree_param":{"num_deleted":"0","num_feature":"99","num_nodes":"31","size_leaf_vector":"1"}},{"base_weights":[-3.222648E-2,-1.7966496E0,2.0363383E0,-9.49357E0,-1.3396235E0,1.7119567E0,7.6785097E0,-1.3921865E1,-6.1444707E0,-1.824972E0,2.7837105E0,-9.132323E-1,2.4737735E0,-1.760463E0,9.609327E0,-1.4567631E0,-1.0200882E-2,-7.0824045E-1,-0E0,-7.8538245E-1,-1.3357213E-1,-0E0,4.2572132E-1,-1.740107E-1,6.0363233E-1,1.9891565E-1,6.3892424E-1,-0E0,-5.7311326E-1,-0E0,1.0596614E0],"categories":[],"categories_nodes":[],"categories_segments":[],"categories_sizes":[],"default_left":[0,0,0,0,0,0,0,0,0,0,0,0,0,0,0,0,0,0,0,0,0,0,0,0,0,0,0,0,0,0,0],"id":26,"left_children":[1,3,5,7,9,11,13,15,17,19,21,23,25,27,29,-1,-1,-1,-1,-1,-1,-1,-1,-1,-1,-1,-1,-1,-1,-1,-1],"loss_changes":[9.096632E3,4.608085E3,1.9754038E3,7.2573096E2,2.5541738E3,2.1940286E3,1.2058179E3,1.0913867E2,3.3227637E2,3.2644382E3,5.642771E2,1.3744235E3,1.496085E3,9.7291985E1,5.68249E2,0E0,0E0,0E0,0E0,0E0,0E0,0E0,0E0,0E0,0E0,0E0,0E0,0E0,0E0,0E0,0E0],"parents":[2147483647,0,0,1,1,2,2,3,3,4,4,5,5,6,6,7,7,8,8,9,9,10,10,11,11,12,12,13,13,14,14],"right_children":[2,4,6,8,10,12,14,16,18,20,22,24,26,28,30,-1,-1,-1,-1,-1,-1,-1,-1,-1,-1,-1,-1,-1,-1,-1,-1],"split_conditions":[4.7403393E0,-2.0515822E-1,5.71425E0,3E0,7.5605E0,8.88E-1,-1.9976994E-1,2.4745698E-1,5.977912E0,-5.5193923E-2,9.6134627E-1,2.4E1,4.0011873E0,5.4119377E0,1.400212E-1,-1.4567631E0,-1.0200882E-2,-7.0824045E-1,-0E0,-7.8538245E-1,-1.3357213E-1,-0E0,4.2572132E-1,-1.740107E-1,6.0363233E-1,1.9891565E-1,6.3892424E-1,-0E0,-5.7311326E-1,-0E0,1.0596614E0],"split_indices":[10,9,35,12,18,23,76,40,80,21,37,81,53,1,24,0,0,0,0,0,0,0,0,0,0,0,0,0,0,0,0],"split_type":[0,0,0,0,0,0,0,0,0,0,0,0,0,0,0,0,0,0,0,0,0,0,0,0,0,0,0,0,0,0,0],"sum_hessian":[2.489E3,1.346E3,1.143E3,7.2E1,1.274E3,1.085E3,5.8E1,2.7E1,4.5E1,1.143E3,1.31E2,2.41E2,8.44E2,9E0,4.9E1,2.5E1,2E0,4E1,5E0,8.2E1,1.061E3,4.5E1,8.6E1,2.18E2,2.3E1,7.56E2,8.8E1,7E0,2E0,4E0,4.5E1],"tree_param":{"num_deleted":"0","num_feature":"99","num_nodes":"31","size_leaf_vector":"1"}},{"base_weights":[1.6019134E-2,-1.3747283E0,2.148453E0,-1.0697697E0,-1.0673969E1,1.9168041E0,1.3966174E1,3.3053126E0,-1.5482937E0,-1.2201123E1,-1.5832764E0,3.616501E0,1.3079468E0,-0E0,1.4434078E0,-5.3016823E-2,7.634608E-1,-8.028366E-1,-1.17394105E-1,-1.2455058E0,-0E0,4.446869E-2,-3.4514388E-1,-2.5730342E-1,4.0148765E-1,1.0171764E-1,4.789577E-1],"categories":[],"categories_nodes":[],"categories_segments":[],"categories_sizes":[],"default_left":[0,0,0,0,0,0,0,0,0,0,0,0,0,0,0,0,0,0,0,0,0,0,0,0,0,0,0],"id":27,"left_children":[1,3,5,7,9,11,13,15,17,19,21,23,25,-1,-1,-1,-1,-1,-1,-1,-1,-1,-1,-1,-1,-1,-1],"loss_changes":[7.469356E3,4.1702666E3,2.5142412E3,3.0806978E3,4.760161E2,9.5547046E2,3.0851318E1,2.4702495E3,3.1227612E3,8.9052734E1,7.102279E1,6.58916E2,6.7019556E2,0E0,0E0,0E0,0E0,0E0,0E0,0E0,0E0,0E0,0E0,0E0,0E0,0E0,0E0],"parents":[2147483647,0,0,1,1,2,2,3,3,4,4,5,5,6,6,7,7,8,8,9,9,10,10,11,11,12,12],"right_children":[2,4,6,8,10,12,14,16,18,20,22,24,26,-1,-1,-1,-1,-1,-1,-1,-1,-1,-1,-1,-1,-1,-1],"split_conditions":[7.61E-1,3.57E-1,1.14E0,1.42E-1,5.53E-1,4.1782054E-1,1.5999247E0,-1.8888307E-1,3.068461E0,8.181094E0,2.390662E0,6.8976444E-1,1.151E0,-0E0,1.4434078E0,-5.3016823E-2,7.634608E-1,-8.028366E-1,-1.17394105E-1,-1.2455058E0,-0E0,4.446869E-2,-3.4514388E-1,-2.5730342E-1,4.0148765E-1,1.0171764E-1,4.789577E-1],"split_indices":[23,41,69,23,23,22,4,9,2,71,52,19,23,0,0,0,0,0,0,0,0,0,0,0,0,0,0],"split_type":[0,0,0,0,0,0,0,0,0,0,0,0,0,0,0,0,0,0,0,0,0,0,0,0,0,0,0],"sum_hessian":[2.512E3,1.518E3,9.94E2,1.473E3,4.5E1,9.78E2,1.6E1,1.42E2,1.331E3,3.7E1,8E0,2.51E2,7.27E2,1E0,1.5E1,7.5E1,6.7E1,6.9E1,1.262E3,3.6E1,1E0,2E0,6E0,1.3E1,2.38E2,6.76E2,5.1E1],"tree_param":{"num_deleted":"0","num_feature":"99","num_nodes":"27","size_leaf_vector":"1"}},{"base_weights":[-1.40352305E-2,-1.4895141E0,1.6977746E0,-9.608997E0,-1.1127694E0,1.3143008E0,5.3481183E0,-1.1970372E0,-1.1716855E1,3.9698806E0,-1.5399544E0,2.4928029E0,3.5136148E-1,1.6093963E0,4.302403E0,-3.2815635E-1,2.2846405E-1,-1.281536E0,4.1703492E-2,6.5873134E-1,-1.9584247E-1,-1.1277368E-1,-8.270435E-1,-2.8713185E-1,3.0658257E-1,-3.5735127E-1,8.262478E-2,-0E0,4.8524332E-1],"categories":[],"categories_nodes":[],"categories_segments":[],"categories_sizes":[],"default_left":[0,0,0,0,0,0,0,0,1,0,0,0,0,0,0,0,0,0,0,0,0,0,0,0,0,0,0,0,0],"id":28,"left_children":[1,3,5,7,9,11,13,15,17,19,21,23,25,-1,27,-1,-1,-1,-1,-1,-1,-1,-1,-1,-1,-1,-1,-1,-1],"loss_changes":[6.393095E3,4.0407769E3,1.555697E3,8.889512E2,2.8235566E3,1.1761266E3,8.711577E2,1.3382835E2,7.47813E2,1.6237842E3,3.2388667E3,1.4734414E3,1.0818429E3,0E0,2.3106104E2,0E0,0E0,0E0,0E0,0E0,0E0,0E0,0E0,0E0,0E0,0E0,0E0,0E0,0E0],"parents":[2147483647,0,0,1,1,2,2,3,3,4,4,5,5,6,6,7,7,8,8,9,9,10,10,11,11,12,12,14,14],"right_children":[2,4,6,8,10,12,14,16,18,20,22,24,26,-1,28,-1,-1,-1,-1,-1,-1,-1,-1,-1,-1,-1,-1,-1,-1],"split_conditions":[4.7403393E0,3E0,-1.6196616E-1,1.883537E-1,7.1273756E-1,4.2428663E-1,4.414483E-1,7.363298E0,9.9E-1,3.4933563E-2,1.7544965E0,-7.021894E-2,-1.6833301E-1,1.6093963E0,-2.217927E-1,-3.2815635E-1,2.2846405E-1,-1.281536E0,4.1703492E-2,6.5873134E-1,-1.9584247E-1,-1.1277368E-1,-8.270435E-1,-2.8713185E-1,3.0658257E-1,-3.5735127E-1,8.262478E-2,-0E0,4.8524332E-1],"split_indices":[10,12,7,22,56,22,22,26,69,42,91,21,7,0,76,0,0,0,0,0,0,0,0,0,0,0,0,0,0],"split_type":[0,0,0,0,0,0,0,0,0,0,0,0,0,0,0,0,0,0,0,0,0,0,0,0,0,0,0,0,0],"sum_hessian":[2.528E3,1.361E3,1.167E3,5.7E1,1.304E3,1.061E3,1.06E2,1.3E1,4.4E1,9.8E1,1.206E3,4.71E2,5.9E2,6E0,1E2,1E1,3E0,4.1E1,3E0,6.9E1,2.9E1,1.14E3,6.6E1,4.3E1,4.28E2,6E1,5.3E2,1.2E1,8.8E1],"tree_param":{"num_deleted":"0","num_feature":"99","num_nodes":"29","size_leaf_vector":"1"}},{"base_weights":[-8.2069375E-2,-1.2248183E0,1.6702148E0,-9.592954E-1,-9.657313E0,1.3778778E0,7.233115E0,2.9481893E0,-1.4001895E0,-1.1020604E1,-0E0,-1.3726842E0,1.6985613E0,-0E0,9.6770935E0,-1.3546051E-2,7.3911697E-1,-1.0407203E-1,-6.523222E-1,-5.452881E-3,-1.1653637E0,4.996109E-2,-1.1289978E-1,-3.1727457E-1,2.1028213E-2,3.3305028E-1,9.255397E-2,1.3534555E-1,-1.5604204E-1,1.2598685E0,4.962402E-1],"categories":[],"categories_nodes":[],"categories_segments":[],"categories_sizes":[],"default_left":[0,0,0,0,0,0,0,0,0,0,0,0,0,0,0,0,0,0,0,0,0,0,0,0,0,0,0,0,0,0,0],"id":29,"left_children":[1,3,5,7,9,11,13,15,17,19,21,23,25,27,29,-1,-1,-1,-1,-1,-1,-1,-1,-1,-1,-1,-1,-1,-1,-1,-1],"loss_changes":[5.009695E3,3.276379E3,1.4958049E3,2.5356094E3,5.398281E2,8.37058E2,8.1867065E2,2.1022476E3,2.360074E3,1.5238037E2,8.64626E0,3.045049E2,1.01852563E3,3.353096E1,1.8145386E2,0E0,0E0,0E0,0E0,0E0,0E0,0E0,0E0,0E0,0E0,0E0,0E0,0E0,0E0,0E0,0E0],"parents":[2147483647,0,0,1,1,2,2,3,3,4,4,5,5,6,6,7,7,8,8,9,9,10,10,11,11,12,12,13,13,14,14],"right_children":[2,4,6,8,10,12,14,16,18,20,22,24,26,28,30,-1,-1,-1,-1,-1,-1,-1,-1,-1,-1,-1,-1,-1,-1,-1,-1],"split_conditions":[7.61E-1,3.64E-1,4.551E0,1.49E-1,5.53E-1,8.88E-1,-3.17E-1,-1.6708644E-1,7.4041147E0,-7.59E-1,2.390662E0,4E0,4.9953275E0,6E0,1.723199E-1,-1.3546051E-2,7.3911697E-1,-1.0407203E-1,-6.523222E-1,-5.452881E-3,-1.1653637E0,4.996109E-2,-1.1289978E-1,-3.1727457E-1,2.1028213E-2,3.3305028E-1,9.255397E-2,1.3534555E-1,-1.5604204E-1,1.2598685E0,4.962402E-1],"split_indices":[23,41,35,23,23,23,95,9,62,95,52,64,62,11,58,0,0,0,0,0,0,0,0,0,0,0,0,0,0,0,0],"split_type":[0,0,0,0,0,0,0,0,0,0,0,0,0,0,0,0,0,0,0,0,0,0,0,0,0,0,0,0,0,0,0],"sum_hessian":[2.5E3,1.517E3,9.83E2,1.474E3,4.3E1,9.38E2,4.5E1,1.46E2,1.328E3,3.7E1,6E0,9.4E1,8.44E2,1.2E1,3.3E1,8.6E1,6E1,1.245E3,8.3E1,3E0,3.4E1,2E0,4E0,4.6E1,4.8E1,2.65E2,5.79E2,7E0,5E0,1.7E1,1.6E1],"tree_param":{"num_deleted":"0","num_feature":"99","num_nodes":"31","size_leaf_vector":"1"}},{"base_weights":[1.4621303E-2,1.086237E0,-1.5378509E0,-7.291775E0,1.4618627E0,-8.255319E-1,-5.0557942E0,-8.743594E0,2.2510495E0,1.04971E0,4.6473985E0,-2.942238E0,-1.7410001E-1,1.3840009E0,-6.1577344E0,-7.746996E-3,-1.0876288E0,-1.3734919E-1,7.7000797E-1,7.2681E-2,4.446284E-1,2.3636647E-1,8.515772E-1,-2.5400653E-1,-8.954856E-1,-7.390054E-1,-5.8444436E-3,2.7585012E-1,-2.2944948E-2,-6.6562015E-1,9.526547E-2],"categories":[],"categories_nodes":[],"categories_segments":[],"categories_sizes":[],"default_left":[0,0,0,1,0,0,0,0,0,0,0,0,0,0,0,0,0,0,0,0,0,0,0,0,0,0,0,0,0,0,0],"id":30,"left_children":[1,3,5,7,9,11,13,15,17,19,21,23,25,27,29,-1,-1,-1,-1,-1,-1,-1,-1,-1,-1,-1,-1,-1,-1,-1,-1],"loss_changes":[4.166277E3,4.6426045E3,2.4888545E3,9.771206E2,1.8055051E3,1.1440052E3,1.2640518E3,9.237803E2,2.6216998E2,1.33249E3,1.2644429E3,3.1592676E2,4.737952E2,8.199858E1,5.871841E2,0E0,0E0,0E0,0E0,0E0,0E0,0E0,0E0,0E0,0E0,0E0,0E0,0E0,0E0,0E0,0E0],"parents":[2147483647,0,0,1,1,2,2,3,3,4,4,5,5,6,6,7,7,8,8,9,9,10,10,11,11,12,12,13,13,14,14],"right_children":[2,4,6,8,10,12,14,16,18,20,22,24,26,28,30,-1,-1,-1,-1,-1,-1,-1,-1,-1,-1,-1,-1,-1,-1,-1,-1],"split_conditions":[1.5255752E-1,3E0,8.9402395E-1,9.9E-1,5.0337937E-2,6.150375E0,1.49E-1,1.883537E-1,4.58185E-2,-1.6196616E-1,6.341E0,3.752125E0,-2.1867347E-1,3.4391646E0,1.02E0,-7.746996E-3,-1.0876288E0,-1.3734919E-1,7.7000797E-1,7.2681E-2,4.446284E-1,2.3636647E-1,8.515772E-1,-2.5400653E-1,-8.954856E-1,-7.390054E-1,-5.8444436E-3,2.7585012E-1,-2.2944948E-2,-6.6562015E-1,9.526547E-2],"split_indices":[58,12,19,69,58,18,23,22,6,7,89,35,42,34,69,0,0,0,0,0,0,0,0,0,0,0,0,0,0,0,0],"split_type":[0,0,0,0,0,0,0,0,0,0,0,0,0,0,0,0,0,0,0,0,0,0,0,0,0,0,0,0,0,0,0],"sum_hessian":[2.503E3,1.485E3,1.018E3,6.1E1,1.424E3,8.51E2,1.67E2,5.4E1,7E0,1.266E3,1.58E2,1.95E2,6.56E2,2.3E1,1.44E2,1.2E1,4.2E1,4E0,3E0,1.161E3,1.05E2,1.03E2,5.5E1,1.87E2,8E0,7E0,6.49E2,1.5E1,8E0,1.36E2,8E0],"tree_param":{"num_deleted":"0","num_feature":"99","num_nodes":"31","size_leaf_vector":"1"}},{"base_weights":[-8.717332E-2,-6.5129795E0,1.2614784E-1,-7.868042E-1,-7.521698E0,1.1565117E0,-1.343403E0,-2.6507885E0,1.5367661E-1,-7.128555E-1,-8.239115E0,1.9713252E0,-9.485293E-2,-7.5160575E-1,-4.7100086E0,-0E0,-3.1738907E-1,-0E0,-3.3981234E-1,-9.201256E-1,-1.3711715E-1,-4.1489083E-1,2.3112622E-1,-1.5818968E-1,7.1005724E-2,-2.8332606E-1,-6.354473E-3,-6.448961E-1,-0E0],"categories":[],"categories_nodes":[],"categories_segments":[],"categories_sizes":[],"default_left":[0,0,0,1,0,0,0,0,0,0,0,0,0,0,0,0,0,0,0,0,0,0,0,0,0,0,0,0,0],"id":31,"left_children":[1,3,5,7,9,11,13,15,-1,17,19,21,23,25,27,-1,-1,-1,-1,-1,-1,-1,-1,-1,-1,-1,-1,-1,-1],"loss_changes":[3.4978958E3,3.7871875E2,3.6715916E3,8.858509E1,2.3089844E2,1.477208E3,1.9226826E3,1.6415657E1,0E0,5.2654575E1,2.6551807E2,1.8129119E3,6.8244635E2,1.1909962E3,1.1695535E3,0E0,0E0,0E0,0E0,0E0,0E0,0E0,0E0,0E0,0E0,0E0,0E0,0E0,0E0],"parents":[2147483647,0,0,1,1,2,2,3,3,4,4,5,5,6,6,7,7,9,9,10,10,11,11,12,12,13,13,14,14],"right_children":[2,4,6,8,10,12,14,16,-1,18,20,22,24,26,28,-1,-1,-1,-1,-1,-1,-1,-1,-1,-1,-1,-1,-1,-1],"split_conditions":[-2.1000034E-1,2E0,1.5255752E-1,7.12875E0,1.3617842E0,3.8347968E-1,1.5999247E0,-2.2374044E-1,1.5367661E-1,5.984143E0,5.53E-1,-1.254522E-1,-1.6833301E-1,6.187E0,8.0146044E-2,-0E0,-3.1738907E-1,-0E0,-3.3981234E-1,-9.201256E-1,-1.3711715E-1,-4.1489083E-1,2.3112622E-1,-1.5818968E-1,7.1005724E-2,-2.8332606E-1,-6.354473E-3,-6.448961E-1,-0E0],"split_indices":[7,28,58,71,17,76,4,76,0,98,23,21,7,18,75,0,0,0,0,0,0,0,0,0,0,0,0,0,0],"split_type":[0,0,0,0,0,0,0,0,0,0,0,0,0,0,0,0,0,0,0,0,0,0,0,0,0,0,0,0,0],"sum_hessian":[2.502E3,8E1,2.422E3,1.4E1,6.6E1,1.428E3,9.94E2,1E1,4E0,8E0,5.8E1,8.69E2,5.59E2,8.5E2,1.44E2,2E0,8E0,5E0,3E0,4.9E1,9E0,4.3E1,8.26E2,2E2,3.59E2,2.06E2,6.44E2,1.04E2,4E1],"tree_param":{"num_deleted":"0","num_feature":"99","num_nodes":"29","size_leaf_vector":"1"}},{"base_weights":[-9.7526057E-4,9.2538863E-1,-1.2812074E0,1.1713163E0,-6.9211755E0,-5.063262E0,-7.640161E-1,1.0641803E0,1.3957469E1,-1.5288908E0,-8.535227E0,-1.1282631E1,-3.1398082E0,-1.1897132E0,1.8489801E0,7.2723675E-1,8.5834436E-2,-5.8599092E-2,1.6529013E0,1.09044395E-1,-5.8883524E-1,-0E0,-8.8129836E-1,-1.5303222E0,-1.3774969E-1,7.931722E-2,-3.4214398E-1,-6.519091E-2,-2.669885E-1,2.92065E-1,-1.9447096E-1],"categories":[],"categories_nodes":[],"categories_segments":[],"categories_sizes":[],"default_left":[0,0,0,0,0,0,0,0,0,0,0,0,0,0,0,0,0,0,0,0,0,0,0,0,0,0,0,0,0,0,0],"id":32,"left_children":[1,3,5,7,9,11,13,15,17,19,21,23,25,27,29,-1,-1,-1,-1,-1,-1,-1,-1,-1,-1,-1,-1,-1,-1,-1,-1],"loss_changes":[3.0360596E3,2.8127227E3,2.042608E3,1.788563E3,2.5621045E2,1.3041838E3,1.0578716E3,1.7310039E3,5.901929E2,2.2068538E2,7.652612E1,9.0611816E2,1.4358307E2,6.1923987E2,5.5371045E2,0E0,0E0,0E0,0E0,0E0,0E0,0E0,0E0,0E0,0E0,0E0,0E0,0E0,0E0,0E0,0E0],"parents":[2147483647,0,0,1,1,2,2,3,3,4,4,5,5,6,6,7,7,8,8,9,9,10,10,11,11,12,12,13,13,14,14],"right_children":[2,4,6,8,10,12,14,16,18,20,22,24,26,28,30,-1,-1,-1,-1,-1,-1,-1,-1,-1,-1,-1,-1,-1,-1,-1,-1],"split_conditions":[3E0,1.7113863E0,5.8627734E0,9.117495E-2,1.883537E-1,6.34E-1,7.766039E0,-1.9879775E-1,2E0,2E0,-2.3505852E-1,3.722979E-2,1.2220287E0,7.563607E-1,6.5458356E-3,7.2723675E-1,8.5834436E-2,-5.8599092E-2,1.6529013E0,1.09044395E-1,-5.8883524E-1,-0E0,-8.8129836E-1,-1.5303222E0,-1.3774969E-1,7.931722E-2,-3.4214398E-1,-6.519091E-2,-2.669885E-1,2.92065E-1,-1.9447096E-1],"split_indices":[46,19,18,21,22,23,18,42,0,46,96,6,70,55,96,0,0,0,0,0,0,0,0,0,0,0,0,0,0,0,0],"split_type":[0,0,0,0,0,0,0,0,0,0,0,0,0,0,0,0,0,0,0,0,0,0,0,0,0,0,0,0,0,0,0],"sum_hessian":[2.553E3,1.477E3,1.076E3,1.435E3,4.2E1,1.25E2,9.51E2,1.426E3,9E0,1.2E1,3E1,2.6E1,9.9E1,8.22E2,1.29E2,4.2E1,1.384E3,1E0,8E0,7E0,5E0,1E0,2.9E1,1.7E1,9E0,4E0,9.5E1,6.1E2,2.12E2,1.03E2,2.6E1],"tree_param":{"num_deleted":"0","num_feature":"99","num_nodes":"31","size_leaf_vector":"1"}},{"base_weights":[-0E0,1.4497682E-1,-7.638441E0,9.806153E-1,-1.0650579E0,-9.377803E0,4.8511252E-1,1.1665734E0,-5.9841204E0,-3.6721568E0,-5.4595184E-1,-3.833077E0,-1.1470698E1,2.3710124E-1,-0E0,1.026599E-1,1.1469386E0,-7.566771E-1,-5.9247084E-2,-5.437147E-1,-1.580051E-1,-2.1878241E-1,-9.047862E-3,-4.7848722E-1,-0E0,-1.180026E0,-0E0],"categories":[],"categories_nodes":[],"categories_segments":[],"categories_sizes":[],"default_left":[0,0,0,0,0,0,0,0,0,0,0,0,0,0,0,0,0,0,0,0,0,0,0,0,0,0,0],"id":33,"left_children":[1,3,5,7,9,11,13,15,17,19,21,23,25,-1,-1,-1,-1,-1,-1,-1,-1,-1,-1,-1,-1,-1,-1],"loss_changes":[2.735716E3,2.493733E3,7.4799585E2,1.8618834E3,1.3112302E3,2.1160303E2,3.161219E1,1.9122942E3,2.251659E2,5.14531E2,6.064929E2,3.1457794E1,6.0153564E1,0E0,0E0,0E0,0E0,0E0,0E0,0E0,0E0,0E0,0E0,0E0,0E0,0E0,0E0],"parents":[2147483647,0,0,1,1,2,2,3,3,4,4,5,5,6,6,7,7,8,8,9,9,10,10,11,11,12,12],"right_children":[2,4,6,8,10,12,14,16,18,20,22,24,26,-1,-1,-1,-1,-1,-1,-1,-1,-1,-1,-1,-1,-1,-1],"split_conditions":[3.64E-1,1.5255752E-1,5.53E-1,1.7113863E0,6.9811255E-1,7.6196775E0,2E0,1.14E0,4.290442E-2,3.1193454E0,3.7551875E0,9.408632E-3,2.1170573E-1,2.3710124E-1,-0E0,1.026599E-1,1.1469386E0,-7.566771E-1,-5.9247084E-2,-5.437147E-1,-1.580051E-1,-2.1878241E-1,-9.047862E-3,-4.7848722E-1,-0E0,-1.180026E0,-0E0],"split_indices":[41,58,23,19,92,44,64,69,6,70,2,96,75,0,0,0,0,0,0,0,0,0,0,0,0,0,0],"split_type":[0,0,0,0,0,0,0,0,0,0,0,0,0,0,0,0,0,0,0,0,0,0,0,0,0,0,0],"sum_hessian":[2.507E3,2.463E3,4.4E1,1.462E3,1.001E3,3.7E1,7E0,1.427E3,3.5E1,1.61E2,8.4E2,1.3E1,2.4E1,4E0,3E0,1.411E3,1.6E1,2.5E1,1E1,8.3E1,7.8E1,1.76E2,6.64E2,9E0,4E0,2.3E1,1E0],"tree_param":{"num_deleted":"0","num_feature":"99","num_nodes":"27","size_leaf_vector":"1"}},{"base_weights":[1.09403115E-2,-8.3246994E-1,9.850296E-1,-6.513911E0,-5.73591E-1,7.519444E-1,5.2956786E0,-1.0441508E1,-3.1627636E0,-8.2410693E-1,4.7253118E0,6.0273045E-1,7.1240244E0,-1.684261E-1,7.623358E0,-3.481842E-1,-1.4201006E0,-0E0,-4.410603E-1,-2.4736157E-1,-4.1694962E-4,-1.2230507E-2,6.107234E-1,-7.3633544E-2,9.928777E-2,8.36195E-1,-0E0,-4.2498103E-1,1.2859233E-1,1.1219534E0,4.1626698E-1],"categories":[],"categories_nodes":[],"categories_segments":[],"categories_sizes":[],"default_left":[0,0,0,0,0,0,0,0,0,0,0,0,0,0,0,0,0,0,0,0,0,0,0,0,0,0,0,0,0,0,0],"id":34,"left_children":[1,3,5,7,9,11,13,15,17,19,21,23,25,27,29,-1,-1,-1,-1,-1,-1,-1,-1,-1,-1,-1,-1,-1,-1,-1,-1],"loss_changes":[2.0808828E3,1.9087102E3,1.1171625E3,5.4814087E2,1.6891641E3,9.828478E2,8.148008E2,3.5223682E2,1.7513474E2,1.6536465E3,4.4318774E2,5.7974854E2,2.5032495E2,1.474124E2,2.7547168E2,0E0,0E0,0E0,0E0,0E0,0E0,0E0,0E0,0E0,0E0,0E0,0E0,0E0,0E0,0E0,0E0],"parents":[2147483647,0,0,1,1,2,2,3,3,4,4,5,5,6,6,7,7,8,8,9,9,10,10,11,11,12,12,13,13,14,14],"right_children":[2,4,6,8,10,12,14,16,18,20,22,24,26,28,30,-1,-1,-1,-1,-1,-1,-1,-1,-1,-1,-1,-1,-1,-1,-1,-1],"split_conditions":[4.7403393E0,3.068461E0,5.71425E0,6.34E-1,1.8504051E0,1.028E1,4.6073537E0,5.135834E-1,2.3480794E0,6.4887156E0,-2.2034852E-1,8.88E-1,2.7665102E0,5.0161695E-1,-3.3235054E-2,-3.481842E-1,-1.4201006E0,-0E0,-4.410603E-1,-2.4736157E-1,-4.1694962E-4,-1.2230507E-2,6.107234E-1,-7.3633544E-2,9.928777E-2,8.36195E-1,-0E0,-4.2498103E-1,1.2859233E-1,1.1219534E0,4.1626698E-1],"split_indices":[10,2,35,23,37,90,80,38,70,18,7,23,37,74,60,0,0,0,0,0,0,0,0,0,0,0,0,0,0,0,0],"split_type":[0,0,0,0,0,0,0,0,0,0,0,0,0,0,0,0,0,0,0,0,0,0,0,0,0,0,0,0,0,0,0],"sum_hessian":[2.527E3,1.349E3,1.178E3,5.5E1,1.294E3,1.122E3,5.6E1,2.2E1,3.3E1,1.239E3,5.5E1,1.1E3,2.2E1,1.6E1,4E1,1E1,1.2E1,8E0,2.5E1,4.06E2,8.33E2,1.1E1,4.4E1,2.42E2,8.58E2,1.9E1,3E0,5E0,1.1E1,1.6E1,2.4E1],"tree_param":{"num_deleted":"0","num_feature":"99","num_nodes":"31","size_leaf_vector":"1"}},{"base_weights":[-3.5644192E-2,1.0003249E-1,-6.4480743E0,8.0005693E-1,-9.217384E-1,-8.032095E0,2.9529712E-1,5.863721E-1,5.273349E0,-3.5737472E0,-4.0181315E-1,-1.1665293E0,-8.972251E0,-5.3326607E-2,2.7349764E-1,-4.4398996E-1,7.5766176E-2,8.3044285E-1,-0E0,-5.3694385E-1,-1.2925284E-1,-1.5836173E-1,-0E0,-1.7795697E-1,-0E0,-0E0,-9.196067E-1,-2.3660062E-2,-0E0],"categories":[],"categories_nodes":[],"categories_segments":[],"categories_sizes":[],"default_left":[0,0,0,1,0,0,0,0,0,0,0,0,0,0,0,0,0,0,0,0,0,0,0,0,0,0,0,0,0],"id":35,"left_children":[1,3,5,7,9,11,13,15,17,19,21,23,25,27,-1,-1,-1,-1,-1,-1,-1,-1,-1,-1,-1,-1,-1,-1,-1],"loss_changes":[2.2667842E3,1.7733989E3,6.589204E2,1.3480015E3,1.3403555E3,1.6814087E2,3.646402E1,1.1881478E3,1.0889342E3,5.7901465E2,4.0793506E2,1.3087828E1,6.9954346E1,3.691091E-1,0E0,0E0,0E0,0E0,0E0,0E0,0E0,0E0,0E0,0E0,0E0,0E0,0E0,0E0,0E0],"parents":[2147483647,0,0,1,1,2,2,3,3,4,4,5,5,6,6,7,7,8,8,9,9,10,10,11,11,12,12,13,13],"right_children":[2,4,6,8,10,12,14,16,18,20,22,24,26,28,-1,-1,-1,-1,-1,-1,-1,-1,-1,-1,-1,-1,-1,-1,-1],"split_conditions":[3.57E-1,1.5255752E-1,4E0,9.9E-1,6.9811255E-1,-5.69E-1,1.4614524E0,3E0,8E-3,3.1193454E0,6.150375E0,4.4209375E0,-2.3748551E-1,5.58026E0,2.7349764E-1,-4.4398996E-1,7.5766176E-2,8.3044285E-1,-0E0,-5.3694385E-1,-1.2925284E-1,-1.5836173E-1,-0E0,-1.7795697E-1,-0E0,-0E0,-9.196067E-1,-2.3660062E-2,-0E0],"split_indices":[41,58,12,69,92,95,4,12,77,70,53,2,78,2,0,0,0,0,0,0,0,0,0,0,0,0,0,0,0],"split_type":[0,0,0,0,0,0,0,0,0,0,0,0,0,0,0,0,0,0,0,0,0,0,0,0,0,0,0,0,0],"sum_hessian":[2.529E3,2.477E3,5.2E1,1.476E3,1.001E3,4.3E1,9E0,1.413E3,6.3E1,1.59E2,8.42E2,7E0,3.6E1,6E0,3E0,4.3E1,1.37E3,4E1,2.3E1,8.5E1,7.4E1,2.15E2,6.27E2,6E0,1E0,1E0,3.5E1,5E0,1E0],"tree_param":{"num_deleted":"0","num_feature":"99","num_nodes":"29","size_leaf_vector":"1"}},{"base_weights":[-2.0233339E-2,-9.0007715E-2,9.626119E0,-2.0899742E0,2.6023644E-1,-3.9188282E0,1.5165922E1,-4.3182197E0,-4.4284976E-1,1.5410863E0,-5.788847E-1,-4.3435913E-1,-0E0,1.6010758E0,-0E0,-6.4425796E-1,-2.913771E-1,-2.3703368E-1,3.3150053E-1,1.17048346E-1,4.7903377E-1,-4.1247446E-2,-3.7187204E-1],"categories":[],"categories_nodes":[],"categories_segments":[],"categories_sizes":[],"default_left":[0,0,0,0,0,0,0,0,0,0,0,0,0,0,0,0,0,0,0,0,0,0,0],"id":36,"left_children":[1,3,5,7,9,11,13,15,17,19,21,-1,-1,-1,-1,-1,-1,-1,-1,-1,-1,-1,-1],"loss_changes":[1.5944269E3,1.7656733E3,1.5069541E3,1.3285588E3,2.2888826E3,2.1906433E0,8.606445E1,3.373103E2,1.6070197E3,9.4550757E2,6.228539E2,0E0,0E0,0E0,0E0,0E0,0E0,0E0,0E0,0E0,0E0,0E0,0E0],"parents":[2147483647,0,0,1,1,2,2,3,3,4,4,5,5,6,6,7,7,8,8,9,9,10,10],"right_children":[2,4,6,8,10,12,14,16,18,20,22,-1,-1,-1,-1,-1,-1,-1,-1,-1,-1,-1,-1],"split_conditions":[8.253422E-2,4E0,2E0,4.418596E-2,3.7025428E-1,1.6382402E-1,1.6526182E-1,4.44E-1,-5.110358E-2,1.095234E0,1.5952383E0,-4.3435913E-1,-0E0,1.6010758E0,-0E0,-6.4425796E-1,-2.913771E-1,-2.3703368E-1,3.3150053E-1,1.17048346E-1,4.7903377E-1,-4.1247446E-2,-3.7187204E-1],"split_indices":[21,12,0,6,76,6,6,23,21,19,91,0,0,0,0,0,0,0,0,0,0,0,0],"split_type":[0,0,0,0,0,0,0,0,0,0,0,0,0,0,0,0,0,0,0,0,0,0,0],"sum_hessian":[2.506E3,2.491E3,1.5E1,3.74E2,2.117E3,4E0,1.1E1,1.55E2,2.19E2,8.42E2,1.275E3,3E0,1E0,1E1,1E0,5.6E1,9.9E1,1.47E2,7.2E1,7.61E2,8.1E1,1.216E3,5.9E1],"tree_param":{"num_deleted":"0","num_feature":"99","num_nodes":"23","size_leaf_vector":"1"}},{"base_weights":[-9.515654E-3,9.44666E-2,-5.454763E0,7.1382624E-1,-7.8789735E-1,-7.4384346E0,-0E0,8.6135E-1,-4.312646E0,-4.3717194E0,-5.2645576E-1,-0E0,-7.949968E0,-1.7891219E0,2.0752935E0,4.8431464E-2,3.1214938E-1,-5.888442E-1,-0E0,-9.9641675E-1,-2.2905155E-1,-3.3781786E-2,-4.0787458E-1,-8.389765E-1,-0E0,-0E0,-2.5279498E-1,-0E0,2.695071E-1],"categories":[],"categories_nodes":[],"categories_segments":[],"categories_sizes":[],"default_left":[0,0,0,0,0,0,0,0,0,0,0,0,0,0,0,0,0,0,0,0,0,0,0,0,0,0,0,0,0],"id":37,"left_children":[1,3,5,7,9,11,13,15,17,19,21,-1,23,25,27,-1,-1,-1,-1,-1,-1,-1,-1,-1,-1,-1,-1,-1,-1],"loss_changes":[1.4797817E3,1.3502407E3,5.339236E2,1.0548E3,8.955558E2,9.377466E1,6.326336E1,1.1718292E3,2.962556E2,5.9998267E2,5.8900037E2,0E0,9.63667E1,1.5925093E1,9.125698E0,0E0,0E0,0E0,0E0,0E0,0E0,0E0,0E0,0E0,0E0,0E0,0E0,0E0,0E0],"parents":[2147483647,0,0,1,1,2,2,3,3,4,4,5,5,6,6,7,7,8,8,9,9,10,10,12,12,13,13,14,14],"right_children":[2,4,6,8,10,12,14,16,18,20,22,-1,24,26,28,-1,-1,-1,-1,-1,-1,-1,-1,-1,-1,-1,-1,-1,-1],"split_conditions":[3.64E-1,1.5255752E-1,9.9E-1,1.7113863E0,5.452E0,-7.59E-1,3.0168572E-1,1.4411421E0,4.290442E-2,6.34E-1,6.7206874E0,-0E0,4.5963283E0,2E0,1.4614524E0,4.8431464E-2,3.1214938E-1,-5.888442E-1,-0E0,-9.9641675E-1,-2.2905155E-1,-3.3781786E-2,-4.0787458E-1,-8.389765E-1,-0E0,-0E0,-2.5279498E-1,-0E0,2.695071E-1],"split_indices":[41,58,69,19,18,95,22,73,6,23,35,0,2,0,4,0,0,0,0,0,0,0,0,0,0,0,0,0,0],"split_type":[0,0,0,0,0,0,0,0,0,0,0,0,0,0,0,0,0,0,0,0,0,0,0,0,0,0,0,0,0],"sum_hessian":[2.515E3,2.468E3,4.7E1,1.457E3,1.011E3,3.4E1,1.3E1,1.419E3,3.8E1,6.4E1,9.47E2,3E0,3.1E1,7E0,6E0,1.222E3,1.97E2,2.8E1,1E1,1.4E1,5E1,9.04E2,4.3E1,2.9E1,2E0,2E0,5E0,2E0,4E0],"tree_param":{"num_deleted":"0","num_feature":"99","num_nodes":"29","size_leaf_vector":"1"}},{"base_weights":[4.1346293E-2,-2.2354305E-2,1.003367E1,-3.8110802E0,1.0295802E-1,-2.2153778E-1,1.3689235E1,-6.640253E0,-2.3385553E0,8.618892E-1,-5.6573635E-1,1.4359217E0,-0E0,-7.2398204E-1,-0E0,-3.4039077E-1,3.916521E-2,1.0569266E-2,1.8463223E-1,-8.77074E-2,1.7547004E-1],"categories":[],"categories_nodes":[],"categories_segments":[],"categories_sizes":[],"default_left":[0,0,0,0,0,0,0,0,0,0,0,0,0,0,0,0,0,0,0,0,0],"id":38,"left_children":[1,3,5,7,9,-1,11,13,15,17,19,-1,-1,-1,-1,-1,-1,-1,-1,-1,-1],"loss_changes":[1.7084037E3,1.2300237E3,9.366044E2,2.2493506E2,1.2371447E3,0E0,5.690039E1,1.0322095E2,2.0730685E2,8.3320044E2,9.2335864E2,0E0,0E0,0E0,0E0,0E0,0E0,0E0,0E0,0E0,0E0],"parents":[2147483647,0,0,1,1,2,2,3,3,4,4,6,6,7,7,8,8,9,9,10,10],"right_children":[2,4,6,8,10,-1,12,14,16,18,20,-1,-1,-1,-1,-1,-1,-1,-1,-1,-1],"split_conditions":[8.253422E-2,-2.0515822E-1,2E0,2E0,9.5851964E-1,-2.2153778E-1,1.6526182E-1,4.7295E0,5.07E-1,3.3135624E0,7.766039E0,1.4359217E0,-0E0,-7.2398204E-1,-0E0,-3.4039077E-1,3.916521E-2,1.0569266E-2,1.8463223E-1,-8.77074E-2,1.7547004E-1],"split_indices":[21,9,0,27,56,0,6,2,23,2,18,0,0,0,0,0,0,0,0,0,0],"split_type":[0,0,0,0,0,0,0,0,0,0,0,0,0,0,0,0,0,0,0,0,0],"sum_hessian":[2.524E3,2.509E3,1.5E1,8.1E1,2.428E3,3E0,1.2E1,2.3E1,5.8E1,1.144E3,1.284E3,1.1E1,1E0,2.1E1,2E0,4.4E1,1.4E1,6.54E2,4.9E2,1.137E3,1.47E2],"tree_param":{"num_deleted":"0","num_feature":"99","num_nodes":"21","size_leaf_vector":"1"}},{"base_weights":[-0E0,9.9106E-2,-5.529575E0,2.5499864E-2,7.2402782E0,-6.56631E0,1.7313055E0,-8.7145E-2,3.6060495E0,-6.395054E-2,8.4693044E-1,-7.979851E0,-0E0,2.1801339E-1,-0E0,-1.8953916E-1,1.4011449E-2,7.6464003E-1,-5.700142E-2,-0E0,-8.382662E-1,-0E0,-7.227784E-2],"categories":[],"categories_nodes":[],"categories_segments":[],"categories_sizes":[],"default_left":[0,1,0,0,0,0,0,0,0,0,0,0,0,0,0,0,0,0,0,0,0,0,0],"id":39,"left_children":[1,3,5,7,9,11,13,15,17,-1,-1,19,21,-1,-1,-1,-1,-1,-1,-1,-1,-1,-1],"loss_changes":[1.4003759E3,1.2352762E3,4.0982898E2,1.030834E3,3.215575E2,3.3360132E2,1.0274239E0,1.0006444E3,1.3955562E3,0E0,0E0,7.696484E1,3.6568596E0,0E0,0E0,0E0,0E0,0E0,0E0,0E0,0E0,0E0,0E0],"parents":[2147483647,0,0,1,1,2,2,3,3,4,4,5,5,6,6,7,7,8,8,11,11,12,12],"right_children":[2,4,6,8,10,12,14,16,18,-1,-1,20,22,-1,-1,-1,-1,-1,-1,-1,-1,-1,-1],"split_conditions":[8.288676E0,4E0,9.9E-1,7.642633E0,5.2779217E0,4.44E-1,1.267266E0,4E0,1.885292E0,-6.395054E-2,8.4693044E-1,-4.6378744E-1,2E0,2.1801339E-1,-0E0,-1.8953916E-1,1.4011449E-2,7.6464003E-1,-5.700142E-2,-0E0,-8.382662E-1,-0E0,-7.227784E-2],"split_indices":[44,79,87,26,18,23,19,12,73,0,0,21,64,0,0,0,0,0,0,0,0,0,0],"split_type":[0,0,0,0,0,0,0,0,0,0,0,0,0,0,0,0,0,0,0,0,0,0,0],"sum_hessian":[2.53E3,2.487E3,4.3E1,2.465E3,2.2E1,3.9E1,4E0,2.389E3,7.6E1,2E0,2E1,3.1E1,8E0,2E0,2E0,2.7E2,2.119E3,3.9E1,3.7E1,2E0,2.9E1,3E0,5E0],"tree_param":{"num_deleted":"0","num_feature":"99","num_nodes":"23","size_leaf_vector":"1"}},{"base_weights":[-2.1578133E-2,-6.1083055E-1,6.460573E-1,-4.528465E0,-4.0876898E-1,4.7663125E-1,4.0650444E0,-3.22784E0,-1.2582653E0,-6.248409E-1,3.981599E0,9.334667E-2,1.3821087E0,6.488852E0,9.908593E-3,-1.5069632E-1,-5.84681E-1,-2.0475177E-1,-1.3365606E-2,9.825199E-2,5.7466835E-1,-1.7534858E-1,3.850864E-2,3.2920268E-1,5.5324446E-2,8.807711E-1,2.1743742E-1,-2.672244E-1,2.8301844E-1],"categories":[],"categories_nodes":[],"categories_segments":[],"categories_sizes":[],"default_left":[0,0,0,0,0,0,0,0,0,0,0,0,0,0,0,0,0,0,0,0,0,0,0,0,0,0,0,0,0],"id":40,"left_children":[1,3,5,7,9,11,13,15,-1,17,19,21,23,25,27,-1,-1,-1,-1,-1,-1,-1,-1,-1,-1,-1,-1,-1,-1],"loss_changes":[9.8473834E2,1.00609064E3,6.261316E2,4.2062048E2,1.1828153E3,3.7230142E2,4.45985E2,1.7024207E2,0E0,8.308723E2,2.2844586E2,4.154692E2,4.7081708E2,1.6202124E2,1.9068672E2,0E0,0E0,0E0,0E0,0E0,0E0,0E0,0E0,0E0,0E0,0E0,0E0,0E0,0E0],"parents":[2147483647,0,0,1,1,2,2,3,3,4,4,5,5,6,6,7,7,9,9,10,10,11,11,12,12,13,13,14,14],"right_children":[2,4,6,8,10,12,14,16,-1,18,20,22,24,26,28,-1,-1,-1,-1,-1,-1,-1,-1,-1,-1,-1,-1,-1,-1],"split_conditions":[-1.882312E-1,3.068461E0,5.71425E0,4E0,1.8504051E0,9.67E-1,1.4350951E0,2E0,-1.2582653E0,6.398453E0,7.293944E-2,8.081807E-1,6.2019176E0,6.5154843E0,5.61475E0,-1.5069632E-1,-5.84681E-1,-2.0475177E-1,-1.3365606E-2,9.825199E-2,5.7466835E-1,-1.7534858E-1,3.850864E-2,3.2920268E-1,5.5324446E-2,8.807711E-1,2.1743742E-1,-2.672244E-1,2.8301844E-1],"split_indices":[7,2,35,12,37,23,73,28,0,18,60,91,80,53,53,0,0,0,0,0,0,0,0,0,0,0,0,0,0],"split_type":[0,0,0,0,0,0,0,0,0,0,0,0,0,0,0,0,0,0,0,0,0,0,0,0,0,0,0,0,0],"sum_hessian":[2.5E3,1.336E3,1.164E3,6.1E1,1.275E3,1.114E3,5E1,5.6E1,5E0,1.219E3,5.6E1,7.92E2,3.22E2,2.9E1,2.1E1,3.8E1,1.8E1,3.06E2,9.13E2,2.4E1,3.2E1,1.02E2,6.9E2,9.2E1,2.3E2,1.6E1,1.3E1,9E0,1.2E1],"tree_param":{"num_deleted":"0","num_feature":"99","num_nodes":"29","size_leaf_vector":"1"}},{"base_weights":[-3.1864055E-2,-1.9283801E-1,2.755477E0,-4.513978E0,-8.062314E-2,4.2029233E0,1.9606219E-1,-0E0,-5.745276E0,2.4935954E0,-2.4983217E-1,-0E0,4.771806E0,8.398083E-1,-2.0266537E-1,-2.0458475E-1,2.4550235E-1,-5.8692932E-2,-6.724478E-1,5.0864364E-3,5.403778E-1,-2.7930877E-1,-7.6325634E-3,5.1951426E-1,-0E0,1.0719394E-1,-0E0],"categories":[],"categories_nodes":[],"categories_segments":[],"categories_sizes":[],"default_left":[1,0,0,0,0,0,0,0,0,0,0,0,0,0,0,0,0,0,0,0,0,0,0,0,0,0,0],"id":41,"left_children":[1,3,5,7,9,11,13,15,17,19,21,-1,23,25,-1,-1,-1,-1,-1,-1,-1,-1,-1,-1,-1,-1,-1],"loss_changes":[1.1034413E3,1.1083488E3,4.5078046E2,3.0356104E2,9.9196967E2,2.1883105E2,6.737137E1,8.404489E1,1.4629016E2,9.4013477E2,9.363815E2,0E0,1.5029651E2,1.5817486E1,0E0,0E0,0E0,0E0,0E0,0E0,0E0,0E0,0E0,0E0,0E0,0E0,0E0],"parents":[2147483647,0,0,1,1,2,2,3,3,4,4,5,5,6,6,7,7,8,8,9,9,10,10,12,12,13,13],"right_children":[2,4,6,8,10,12,14,16,18,20,22,-1,24,26,-1,-1,-1,-1,-1,-1,-1,-1,-1,-1,-1,-1,-1],"split_conditions":[8.882625E0,3E0,4.9953256E0,1.883537E-1,5.03996E-1,5.9916186E-1,1.5391172E0,7.363298E0,-2.98E-1,3.1246688E0,5.699641E-1,-0E0,1.870778E0,1.5950719E0,-2.0266537E-1,-2.0458475E-1,2.4550235E-1,-5.8692932E-2,-6.724478E-1,5.0864364E-3,5.403778E-1,-2.7930877E-1,-7.6325634E-3,5.1951426E-1,-0E0,1.0719394E-1,-0E0],"split_indices":[71,12,62,22,56,55,91,26,95,2,92,0,91,37,0,0,0,0,0,0,0,0,0,0,0,0,0],"split_type":[0,0,0,0,0,0,0,0,0,0,0,0,0,0,0,0,0,0,0,0,0,0,0,0,0,0,0],"sum_hessian":[2.512E3,2.38E3,1.32E2,5.6E1,2.324E3,8.1E1,5.1E1,1.3E1,4.3E1,1.38E2,2.186E3,9E0,7.2E1,4.4E1,7E0,8E0,5E0,9E0,3.4E1,7.8E1,6E1,1.34E2,2.052E3,6.6E1,6E0,4E1,4E0],"tree_param":{"num_deleted":"0","num_feature":"99","num_nodes":"27","size_leaf_vector":"1"}},{"base_weights":[2.524716E-2,2.0439205E-1,-2.162295E0,5.5900577E-2,5.088882E0,-2.8427587E0,3.6273582E0,1.9115603E-1,-4.0653186E0,9.247414E0,4.7265756E-1,-3.6721683E0,-0E0,-0E0,5.6608906E0,2.5442955E-1,-5.65642E-3,-1.4331246E-2,-5.2251166E-1,-0E0,1.1127157E0,3.3421102E-1,-2.727581E-1,-1.1177242E-1,-5.382288E-1,-5.00725E-1,1.490686E-1,2.368927E-2,-1.6728211E-2,6.6809684E-1,-0E0],"categories":[],"categories_nodes":[],"categories_segments":[],"categories_sizes":[],"default_left":[0,0,1,0,0,0,0,0,0,0,0,0,0,0,0,0,0,0,0,0,0,0,0,0,0,0,0,0,0,0,0],"id":42,"left_children":[1,3,5,7,9,11,13,15,17,19,21,23,25,27,29,-1,-1,-1,-1,-1,-1,-1,-1,-1,-1,-1,-1,-1,-1,-1,-1],"loss_changes":[9.704277E2,1.6444717E3,7.4949176E2,1.2303796E3,1.1802375E3,3.7920947E2,1.3455135E2,1.3110872E3,2.632296E2,5.592832E2,3.457797E2,4.908606E2,3.4912878E2,5.0476027E-1,6.1805237E1,0E0,0E0,0E0,0E0,0E0,0E0,0E0,0E0,0E0,0E0,0E0,0E0,0E0,0E0,0E0,0E0],"parents":[2147483647,0,0,1,1,2,2,3,3,4,4,5,5,6,6,7,7,8,8,9,9,10,10,11,11,12,12,13,13,14,14],"right_children":[2,4,6,8,10,12,14,16,18,20,22,24,26,28,30,-1,-1,-1,-1,-1,-1,-1,-1,-1,-1,-1,-1,-1,-1,-1,-1],"split_conditions":[1.2724447E-1,6.2893586E0,9.9E-1,2E0,4.482935E-2,4.82439E0,-8.08001E-2,3.7658373E-1,7.0388787E-3,7.5E-1,9.5E-2,5.5178404E0,-2.0079327E-1,4E0,2.3365521E0,2.5442955E-1,-5.65642E-3,-1.4331246E-2,-5.2251166E-1,-0E0,1.1127157E0,3.3421102E-1,-2.727581E-1,-1.1177242E-1,-5.382288E-1,-5.00725E-1,1.490686E-1,2.368927E-2,-1.6728211E-2,6.6809684E-1,-0E0],"split_indices":[40,44,87,28,75,70,96,22,58,51,95,62,76,27,73,0,0,0,0,0,0,0,0,0,0,0,0,0,0,0,0],"split_type":[0,0,0,0,0,0,0,0,0,0,0,0,0,0,0,0,0,0,0,0,0,0,0,0,0,0,0,0,0,0,0],"sum_hessian":[2.522E3,2.337E3,1.85E2,2.272E3,6.5E1,1.68E2,1.7E1,2.204E3,6.8E1,3.2E1,3.3E1,1.28E2,4E1,7E0,1E1,2.12E2,1.992E3,1.8E1,5E1,6E0,2.6E1,1.9E1,1.4E1,5.5E1,7.3E1,9E0,3.1E1,5E0,2E0,8E0,2E0],"tree_param":{"num_deleted":"0","num_feature":"99","num_nodes":"31","size_leaf_vector":"1"}},{"base_weights":[-5.660592E-3,-5.7964195E-2,7.5196023E0,-1.2518622E-1,4.9662614E0,-3.0909512E0,1.2404946E0,-3.9001834E-2,-4.7431955E0,-0E0,7.4774485E0,-3.481418E-1,-0E0,-7.1398205E-1,7.008098E-4,-7.646124E-1,-1.3912001E-1,2.798663E-1,-2.569166E-1,7.792246E-1,-0E0],"categories":[],"categories_nodes":[],"categories_segments":[],"categories_sizes":[],"default_left":[0,1,0,0,0,0,0,0,0,0,0,0,0,0,0,0,0,0,0,0,0],"id":43,"left_children":[1,3,5,7,9,11,-1,13,15,17,19,-1,-1,-1,-1,-1,-1,-1,-1,-1,-1],"loss_changes":[9.130065E2,7.9481506E2,9.992051E2,9.3248083E2,3.536684E2,3.2774696E0,0E0,8.630422E2,3.0676807E2,1.088644E2,3.541797E1,0E0,0E0,0E0,0E0,0E0,0E0,0E0,0E0,0E0,0E0],"parents":[2147483647,0,0,1,1,2,2,3,3,4,4,5,5,7,7,8,8,9,9,10,10],"right_children":[2,4,6,8,10,12,-1,14,16,18,20,-1,-1,-1,-1,-1,-1,-1,-1,-1,-1],"split_conditions":[8.253422E-2,4E0,2E0,8.1132965E0,4.2759686E0,1.6382402E-1,1.2404946E0,-3.17E-1,1.6733518E0,-1.1274533E-1,6.946828E0,-3.481418E-1,-0E0,-7.1398205E-1,7.008098E-4,-7.646124E-1,-1.3912001E-1,2.798663E-1,-2.569166E-1,7.792246E-1,-0E0],"split_indices":[21,79,0,44,89,6,0,41,55,60,2,0,0,0,0,0,0,0,0,0,0],"split_type":[0,0,0,0,0,0,0,0,0,0,0,0,0,0,0,0,0,0,0,0,0],"sum_hessian":[2.505E3,2.491E3,1.4E1,2.462E3,2.9E1,4E0,1E1,2.421E3,4.1E1,1.1E1,1.8E1,3E0,1E0,1.5E1,2.406E3,1.9E1,2.2E1,6E0,5E0,1.7E1,1E0],"tree_param":{"num_deleted":"0","num_feature":"99","num_nodes":"21","size_leaf_vector":"1"}},{"base_weights":[-3.7524186E-2,-5.477541E-1,5.4021865E-1,-6.736809E-1,4.042232E0,1.8428706E0,1.974438E-1,-3.6765687E0,-5.13129E-1,5.905415E0,-0E0,1.1230665E0,5.4027267E0,-2.9373531E0,4.6616566E-1,-2.4260946E-1,-1.155862E0,-6.773897E-2,3.030466E-1,6.814839E-1,-0E0,-6.837442E-2,1.366996E-1,2.7974054E-1,-6.0883194E-2,-6.5754384E-2,6.4801866E-1,-6.5876204E-1,-1.1579239E-1,1.04066515E-2,2.4143377E-1],"categories":[],"categories_nodes":[],"categories_segments":[],"categories_sizes":[],"default_left":[0,0,0,0,0,0,0,0,0,0,0,1,0,0,0,0,0,0,0,0,0,0,0,0,0,0,0,0,0,0,0],"id":44,"left_children":[1,3,5,7,9,11,13,15,17,19,21,23,25,27,29,-1,-1,-1,-1,-1,-1,-1,-1,-1,-1,-1,-1,-1,-1,-1,-1],"loss_changes":[7.399797E2,7.474395E2,5.0040027E2,5.859062E2,2.1167877E2,5.2989526E2,7.6397516E2,4.2501514E2,7.0758435E2,1.1517206E2,2.0090643E1,6.110485E2,3.083473E2,3.6846143E2,5.838062E2,0E0,0E0,0E0,0E0,0E0,0E0,0E0,0E0,0E0,0E0,0E0,0E0,0E0,0E0,0E0,0E0],"parents":[2147483647,0,0,1,1,2,2,3,3,4,4,5,5,6,6,7,7,8,8,9,9,10,10,11,11,12,12,13,13,14,14],"right_children":[2,4,6,8,10,12,14,16,18,20,22,24,26,28,30,-1,-1,-1,-1,-1,-1,-1,-1,-1,-1,-1,-1,-1,-1,-1,-1],"split_conditions":[-1.882312E-1,4.957625E0,4.0678942E-1,3.068461E0,1.734035E-1,4.5521717E0,-1.7250772E-1,4E0,1.9015149E0,1.1400337E0,6.5503826E0,3.525635E0,-3.17E-1,3.044985E-1,1.4023554E0,-2.4260946E-1,-1.155862E0,-6.773897E-2,3.030466E-1,6.814839E-1,-0E0,-6.837442E-2,1.366996E-1,2.7974054E-1,-6.0883194E-2,-6.5754384E-2,6.4801866E-1,-6.5876204E-1,-1.1579239E-1,1.04066515E-2,2.4143377E-1],"split_indices":[7,2,22,2,40,2,7,12,55,19,53,88,95,58,20,0,0,0,0,0,0,0,0,0,0,0,0,0,0,0,0],"split_type":[0,0,0,0,0,0,0,0,0,0,0,0,0,0,0,0,0,0,0,0,0,0,0,0,0,0,0,0,0,0,0],"sum_hessian":[2.506E3,1.34E3,1.166E3,1.308E3,3.2E1,2.35E2,9.31E2,6.1E1,1.247E3,2E1,1.2E1,2E2,3.5E1,6.9E1,8.62E2,5.6E1,5E0,1.196E3,5.1E1,1.7E1,3E0,5E0,7E0,1.04E2,9.6E1,4E0,3.1E1,1.9E1,5E1,7.33E2,1.29E2],"tree_param":{"num_deleted":"0","num_feature":"99","num_nodes":"31","size_leaf_vector":"1"}},{"base_weights":[3.4713164E-2,-1.0251113E-2,7.252418E0,-1.4600371E-1,2.2860515E0,-3.2318893E-1,1.0675039E1,-2.7111885E-1,2.6632237E0,3.67026E0,-0E0,1.1217636E0,-0E0,-2.0041266E-1,-1.2114185E-2,8.16006E-1,1.739491E-1,-0E0,4.396348E-1,3.7573706E-2,-8.161276E-2],"categories":[],"categories_nodes":[],"categories_segments":[],"categories_sizes":[],"default_left":[0,1,0,0,0,0,0,0,0,0,0,0,0,0,0,0,0,0,0,0,0],"id":45,"left_children":[1,3,5,7,9,-1,11,13,15,17,19,-1,-1,-1,-1,-1,-1,-1,-1,-1,-1],"loss_changes":[8.91382E2,7.6108344E2,7.534575E2,8.119291E2,4.4774927E2,0E0,4.0468872E1,5.7033966E2,3.7022144E2,2.5244543E2,1.8646235E1,0E0,0E0,0E0,0E0,0E0,0E0,0E0,0E0,0E0,0E0],"parents":[2147483647,0,0,1,1,2,2,3,3,4,4,6,6,7,7,8,8,9,9,10,10],"right_children":[2,4,6,8,10,-1,12,14,16,18,20,-1,-1,-1,-1,-1,-1,-1,-1,-1,-1],"split_conditions":[8.253422E-2,8.882625E0,2E0,-1.6196616E-1,4.9953256E0,-3.2318893E-1,1.6526182E-1,4.00075E0,4.5958823E-1,6.3723916E-1,9.282172E0,1.1217636E0,-0E0,-2.0041266E-1,-1.2114185E-2,8.16006E-1,1.739491E-1,-0E0,4.396348E-1,3.7573706E-2,-8.161276E-2],"split_indices":[21,71,0,7,62,0,6,71,22,55,71,0,0,0,0,0,0,0,0,0,0],"split_type":[0,0,0,0,0,0,0,0,0,0,0,0,0,0,0,0,0,0,0,0,0],"sum_hessian":[2.521E3,2.506E3,1.5E1,2.372E3,1.34E2,3E0,1.2E1,2.276E3,9.6E1,8.4E1,5E1,1.1E1,1E0,1.74E2,2.102E3,1E1,8.6E1,1.3E1,7.1E1,3.1E1,1.9E1],"tree_param":{"num_deleted":"0","num_feature":"99","num_nodes":"21","size_leaf_vector":"1"}},{"base_weights":[-2.2126684E-2,5.0250072E-2,-4.1154327E0,1.391594E0,-1.4372008E-1,-5.41714E0,1.0220683E-1,7.3615522E0,9.934402E-1,-3.1580331E0,-2.3769243E-2,-0E0,-6.1304107E0,2.028909E-1,-1.4988272E-1,9.3412983E-1,-0E0,5.1280063E-2,6.6095084E-1,-7.12676E-1,-7.53497E-2,4.4835964E-1,-1.3096771E-2,-6.336228E-1,-0E0,-0E0,-4.2481996E-2],"categories":[],"categories_nodes":[],"categories_segments":[],"categories_sizes":[],"default_left":[0,0,0,0,0,0,0,0,0,0,0,0,1,0,0,0,0,0,0,0,0,0,0,0,0,0,0],"id":46,"left_children":[1,3,5,7,9,11,13,15,17,19,21,-1,23,-1,25,-1,-1,-1,-1,-1,-1,-1,-1,-1,-1,-1,-1],"loss_changes":[7.8408606E2,6.5396387E2,3.0680273E2,6.576974E2,7.446828E2,1.1684192E2,2.4741177E1,2.4617365E2,7.371881E2,6.643503E2,9.5831946E2,0E0,4.1959595E1,0E0,9.255781E-1,0E0,0E0,0E0,0E0,0E0,0E0,0E0,0E0,0E0,0E0,0E0,0E0],"parents":[2147483647,0,0,1,1,2,2,3,3,4,4,5,5,6,6,7,7,8,8,9,9,10,10,12,12,14,14],"right_children":[2,4,6,8,10,12,14,16,18,20,22,-1,24,-1,26,-1,-1,-1,-1,-1,-1,-1,-1,-1,-1,-1,-1],"split_conditions":[3.64E-1,2.3525531E0,4.44E-1,1.3413275E0,-5.5193923E-2,-1.9441885E-1,2E0,3E0,7.7235937E0,6.824473E-2,-5.5212628E-2,-0E0,9.9E-1,2.028909E-1,4.522334E0,9.3412983E-1,-0E0,5.1280063E-2,6.6095084E-1,-7.12676E-1,-7.53497E-2,4.4835964E-1,-1.3096771E-2,-6.336228E-1,-0E0,-0E0,-4.2481996E-2],"split_indices":[41,34,23,17,21,96,64,46,18,6,39,0,87,0,1,0,0,0,0,0,0,0,0,0,0,0,0],"split_type":[0,0,0,0,0,0,0,0,0,0,0,0,0,0,0,0,0,0,0,0,0,0,0,0,0,0,0],"sum_hessian":[2.506E3,2.462E3,4.4E1,3.16E2,2.146E3,3.5E1,9E0,1.6E1,3E2,7.7E1,2.069E3,5E0,3E1,4E0,5E0,1.2E1,4E0,2.8E2,2E1,2.6E1,5.1E1,4.4E1,2.025E3,2.9E1,1E0,1E0,4E0],"tree_param":{"num_deleted":"0","num_feature":"99","num_nodes":"27","size_leaf_vector":"1"}},{"base_weights":[-0E0,7.171492E-2,-3.8391013E0,1.4376644E0,-1.2292919E-1,-6.327526E0,-5.104001E-1,8.073252E-1,5.543914E0,-2.872005E0,-9.773448E-3,-6.925662E0,-0E0,1.0446417E0,-3.0728826E-1,1.3311349E-1,-2.1651843E-1,1.8299808E-1,8.253665E-1,-1.1239677E-1,-6.8995833E-1,4.034445E-1,-9.477993E-3,-7.1619767E-1,-0E0,-0E0,2.792715E-1],"categories":[],"categories_nodes":[],"categories_segments":[],"categories_sizes":[],"default_left":[0,0,0,0,0,0,0,0,0,0,0,0,0,0,0,0,0,0,0,0,0,0,0,0,0,0,0],"id":47,"left_children":[1,3,5,7,9,11,13,15,17,19,21,23,-1,25,-1,-1,-1,-1,-1,-1,-1,-1,-1,-1,-1,-1,-1],"loss_changes":[7.056021E2,6.795152E2,3.1447308E2,7.532134E2,6.517553E2,1.0225049E2,1.22336945E2,4.349489E2,2.715088E2,4.886043E2,6.857226E2,2.5275879E1,0E0,4.7116188E1,0E0,0E0,0E0,0E0,0E0,0E0,0E0,0E0,0E0,0E0,0E0,0E0,0E0],"parents":[2147483647,0,0,1,1,2,2,3,3,4,4,5,5,6,6,7,7,8,8,9,9,10,10,11,11,13,13],"right_children":[2,4,6,8,10,12,14,16,18,20,22,24,-1,26,-1,-1,-1,-1,-1,-1,-1,-1,-1,-1,-1,-1,-1],"split_conditions":[8.288676E0,2.3525531E0,3.64E-1,7.642633E0,-5.5193923E-2,9.9E-1,4.919977E0,2.7038932E0,4.6828976E0,1.1109364E0,-5.5212628E-2,1.7487119E-1,-0E0,1.4521333E0,-3.0728826E-1,1.3311349E-1,-2.1651843E-1,1.8299808E-1,8.253665E-1,-1.1239677E-1,-6.8995833E-1,4.034445E-1,-9.477993E-3,-7.1619767E-1,-0E0,-0E0,2.792715E-1],"split_indices":[44,34,23,26,21,87,80,1,80,55,39,6,0,73,0,0,0,0,0,0,0,0,0,0,0,0,0],"split_type":[0,0,0,0,0,0,0,0,0,0,0,0,0,0,0,0,0,0,0,0,0,0,0,0,0,0,0],"sum_hessian":[2.548E3,2.503E3,4.5E1,3.17E2,2.186E3,2.3E1,2.2E1,2.79E2,3.8E1,8.1E1,2.105E3,2.1E1,2E0,1.2E1,1E1,2.41E2,3.8E1,1.9E1,1.9E1,6E1,2.1E1,3.9E1,2.066E3,2E1,1E0,6E0,6E0],"tree_param":{"num_deleted":"0","num_feature":"99","num_nodes":"27","size_leaf_vector":"1"}},{"base_weights":[-4.609345E-3,-4.6580918E-2,5.631835E0,1.1951088E0,-2.4122117E-1,-2.6412113E0,9.352959E0,6.2291497E-1,5.023868E0,-1.02419764E-1,-3.3276136E0,-3.024431E-1,-0E0,9.901581E-1,-0E0,-3.595556E-1,1.0583357E-1,-0E0,6.8903893E-1,-2.6417673E-2,1.3697651E-1,-3.944614E-1,-0E0],"categories":[],"categories_nodes":[],"categories_segments":[],"categories_sizes":[],"default_left":[0,0,0,1,0,0,0,0,0,0,0,0,0,0,0,0,0,0,0,0,0,0,0],"id":48,"left_children":[1,3,5,7,9,11,13,15,17,19,21,-1,-1,-1,-1,-1,-1,-1,-1,-1,-1,-1,-1],"loss_changes":[5.446148E2,6.0032E2,6.398691E2,6.711887E2,9.0234766E2,3.8799286E0,3.9283813E1,5.25934E2,3.420371E2,4.8951562E2,2.2159412E2,0E0,0E0,0E0,0E0,0E0,0E0,0E0,0E0,0E0,0E0,0E0,0E0],"parents":[2147483647,0,0,1,1,2,2,3,3,4,4,5,5,6,6,7,7,8,8,9,9,10,10],"right_children":[2,4,6,8,10,12,14,16,18,20,22,-1,-1,-1,-1,-1,-1,-1,-1,-1,-1,-1,-1],"split_conditions":[8.253422E-2,2.5562115E0,2E0,9.9E-1,1.204352E0,1.6382402E-1,1.6526182E-1,1.1495525E-1,5.2779217E0,8.1145E0,6.872803E-2,-3.024431E-1,-0E0,9.901581E-1,-0E0,-3.595556E-1,1.0583357E-1,-0E0,6.8903893E-1,-2.6417673E-2,1.3697651E-1,-3.944614E-1,-0E0],"split_indices":[21,1,0,69,19,6,6,24,18,71,76,0,0,0,0,0,0,0,0,0,0,0,0],"split_type":[0,0,0,0,0,0,0,0,0,0,0,0,0,0,0,0,0,0,0,0,0,0,0],"sum_hessian":[2.534E3,2.519E3,1.5E1,3.33E2,2.186E3,4E0,1.1E1,2.94E2,3.9E1,2.097E3,8.9E1,3E0,1E0,1E1,1E0,2.4E1,2.7E2,1.2E1,2.7E1,1.897E3,2E2,7.7E1,1.2E1],"tree_param":{"num_deleted":"0","num_feature":"99","num_nodes":"23","size_leaf_vector":"1"}},{"base_weights":[-2.3371767E-2,3.6591027E-2,-3.7117677E0,-2.526277E-1,9.264298E-1,-5.686313E0,-6.2545234E-1,-1.6774288E0,-5.482447E-2,5.0416976E-1,4.3430333E0,-1.205144E0,-7.547662E0,2.7527237E-1,-2.4034333E0,-3.8589963E-1,-3.8785476E-2,-9.319655E-3,8.791545E-1,-1.6470075E-1,9.223874E-2,-5.430175E-2,6.164724E-1,-2.0302561E-1,-0E0,-0E0,-7.836594E-1,-0E0,1.7206217E-1,-0E0,-2.5778168E-1],"categories":[],"categories_nodes":[],"categories_segments":[],"categories_sizes":[],"default_left":[0,1,0,1,0,0,0,0,0,0,0,0,0,0,0,0,0,0,0,0,0,0,0,0,0,0,0,0,0,0,0],"id":49,"left_children":[1,3,5,7,9,11,13,15,17,19,21,23,25,27,29,-1,-1,-1,-1,-1,-1,-1,-1,-1,-1,-1,-1,-1,-1,-1,-1],"loss_changes":[5.9436304E2,6.451967E2,1.9181433E2,5.078251E2,8.3729175E2,9.4464355E1,5.6235703E1,5.762758E2,4.7305618E2,4.9420398E2,6.4146875E2,1.2877483E1,5.2629395E0,1.6853937E1,2.9099846E0,0E0,0E0,0E0,0E0,0E0,0E0,0E0,0E0,0E0,0E0,0E0,0E0,0E0,0E0,0E0,0E0],"parents":[2147483647,0,0,1,1,2,2,3,3,4,4,5,5,6,6,7,7,8,8,9,9,10,10,11,11,12,12,13,13,14,14],"right_children":[2,4,6,8,10,12,14,16,18,20,22,24,26,28,30,-1,-1,-1,-1,-1,-1,-1,-1,-1,-1,-1,-1,-1,-1,-1,-1],"split_conditions":[8.288676E0,4.703346E0,3.64E-1,4.541E0,6.2893586E0,4.9146614E0,4.919977E0,3.0471015E0,1.2483013E-2,4E0,-1.998517E-1,2.1029704E0,1.344936E0,1.4521333E0,1.3503337E0,-3.8589963E-1,-3.8785476E-2,-9.319655E-3,8.791545E-1,-1.6470075E-1,9.223874E-2,-5.430175E-2,6.164724E-1,-2.0302561E-1,-0E0,-0E0,-7.836594E-1,-0E0,1.7206217E-1,-0E0,-2.5778168E-1],"split_indices":[44,80,23,71,44,62,80,2,21,12,94,4,17,73,17,0,0,0,0,0,0,0,0,0,0,0,0,0,0,0,0],"split_type":[0,0,0,0,0,0,0,0,0,0,0,0,0,0,0,0,0,0,0,0,0,0,0,0,0,0,0,0,0,0,0],"sum_hessian":[2.518E3,2.477E3,4.1E1,1.862E3,6.15E2,2.2E1,1.9E1,2.19E2,1.643E3,5.52E2,6.3E1,9E0,1.3E1,1E1,9E0,7.7E1,1.42E2,1.639E3,4E0,8.5E1,4.67E2,1.6E1,4.7E1,5E0,4E0,1E0,1.2E1,6E0,4E0,1E0,8E0],"tree_param":{"num_deleted":"0","num_feature":"99","num_nodes":"31","size_leaf_vector":"1"}},{"base_weights":[8.019975E-3,-4.9932766E0,4.9806125E-2,-6.788523E0,-0E0,1.9873548E0,-9.7994484E-2,-7.850823E-1,-0E0,8.178891E-1,4.247998E0,-9.1007185E-1,2.2377336E-1,1.9206135E-1,-9.6600614E-2,-2.9654694E-3,5.116244E-1,-4.1000578E-1,-4.4746783E-2,3.5064362E-2,-1.7285986E-1],"categories":[],"categories_nodes":[],"categories_segments":[],"categories_sizes":[],"default_left":[0,0,0,0,0,0,0,0,0,0,0,0,0,0,0,0,0,0,0,0,0],"id":50,"left_children":[1,3,5,7,-1,9,11,-1,-1,13,15,17,19,-1,-1,-1,-1,-1,-1,-1,-1],"loss_changes":[4.7979456E2,1.7145325E2,7.3893304E2,9.4448425E1,0E0,4.2619775E2,6.166228E2,0E0,0E0,2.6111694E2,2.7029846E2,9.410505E2,3.993543E2,0E0,0E0,0E0,0E0,0E0,0E0,0E0,0E0],"parents":[2147483647,0,0,1,1,2,2,3,3,5,5,6,6,9,9,10,10,11,11,12,12],"right_children":[2,4,6,8,-1,10,12,-1,-1,14,16,18,20,-1,-1,-1,-1,-1,-1,-1,-1],"split_conditions":[-3.17E-1,3.9462812E0,-1.9356447E-1,6.34E-1,-0E0,1.8542727E0,-1.918455E-1,-7.850823E-1,-0E0,1.295235E0,-1.9909762E-1,3.8400939E0,7.4041147E0,1.9206135E-1,-9.6600614E-2,-2.9654694E-3,5.116244E-1,-4.1000578E-1,-4.4746783E-2,3.5064362E-2,-1.7285986E-1],"split_indices":[41,2,42,23,0,4,9,0,0,91,76,2,62,0,0,0,0,0,0,0,0],"split_type":[0,0,0,0,0,0,0,0,0,0,0,0,0,0,0,0,0,0,0,0,0],"sum_hessian":[2.528E3,1.7E1,2.511E3,1.2E1,5E0,1.81E2,2.33E3,1E1,2E0,1.24E2,5.7E1,6.69E2,1.661E3,8E1,4.4E1,8E0,4.9E1,8E1,5.89E2,1.566E3,9.5E1],"tree_param":{"num_deleted":"0","num_feature":"99","num_nodes":"21","size_leaf_vector":"1"}},{"base_weights":[-0E0,-4.709975E-2,3.6857395E0,-8.358686E-2,5.3834286E0,5.718258E0,-0E0,-5.021528E0,-4.5775622E-2,-7.69931E-2,7.8834233E0,1.5645893E-1,7.545546E-1,1.652375E-1,-1.032426E0,-6.3404906E-1,-0E0,1.741899E-1,-1.851329E-2,8.4075564E-1,-0E0,-0E0,-1.3345909E-1],"categories":[],"categories_nodes":[],"categories_segments":[],"categories_sizes":[],"default_left":[1,0,0,0,0,0,0,0,0,0,0,0,0,0,0,0,0,0,0,0,0,0,0],"id":51,"left_children":[1,3,5,7,9,11,13,15,17,-1,19,-1,-1,-1,21,-1,-1,-1,-1,-1,-1,-1,-1],"loss_changes":[4.4029333E2,4.466307E2,1.8656134E2,4.1638828E2,3.1402478E2,2.9496277E1,3.4764755E1,9.3956024E1,6.0515063E2,0E0,3.1776733E1,0E0,0E0,0E0,3.225473E0,0E0,0E0,0E0,0E0,0E0,0E0,0E0,0E0],"parents":[2147483647,0,0,1,1,2,2,3,3,4,4,5,5,6,6,7,7,8,8,10,10,14,14],"right_children":[2,4,6,8,10,12,14,16,18,-1,20,-1,-1,-1,22,-1,-1,-1,-1,-1,-1,-1,-1],"split_conditions":[4E0,8.253422E-2,1.2458254E0,-3.17E-1,2E0,1.6772113E0,-1.1274533E-1,4.6478877E0,-1.9356447E-1,-7.69931E-2,1.6526182E-1,1.5645893E-1,7.545546E-1,1.652375E-1,1.3391688E0,-6.3404906E-1,-0E0,1.741899E-1,-1.851329E-2,8.4075564E-1,-0E0,-0E0,-1.3345909E-1],"split_indices":[79,21,19,41,0,4,60,44,42,0,