{"learner":{"attributes":{"scikit_learn":"{\"_estimator_type\": \"regressor\"}"},"feature_names":["0","1","2","3","4","5","6","7","8","9","10","11","12","13","14","15","16","17","18","19","20","21","22","23","24","25","26","27","28","29","30","31","32","33","34","35","36","37","38","39","40","41","42","43","44","45","46","47","48","49","50","51","52","53","54","55","56","57","58","59","60","61","62","63","64","65","66","67","68","69","70","71","72","73","74","75","76","77","78","79","80","81","82","83","84","85","86","87","88","89","90","91","92","93","94","95","96","97","98","99","100","101","102","103","104","105","106","107","108","109","110","111","112","113","114","115","116","117","118","119","120","121","122","123","124","125","126","127","128","129","130","131","132","133","134","135","136","137","138","139","140","141","142","143","144","145","146","147","148","149","150","151","152","153","154","155","156","157","158","159","160","161","162","163","164","165","166","167","168","169","170","171","172","173","174","175","176","177","178","179","180","181","182","183","184","185","186","187","188","189","190","191","192","193","194","195","196","197","198","199","200","201","202","203","204","205","206","207","208","209","210","211","212","213","214","215","216","217","218","219","220","221","222","223","224","225","226","227","228","229","230"],"feature_types":["float","float","float","float","float","float","float","float","float","float","float","float","float","float","float","float","float","float","float","float","float","float","float","float","float","float","float","float","float","float","float","float","float","float","float","float","float","float","float","float","float","float","float","float","float","float","float","float","float","float","float","float","float","float","float","float","float","float","float","float","float","float","float","float","float","float","float","float","float","float","float","float","float","float","float","float","float","float","float","float","float","float","float","float","float","float","float","float","float","float","float","float","float","float","float","float","float","float","float","float","float","float","float","float","float","float","float","float","float","float","float","float","float","float","float","float","float","float","float","float","float","float","float","float","float","float","float","float","float","float","float","float","float","float","float","float","float","float","float","float","float","float","float","float","float","float","float","float","float","float","float","float","float","float","float","float","float","float","float","float","float","float","float","float","float","float","float","float","float","float","float","float","float","float","float","float","float","float","float","float","float","float","float","float","float","float","float","float","float","float","float","float","float","float","float","float","float","float","float","float","float","float","float","float","float","float","float","float","float","float","float","float","float","float","float","float","float","float","float","float","float","float","float","float","float","float","float","float","float","float","float"],"gradient_booster":{"model":{"gbtree_model_param":{"num_parallel_tree":"1","num_trees":"100"},"iteration_indptr":[0,1,2,3,4,5,6,7,8,9,10,11,12,13,14,15,16,17,18,19,20,21,22,23,24,25,26,27,28,29,30,31,32,33,34,35,36,37,38,39,40,41,42,43,44,45,46,47,48,49,50,51,52,53,54,55,56,57,58,59,60,61,62,63,64,65,66,67,68,69,70,71,72,73,74,75,76,77,78,79,80,81,82,83,84,85,86,87,88,89,90,91,92,93,94,95,96,97,98,99,100],"tree_info":[0,0,0,0,0,0,0,0,0,0,0,0,0,0,0,0,0,0,0,0,0,0,0,0,0,0,0,0,0,0,0,0,0,0,0,0,0,0,0,0,0,0,0,0,0,0,0,0,0,0,0,0,0,0,0,0,0,0,0,0,0,0,0,0,0,0,0,0,0,0,0,0,0,0,0,0,0,0,0,0,0,0,0,0,0,0,0,0,0,0,0,0,0,0,0,0,0,0,0,0],"trees":[{"base_weights":[-0E0,3.0190945E1,-1.9784801E1,2.0248466E1,4.1735664E1,-1.3426456E1,-5.0344856E1,-5.1429133E0,2.4693586E1,2.1986551E0,4.2684616E1,2.0716038E1,-1.7065582E1,-3.469351E1,-7.868414E1,5.250688E-1,-1.2965711E0,-7.1891534E-1,2.547593E0,-8.412005E-1,7.143374E-1,2.7375581E0,4.5699744E0,-2.2801107E-2,2.2770216E0,-3.4770653E0,-1.5786417E0,-4.193117E0,-3.711181E-1,-3.4519215E0,-9.051251E0],"categories":[],"categories_nodes":[],"categories_segments":[],"categories_sizes":[],"default_left":[0,0,0,0,0,0,0,0,0,0,0,0,0,0,0,0,0,0,0,0,0,0,0,0,0,0,0,0,0,0,0],"id":0,"left_children":[1,3,5,7,9,11,13,15,17,19,21,23,25,27,29,-1,-1,-1,-1,-1,-1,-1,-1,-1,-1,-1,-1,-1,-1,-1,-1],"loss_changes":[1.3654778E6,9.959125E4,2.6490044E5,5.6636938E4,1.5018625E4,1.4465019E5,9.091481E4,6.6900586E3,1.1485016E4,1.0861829E3,1.231975E4,4.910082E3,2.0803875E4,3.5278875E4,2.6044844E4,0E0,0E0,0E0,0E0,0E0,0E0,0E0,0E0,0E0,0E0,0E0,0E0,0E0,0E0,0E0,0E0],"parents":[2147483647,0,0,1,1,2,2,3,3,4,4,5,5,6,6,7,7,8,8,9,9,10,10,11,11,12,12,13,13,14,14],"right_children":[2,4,6,8,10,12,14,16,18,20,22,24,26,28,30,-1,-1,-1,-1,-1,-1,-1,-1,-1,-1,-1,-1,-1,-1,-1,-1],"split_conditions":[4E0,2E0,4E0,1.5999E1,1.4007E1,4E0,3E0,3E0,1.4007E1,1.5999E1,4E0,1.4007E1,4E0,1.4007E1,3E0,5.250688E-1,-1.2965711E0,-7.1891534E-1,2.547593E0,-8.412005E-1,7.143374E-1,2.7375581E0,4.5699744E0,-2.2801107E-2,2.2770216E0,-3.4770653E0,-1.5786417E0,-4.193117E0,-3.711181E-1,-3.4519215E0,-9.051251E0],"split_indices":[24,38,19,21,14,11,1,10,14,21,32,14,5,7,11,0,0,0,0,0,0,0,0,0,0,0,0,0,0,0,0],"split_type":[0,0,0,0,0,0,0,0,0,0,0,0,0,0,0,0,0,0,0,0,0,0,0,0,0,0,0,0,0,0,0],"sum_hessian":[2.276E3,9E2,1.376E3,4.91E2,4.09E2,1.145E3,2.31E2,7.3E1,4.18E2,1E1,3.99E2,1.08E2,1.037E3,1.56E2,7.5E1,3.2E1,4.1E1,9E0,4.09E2,2E0,8E0,7.4E1,3.25E2,1E1,9.8E1,6.1E1,9.76E2,1.25E2,3.1E1,2E1,5.5E1],"tree_param":{"num_deleted":"0","num_feature":"231","num_nodes":"31","size_leaf_vector":"1"}},{"base_weights":[-2.5234155E-2,2.7217474E1,-1.7878618E1,1.8405918E1,3.7866234E1,-1.2096076E1,-4.567324E1,-4.6767964E0,2.2362913E1,1.929834E0,3.8749058E1,1.8743292E1,-1.5383378E1,-3.1366526E1,-7.159843E1,4.7965738E-1,-1.1810073E0,-6.726992E-1,2.3063726E0,-8.1716615E-1,6.70378E-1,2.4687247E0,4.1292686E0,-2.1280823E-2,2.060373E0,-3.1557E0,-1.4215819E0,-3.7899327E0,-3.3916083E-1,-3.175768E0,-8.221553E0],"categories":[],"categories_nodes":[],"categories_segments":[],"categories_sizes":[],"default_left":[0,0,0,0,0,0,0,0,0,0,0,0,0,0,0,0,0,0,0,0,0,0,0,0,0,0,0,0,0,0,0],"id":1,"left_children":[1,3,5,7,9,11,13,15,17,19,21,23,25,27,29,-1,-1,-1,-1,-1,-1,-1,-1,-1,-1,-1,-1,-1,-1,-1,-1],"loss_changes":[1.111844E6,8.137706E4,2.1913912E5,4.6666406E4,1.243425E4,1.1802336E5,7.620144E4,5.5611934E3,9.599109E3,9.957971E2,8.9653125E3,4.0274414E3,1.7387953E4,2.87395E4,2.0670625E4,0E0,0E0,0E0,0E0,0E0,0E0,0E0,0E0,0E0,0E0,0E0,0E0,0E0,0E0,0E0,0E0],"parents":[2147483647,0,0,1,1,2,2,3,3,4,4,5,5,6,6,7,7,8,8,9,9,10,10,11,11,12,12,13,13,14,14],"right_children":[2,4,6,8,10,12,14,16,18,20,22,24,26,28,30,-1,-1,-1,-1,-1,-1,-1,-1,-1,-1,-1,-1,-1,-1,-1,-1],"split_conditions":[4E0,3E0,4E0,1.5999E1,1.4007E1,4E0,3E0,3E0,1.4007E1,1.5999E1,4E0,1.4007E1,4E0,1.4007E1,3E0,4.7965738E-1,-1.1810073E0,-6.726992E-1,2.3063726E0,-8.1716615E-1,6.70378E-1,2.4687247E0,4.1292686E0,-2.1280823E-2,2.060373E0,-3.1557E0,-1.4215819E0,-3.7899327E0,-3.3916083E-1,-3.175768E0,-8.221553E0],"split_indices":[24,40,19,21,14,11,1,10,14,21,32,14,5,7,11,0,0,0,0,0,0,0,0,0,0,0,0,0,0,0,0],"split_type":[0,0,0,0,0,0,0,0,0,0,0,0,0,0,0,0,0,0,0,0,0,0,0,0,0,0,0,0,0,0,0],"sum_hessian":[2.276E3,9E2,1.376E3,5E2,4E2,1.145E3,2.31E2,7.3E1,4.27E2,1E1,3.9E2,1.08E2,1.037E3,1.56E2,7.5E1,3.2E1,4.1E1,9E0,4.18E2,2E0,8E0,6.8E1,3.22E2,1E1,9.8E1,6.1E1,9.76E2,1.25E2,3.1E1,2E1,5.5E1],"tree_param":{"num_deleted":"0","num_feature":"231","num_nodes":"31","size_leaf_vector":"1"}},{"base_weights":[-4.625495E-2,2.4536627E1,-1.615652E1,1.6411133E1,3.3972767E1,-1.0897589E1,-4.143614E1,-4.252794E0,2.002988E1,1.681254E0,3.474878E1,1.6958303E1,-1.3867097E1,-2.8358728E1,-6.515217E1,-8.3847106E-1,9.77594E-1,2.0614574E0,-8.5019E-1,-7.938184E-1,6.2912387E-1,2.2511137E0,3.7148874E0,-1.9862264E-2,1.8643376E0,1.9858147E-1,-1.4812623E0,-3.4255161E0,-3.0995566E-1,-2.1165624E0,-7.2092423E0],"categories":[],"categories_nodes":[],"categories_segments":[],"categories_sizes":[],"default_left":[0,0,0,0,0,0,0,0,0,0,0,0,0,0,0,0,0,0,0,0,0,0,0,0,0,0,0,0,0,0,0],"id":2,"left_children":[1,3,5,7,9,11,13,15,17,19,21,23,25,27,29,-1,-1,-1,-1,-1,-1,-1,-1,-1,-1,-1,-1,-1,-1,-1,-1],"loss_changes":[9.053336E5,6.655131E4,1.8128528E5,3.7531375E4,1.004575E4,9.629878E4,6.3862344E4,4.929764E3,7.9450312E3,9.1324005E2,7.6250938E3,3.3038633E3,1.5778797E4,2.3410945E4,1.6699594E4,0E0,0E0,0E0,0E0,0E0,0E0,0E0,0E0,0E0,0E0,0E0,0E0,0E0,0E0,0E0,0E0],"parents":[2147483647,0,0,1,1,2,2,3,3,4,4,5,5,6,6,7,7,8,8,9,9,10,10,11,11,12,12,13,13,14,14],"right_children":[2,4,6,8,10,12,14,16,18,20,22,24,26,28,30,-1,-1,-1,-1,-1,-1,-1,-1,-1,-1,-1,-1,-1,-1,-1,-1],"split_conditions":[4E0,2E0,4E0,1.5999E1,1.4007E1,4E0,3E0,1.4007E1,2E0,1.5999E1,4E0,1.4007E1,3E0,1.4007E1,2E0,-8.3847106E-1,9.77594E-1,2.0614574E0,-8.5019E-1,-7.938184E-1,6.2912387E-1,2.2511137E0,3.7148874E0,-1.9862264E-2,1.8643376E0,1.9858147E-1,-1.4812623E0,-3.4255161E0,-3.0995566E-1,-2.1165624E0,-7.2092423E0],"split_indices":[24,38,19,21,14,11,1,7,17,21,32,14,1,7,10,0,0,0,0,0,0,0,0,0,0,0,0,0,0,0,0],"split_type":[0,0,0,0,0,0,0,0,0,0,0,0,0,0,0,0,0,0,0,0,0,0,0,0,0,0,0,0,0,0,0],"sum_hessian":[2.276E3,9E2,1.376E3,4.91E2,4.09E2,1.145E3,2.31E2,7.3E1,4.18E2,1E1,3.99E2,1.08E2,1.037E3,1.56E2,7.5E1,5.8E1,1.5E1,4.11E2,7E0,2E0,8E0,7.4E1,3.25E2,1E1,9.8E1,5.8E1,9.79E2,1.25E2,3.1E1,1.3E1,6.2E1],"tree_param":{"num_deleted":"0","num_feature":"231","num_nodes":"31","size_leaf_vector":"1"}},{"base_weights":[-5.3395692E-2,2.2122587E1,-1.4586341E1,1.4783432E1,3.0645796E1,-9.8053E0,-3.757052E1,-3.8173146E0,1.8040976E1,2.193904E1,3.407064E1,1.5343205E1,-1.2486446E1,-2.5639484E1,-5.9221066E1,4.3706542E-1,-1.0010103E0,-6.1639416E-1,1.864403E0,3.0562484E-1,2.2873704E0,-1.7376947E-1,3.4481568E0,-1.853831E-2,1.6869544E0,-2.7271323E0,-1.1427084E0,-3.09614E0,-2.832647E-1,-2.5894158E0,-6.8155527E0],"categories":[],"categories_nodes":[],"categories_segments":[],"categories_sizes":[],"default_left":[0,0,0,0,0,0,0,0,0,0,0,0,0,0,0,0,0,0,0,0,0,0,0,0,0,0,0,0,0,0,0],"id":3,"left_children":[1,3,5,7,9,11,13,15,17,19,21,23,25,27,29,-1,-1,-1,-1,-1,-1,-1,-1,-1,-1,-1,-1,-1,-1,-1,-1],"loss_changes":[7.3673194E5,5.4299906E4,1.4986644E5,3.0412578E4,8.551781E3,7.849588E4,5.3285125E4,4.1794893E3,6.761547E3,1.9365586E3,4.5701562E3,2.7106348E3,1.4723516E4,1.9069234E4,1.49024375E4,0E0,0E0,0E0,0E0,0E0,0E0,0E0,0E0,0E0,0E0,0E0,0E0,0E0,0E0,0E0,0E0],"parents":[2147483647,0,0,1,1,2,2,3,3,4,4,5,5,6,6,7,7,8,8,9,9,10,10,11,11,12,12,13,13,14,14],"right_children":[2,4,6,8,10,12,14,16,18,20,22,24,26,28,30,-1,-1,-1,-1,-1,-1,-1,-1,-1,-1,-1,-1,-1,-1,-1,-1],"split_conditions":[4E0,2E0,4E0,1.5999E1,3E0,4E0,3E0,3E0,1.4007E1,1.4007E1,1.4007E1,1.4007E1,4E0,1.4007E1,3E0,4.3706542E-1,-1.0010103E0,-6.1639416E-1,1.864403E0,3.0562484E-1,2.2873704E0,-1.7376947E-1,3.4481568E0,-1.853831E-2,1.6869544E0,-2.7271323E0,-1.1427084E0,-3.09614E0,-2.832647E-1,-2.5894158E0,-6.8155527E0],"split_indices":[24,38,19,21,33,11,1,10,14,14,14,14,5,7,11,0,0,0,0,0,0,0,0,0,0,0,0,0,0,0,0],"split_type":[0,0,0,0,0,0,0,0,0,0,0,0,0,0,0,0,0,0,0,0,0,0,0,0,0,0,0,0,0,0,0],"sum_hessian":[2.276E3,9E2,1.376E3,4.91E2,4.09E2,1.145E3,2.31E2,7.3E1,4.18E2,1.26E2,2.83E2,1.08E2,1.037E3,1.56E2,7.5E1,3.2E1,4.1E1,9E0,4.09E2,7E0,1.19E2,3E0,2.8E2,1E1,9.8E1,6.1E1,9.76E2,1.25E2,3.1E1,2E1,5.5E1],"tree_param":{"num_deleted":"0","num_feature":"231","num_nodes":"31","size_leaf_vector":"1"}},{"base_weights":[-6.667621E-2,1.9946634E1,-1.3182326E1,1.0992709E1,2.5840199E1,-8.834428E0,-3.4085594E1,-6.5268707E0,1.4583357E1,1.8770338E1,3.0163668E1,1.3881826E1,-1.1256467E1,-6.695133E0,-2.6891577E1,-1.3765686E0,-2.8138816E-1,-7.646393E-1,1.5232824E0,4.9464773E-2,1.9628155E0,-1.6725321E-1,3.048635E0,-1.7302347E-2,1.5264484E0,2.8550136E-1,-1.2103765E0,-7.2562724E-1,-3.2123678E0],"categories":[],"categories_nodes":[],"categories_segments":[],"categories_sizes":[],"default_left":[0,0,0,0,0,0,0,0,0,0,0,0,0,0,0,0,0,0,0,0,0,0,0,0,0,0,0,0,0],"id":4,"left_children":[1,3,5,7,9,11,13,15,17,19,21,23,25,-1,27,-1,-1,-1,-1,-1,-1,-1,-1,-1,-1,-1,-1,-1,-1],"loss_changes":[6.000421E5,4.630025E4,1.23964016E5,2.3633617E4,1.3687094E4,6.4051266E4,4.6703094E4,1.5636702E3,5.0222773E3,3.3646328E3,3.6532812E3,2.2242305E3,1.2640844E4,0E0,1.9547375E4,0E0,0E0,0E0,0E0,0E0,0E0,0E0,0E0,0E0,0E0,0E0,0E0,0E0,0E0],"parents":[2147483647,0,0,1,1,2,2,3,3,4,4,5,5,6,6,7,7,8,8,9,9,10,10,11,11,12,12,14,14],"right_children":[2,4,6,8,10,12,14,16,18,20,22,24,26,-1,28,-1,-1,-1,-1,-1,-1,-1,-1,-1,-1,-1,-1,-1,-1],"split_conditions":[4E0,3E0,4E0,1.5999E1,3E0,4E0,3E0,1E0,1.4007E1,1.4007E1,1.4007E1,1.4007E1,3E0,-6.695133E0,4E0,-1.3765686E0,-2.8138816E-1,-7.646393E-1,1.5232824E0,4.9464773E-2,1.9628155E0,-1.6725321E-1,3.048635E0,-1.7302347E-2,1.5264484E0,2.8550136E-1,-1.2103765E0,-7.2562724E-1,-3.2123678E0],"split_indices":[24,45,19,21,33,11,5,58,14,14,14,14,1,0,11,0,0,0,0,0,0,0,0,0,0,0,0,0,0],"split_type":[0,0,0,0,0,0,0,0,0,0,0,0,0,0,0,0,0,0,0,0,0,0,0,0,0,0,0,0,0],"sum_hessian":[2.276E3,9E2,1.376E3,3.63E2,5.37E2,1.145E3,2.31E2,6.1E1,3.02E2,2.14E2,3.23E2,1.08E2,1.037E3,3.4E1,1.97E2,1.6E1,4.5E1,7E0,2.95E2,1E1,2.04E2,3E0,3.2E2,1E1,9.8E1,5.8E1,9.79E2,4.4E1,1.53E2],"tree_param":{"num_deleted":"0","num_feature":"231","num_nodes":"29","size_leaf_vector":"1"}},{"base_weights":[-7.3370285E-2,1.7973927E1,-1.1900624E1,9.880402E0,2.3301506E1,-7.49267E0,-2.9095959E1,-6.0013013E0,1.3137049E1,1.6939705E1,2.7190918E1,1.3812132E1,-9.633475E0,-1.7412167E1,-4.9567734E1,-1.2716869E0,-2.560633E-1,1.307148E-1,1.4343996E0,4.6167348E-2,1.7712297E0,2.5400884E0,4.5362906E0,1.6313848E0,5.681157E-1,2.11394E0,-1.0017513E0,-5.485539E-1,-2.9818041E0,-2.0965927E0,-5.780038E0],"categories":[],"categories_nodes":[],"categories_segments":[],"categories_sizes":[],"default_left":[0,0,0,0,0,0,0,0,0,0,0,1,0,0,0,0,0,0,0,0,0,0,0,0,0,0,0,0,0,0,0],"id":5,"left_children":[1,3,5,7,9,11,13,15,17,19,21,23,25,27,29,-1,-1,-1,-1,-1,-1,-1,-1,-1,-1,-1,-1,-1,-1,-1,-1],"loss_changes":[4.879428E5,3.7838312E4,1.0354797E5,1.9434695E4,1.1063875E4,5.1105137E4,6.2590234E4,1.3469048E3,4.2739688E3,2.7289844E3,4.837297E3,1.6097598E3,1.2960164E4,2.6667465E4,1.7173422E4,0E0,0E0,0E0,0E0,0E0,0E0,0E0,0E0,0E0,0E0,0E0,0E0,0E0,0E0,0E0,0E0],"parents":[2147483647,0,0,1,1,2,2,3,3,4,4,5,5,6,6,7,7,8,8,9,9,10,10,11,11,12,12,13,13,14,14],"right_children":[2,4,6,8,10,12,14,16,18,20,22,24,26,28,30,-1,-1,-1,-1,-1,-1,-1,-1,-1,-1,-1,-1,-1,-1,-1,-1],"split_conditions":[4E0,3E0,4E0,1.5999E1,3E0,4E0,3E0,1E0,1.8998E1,1.4007E1,3.2067E1,1.8998E1,1.5999E1,3E0,3E0,-1.2716869E0,-2.560633E-1,1.307148E-1,1.4343996E0,4.6167348E-2,1.7712297E0,2.5400884E0,4.5362906E0,1.6313848E0,5.681157E-1,2.11394E0,-1.0017513E0,-5.485539E-1,-2.9818041E0,-2.0965927E0,-5.780038E0],"split_indices":[24,45,18,21,33,11,1,58,49,14,21,42,14,10,11,0,0,0,0,0,0,0,0,0,0,0,0,0,0,0,0],"split_type":[0,0,0,0,0,0,0,0,0,0,0,0,0,0,0,0,0,0,0,0,0,0,0,0,0,0,0,0,0,0,0],"sum_hessian":[2.276E3,9E2,1.376E3,3.63E2,5.37E2,1.101E3,2.75E2,6.1E1,3.02E2,2.14E2,3.23E2,9.8E1,1.003E3,1.81E2,9.4E1,1.6E1,4.5E1,2.9E1,2.73E2,1E1,2.04E2,3.05E2,1.8E1,7.1E1,2.7E1,9E0,9.94E2,9.6E1,8.5E1,2.5E1,6.9E1],"tree_param":{"num_deleted":"0","num_feature":"231","num_nodes":"31","size_leaf_vector":"1"}},{"base_weights":[-6.4067915E-2,1.622621E1,-1.0739941E1,1.062052E1,2.274382E1,-7.1132293E0,-2.8180696E1,-4.34893E0,1.2930865E1,1.8665846E1,2.7620636E1,1.15158E1,-9.100287E0,-5.6736668E1,-2.1964924E1,-1.1965231E0,6.29816E-2,1.9686544E-1,1.393279E0,8.24497E-2,1.9416023E0,2.471112E0,4.181277E0,1.3741891E0,4.2931366E-1,-2.1692672E0,-8.2056916E-1,-5.7513323E0,-4.370659E-1,-5.701408E-1,-2.630725E0],"categories":[],"categories_nodes":[],"categories_segments":[],"categories_sizes":[],"default_left":[0,0,0,0,0,0,0,0,0,0,0,1,0,1,0,0,0,0,0,0,0,0,0,0,0,0,0,0,0,0,0],"id":6,"left_children":[1,3,5,7,9,11,13,15,17,19,21,23,25,27,29,-1,-1,-1,-1,-1,-1,-1,-1,-1,-1,-1,-1,-1,-1,-1,-1],"loss_changes":[3.9756125E5,3.1823688E4,8.631425E4,1.7443723E4,5.609328E3,4.309108E4,3.5579625E4,2.7033882E3,4.580758E3,3.1252969E3,2.1172969E3,1.503834E3,1.08183125E4,2.6739062E2,1.3483594E4,0E0,0E0,0E0,0E0,0E0,0E0,0E0,0E0,0E0,0E0,0E0,0E0,0E0,0E0,0E0,0E0],"parents":[2147483647,0,0,1,1,2,2,3,3,4,4,5,5,6,6,7,7,8,8,9,9,10,10,11,11,12,12,13,13,14,14],"right_children":[2,4,6,8,10,12,14,16,18,20,22,24,26,28,30,-1,-1,-1,-1,-1,-1,-1,-1,-1,-1,-1,-1,-1,-1,-1,-1],"split_conditions":[4E0,2E0,4E0,6.00001E0,1E0,4E0,3E0,1E0,1.5999E1,1.4007E1,3.2067E1,1.8998E1,4E0,3E0,4E0,-1.1965231E0,6.29816E-2,1.9686544E-1,1.393279E0,8.24497E-2,1.9416023E0,2.471112E0,4.181277E0,1.3741891E0,4.2931366E-1,-2.1692672E0,-8.2056916E-1,-5.7513323E0,-4.370659E-1,-5.701408E-1,-2.630725E0],"split_indices":[24,38,19,50,30,11,5,58,21,14,21,42,5,101,11,0,0,0,0,0,0,0,0,0,0,0,0,0,0,0,0],"split_type":[0,0,0,0,0,0,0,0,0,0,0,0,0,0,0,0,0,0,0,0,0,0,0,0,0,0,0,0,0,0,0],"sum_hessian":[2.276E3,9E2,1.376E3,4.91E2,4.09E2,1.145E3,2.31E2,6.5E1,4.26E2,2.36E2,1.73E2,1.08E2,1.037E3,3.4E1,1.97E2,2.3E1,4.2E1,3.7E1,3.89E2,1E1,2.26E2,1.55E2,1.8E1,7.9E1,2.9E1,6.1E1,9.76E2,3.3E1,1E0,4.4E1,1.53E2],"tree_param":{"num_deleted":"0","num_feature":"231","num_nodes":"31","size_leaf_vector":"1"}},{"base_weights":[-6.0691565E-2,1.4654598E1,-9.7044525E0,7.8942504E0,1.9107615E1,-6.025388E0,-2.4059893E1,-5.4277544E0,1.0632951E1,1.5981409E1,2.5045996E1,6.3328385E0,-8.756217E0,-1.3852117E1,-4.2012894E1,2.4440792E-1,-7.4218726E-1,-6.578629E-1,1.1147531E0,-9.357359E-2,1.6615123E0,2.2317228E0,3.8540463E0,1.3538092E0,2.110056E-1,-8.954887E-1,1.3461739E0,-3.581129E-1,-2.4597776E0,-1.797291E0,-4.890661E0],"categories":[],"categories_nodes":[],"categories_segments":[],"categories_sizes":[],"default_left":[0,0,0,0,0,0,0,0,0,0,0,0,0,0,0,0,0,0,0,0,0,0,0,0,0,0,0,0,0,0,0],"id":7,"left_children":[1,3,5,7,9,11,13,15,17,19,21,23,25,27,29,-1,-1,-1,-1,-1,-1,-1,-1,-1,-1,-1,-1,-1,-1,-1,-1],"loss_changes":[3.244045E5,2.646286E4,7.218202E4,1.372024E4,8.0196406E3,3.760519E4,4.8347156E4,1.1317024E3,3.0902695E3,4.0493047E3,2.1931016E3,6.0180444E3,4.6061797E3,2.0059926E4,1.1944906E4,0E0,0E0,0E0,0E0,0E0,0E0,0E0,0E0,0E0,0E0,0E0,0E0,0E0,0E0,0E0,0E0],"parents":[2147483647,0,0,1,1,2,2,3,3,4,4,5,5,6,6,7,7,8,8,9,9,10,10,11,11,12,12,13,13,14,14],"right_children":[2,4,6,8,10,12,14,16,18,20,22,24,26,28,30,-1,-1,-1,-1,-1,-1,-1,-1,-1,-1,-1,-1,-1,-1,-1,-1],"split_conditions":[4E0,3E0,4E0,1.5999E1,1E0,3E0,3E0,2E0,1.4007E1,1.4007E1,3.2067E1,2E0,1E0,3E0,3E0,2.4440792E-1,-7.4218726E-1,-6.578629E-1,1.1147531E0,-9.357359E-2,1.6615123E0,2.2317228E0,3.8540463E0,1.3538092E0,2.110056E-1,-8.954887E-1,1.3461739E0,-3.581129E-1,-2.4597776E0,-1.797291E0,-4.890661E0],"split_indices":[24,45,18,21,30,10,1,94,14,14,21,10,2,10,11,0,0,0,0,0,0,0,0,0,0,0,0,0,0,0,0],"split_type":[0,0,0,0,0,0,0,0,0,0,0,0,0,0,0,0,0,0,0,0,0,0,0,0,0,0,0,0,0,0,0],"sum_hessian":[2.276E3,9E2,1.376E3,3.63E2,5.37E2,1.101E3,2.75E2,6.1E1,3.02E2,3.64E2,1.73E2,1.98E2,9.03E2,1.81E2,9.4E1,1.2E1,4.9E1,7E0,2.95E2,1.3E1,3.51E2,1.55E2,1.8E1,6.9E1,1.29E2,8.98E2,5E0,9.6E1,8.5E1,2.5E1,6.9E1],"tree_param":{"num_deleted":"0","num_feature":"231","num_nodes":"31","size_leaf_vector":"1"}},{"base_weights":[-5.431171E-2,1.3231308E1,-8.761201E0,8.622581E0,1.8812174E1,-4.8150524E1,-7.5874896E0,-3.924631E0,1.0523017E1,6.186388E0,1.9773317E1,-4.876003E0,-3.9982656E-1,-9.574979E0,4.25255E0,-1.0464269E0,3.675602E-2,1.3402425E-1,1.1346991E0,-2.2141571E-1,1.036546E0,-4.0225513E-2,2.022254E0,-7.4712783E-1,-2.187741E0,6.061856E-1,-1.6628882E0],"categories":[],"categories_nodes":[],"categories_segments":[],"categories_sizes":[],"default_left":[0,0,0,0,0,1,0,0,0,0,0,0,0,1,0,0,0,0,0,0,0,0,0,0,0,0,0],"id":8,"left_children":[1,3,5,7,9,11,13,15,17,19,21,-1,-1,23,25,-1,-1,-1,-1,-1,-1,-1,-1,-1,-1,-1,-1],"loss_changes":[2.644331E5,2.2438734E4,6.1963562E4,1.2254906E4,4.2771562E3,2.1984375E1,3.1906453E4,1.994184E3,3.2404727E3,1.3867382E3,3.4501875E3,0E0,0E0,2.9045516E4,7.9362793E3,0E0,0E0,0E0,0E0,0E0,0E0,0E0,0E0,0E0,0E0,0E0,0E0],"parents":[2147483647,0,0,1,1,2,2,3,3,4,4,5,5,6,6,7,7,8,8,9,9,10,10,13,13,14,14],"right_children":[2,4,6,8,10,12,14,16,18,20,22,-1,-1,24,26,-1,-1,-1,-1,-1,-1,-1,-1,-1,-1,-1,-1],"split_conditions":[4E0,3E0,3E0,6.00001E0,2E0,3E0,1.4007E1,1E0,1.5999E1,1.5999E1,1.4007E1,-4.876003E0,-3.9982656E-1,4E0,4E0,-1.0464269E0,3.675602E-2,1.3402425E-1,1.1346991E0,-2.2141571E-1,1.036546E0,-4.0225513E-2,2.022254E0,-7.4712783E-1,-2.187741E0,6.061856E-1,-1.6628882E0],"split_indices":[24,40,5,50,33,101,7,58,21,21,14,0,0,18,17,0,0,0,0,0,0,0,0,0,0,0,0],"split_type":[0,0,0,0,0,0,0,0,0,0,0,0,0,0,0,0,0,0,0,0,0,0,0,0,0,0,0],"sum_hessian":[2.276E3,9E2,1.376E3,5E2,4E2,3.4E1,1.342E3,6.5E1,4.35E2,3.1E1,3.69E2,3.3E1,1E0,1.15E3,1.92E2,2.3E1,4.2E1,3.7E1,3.98E2,1.1E1,2E1,8E0,3.61E2,9.89E2,1.61E2,1.8E2,1.2E1],"tree_param":{"num_deleted":"0","num_feature":"231","num_nodes":"27","size_leaf_vector":"1"}},{"base_weights":[-6.253752E-2,1.1925173E1,-7.9188485E0,6.305996E0,1.5628552E1,-4.4014423E1,-6.8436284E0,-4.77585E0,8.588966E0,1.0946701E1,1.8513256E1,-4.5188212E0,-6.228381E-1,-8.630269E0,3.7999673E0,2.3158264E-1,-6.584725E-1,-5.5844635E-1,9.0160877E-1,-0E0,1.1467772E0,1.7066745E0,3.3941617E0,-6.5725946E-1,-1.8902864E0,5.472054E-1,-1.5455079E0],"categories":[],"categories_nodes":[],"categories_segments":[],"categories_sizes":[],"default_left":[0,0,0,0,0,1,0,0,0,0,0,0,0,0,0,0,0,0,0,0,0,0,0,0,0,0,0],"id":9,"left_children":[1,3,5,7,9,11,13,15,17,19,21,-1,-1,23,25,-1,-1,-1,-1,-1,-1,-1,-1,-1,-1,-1,-1],"loss_changes":[2.1529088E5,1.8318297E4,5.2040625E4,9.519136E3,6.2773594E3,2.7109375E2,2.5783742E4,9.271592E2,2.1136895E3,1.2427188E3,4.3726953E3,0E0,0E0,2.3767312E4,6.755504E3,0E0,0E0,0E0,0E0,0E0,0E0,0E0,0E0,0E0,0E0,0E0,0E0],"parents":[2147483647,0,0,1,1,2,2,3,3,4,4,5,5,6,6,7,7,8,8,9,9,10,10,13,13,14,14],"right_children":[2,4,6,8,10,12,14,16,18,20,22,-1,-1,24,26,-1,-1,-1,-1,-1,-1,-1,-1,-1,-1,-1,-1],"split_conditions":[4E0,3E0,3E0,1.5999E1,3E0,1E0,1.4007E1,2E0,1.4007E1,1.4007E1,3.2067E1,-4.5188212E0,-6.228381E-1,4E0,4E0,2.3158264E-1,-6.584725E-1,-5.5844635E-1,9.0160877E-1,-0E0,1.1467772E0,1.7066745E0,3.3941617E0,-6.5725946E-1,-1.8902864E0,5.472054E-1,-1.5455079E0],"split_indices":[24,45,5,21,33,30,7,94,14,14,21,0,0,18,17,0,0,0,0,0,0,0,0,0,0,0,0],"split_type":[0,0,0,0,0,0,0,0,0,0,0,0,0,0,0,0,0,0,0,0,0,0,0,0,0,0,0],"sum_hessian":[2.276E3,9E2,1.376E3,3.63E2,5.37E2,3.4E1,1.342E3,6.1E1,3.02E2,2.14E2,3.23E2,3.2E1,2E0,1.15E3,1.92E2,1.2E1,4.9E1,7E0,2.95E2,1E1,2.04E2,3.05E2,1.8E1,9.65E2,1.85E2,1.8E2,1.2E1],"tree_param":{"num_deleted":"0","num_feature":"231","num_nodes":"27","size_leaf_vector":"1"}},{"base_weights":[-6.179153E-2,1.07669935E1,-7.1586356E0,6.9373746E0,1.5406803E1,-4.5938754E0,-1.9692436E1,-2.8904822E0,8.63387E0,1.442396E1,3.2475731E0,8.607677E0,-6.0003886E0,-1.2742513E1,-3.267353E1,-5.682462E-1,6.576873E-1,8.9269084E-1,-5.2587014E-1,4.8546845E-1,1.517569E0,1.0442027E0,2.7805084E-1,6.603069E-1,-6.7890495E-1,-5.552052E-1,-1.8595232E0,-1.3302035E0,-3.8189392E0],"categories":[],"categories_nodes":[],"categories_segments":[],"categories_sizes":[],"default_left":[0,0,0,0,0,0,0,0,0,0,0,1,0,0,0,0,0,0,0,0,0,0,0,0,0,0,0,0,0],"id":10,"left_children":[1,3,5,7,9,11,13,15,17,19,-1,21,23,25,27,-1,-1,-1,-1,-1,-1,-1,-1,-1,-1,-1,-1,-1,-1],"loss_changes":[1.7567708E5,1.552393E4,4.391729E4,8.550342E3,4.4052656E3,2.1664725E4,1.8893578E4,2.2477173E3,1.9970859E3,2.4314531E3,0E0,1.0494707E3,1.0611473E4,6.193045E3,5.7428516E3,0E0,0E0,0E0,0E0,0E0,0E0,0E0,0E0,0E0,0E0,0E0,0E0,0E0,0E0],"parents":[2147483647,0,0,1,1,2,2,3,3,4,4,5,5,6,6,7,7,8,8,9,9,11,11,12,12,13,13,14,14],"right_children":[2,4,6,8,10,12,14,16,18,20,-1,22,24,26,28,-1,-1,-1,-1,-1,-1,-1,-1,-1,-1,-1,-1,-1,-1],"split_conditions":[4E0,3E0,3E0,1.5999E1,7.9904E1,4E0,3E0,1.4007E1,2E0,2E0,3.2475731E0,1.8998E1,3E0,3E0,3E0,-5.682462E-1,6.576873E-1,8.9269084E-1,-5.2587014E-1,4.8546845E-1,1.517569E0,1.0442027E0,2.7805084E-1,6.603069E-1,-6.7890495E-1,-5.552052E-1,-1.8595232E0,-1.3302035E0,-3.8189392E0],"split_indices":[24,40,17,21,21,11,1,7,17,33,0,42,1,10,11,0,0,0,0,0,0,0,0,0,0,0,0,0,0],"split_type":[0,0,0,0,0,0,0,0,0,0,0,0,0,0,0,0,0,0,0,0,0,0,0,0,0,0,0,0,0],"sum_hessian":[2.276E3,9E2,1.376E3,5E2,4E2,1.148E3,2.28E2,7.3E1,4.27E2,3.87E2,1.3E1,1.08E2,1.04E3,1.55E2,7.3E1,5.8E1,1.5E1,4.2E2,7E0,3.1E1,3.56E2,7.9E1,2.9E1,5.9E1,9.81E2,7.4E1,8.1E1,2E1,5.3E1],"tree_param":{"num_deleted":"0","num_feature":"231","num_nodes":"29","size_leaf_vector":"1"}},{"base_weights":[-5.673951E-2,9.722044E0,-6.4655123E0,5.0188575E0,1.2823819E1,-3.73921E1,-5.545346E0,-2.6340282E0,7.367499E0,1.180414E1,2.476849E1,-1.3443941E0,-4.04989E0,-7.027366E0,3.2793274E0,-8.585849E-1,-5.359445E-2,-4.951943E-1,7.773281E-1,7.132775E-1,1.3277292E0,1.4170518E0,3.1584747E0,-5.409758E-1,-1.6495835E0,1.9032383E0,1.5487006E-1],"categories":[],"categories_nodes":[],"categories_segments":[],"categories_sizes":[],"default_left":[0,0,0,0,0,0,0,0,0,0,0,0,0,1,0,0,0,0,0,0,0,0,0,0,0,0,0],"id":11,"left_children":[1,3,5,7,9,11,13,15,17,19,21,-1,-1,23,25,-1,-1,-1,-1,-1,-1,-1,-1,-1,-1,-1,-1],"loss_changes":[1.432613E5,1.2862695E4,3.8220277E4,6.7161533E3,5.102992E3,1.2541406E2,1.7735504E4,1.0917382E3,1.6100049E3,3.0088203E3,4.614453E2,0E0,0E0,1.7222195E4,5.202785E3,0E0,0E0,0E0,0E0,0E0,0E0,0E0,0E0,0E0,0E0,0E0,0E0],"parents":[2147483647,0,0,1,1,2,2,3,3,4,4,5,5,6,6,7,7,8,8,9,9,10,10,13,13,14,14],"right_children":[2,4,6,8,10,12,14,16,18,20,22,-1,-1,24,26,-1,-1,-1,-1,-1,-1,-1,-1,-1,-1,-1,-1],"split_conditions":[4E0,3E0,3E0,1.8998E1,6.00001E0,3E0,1.4007E1,2E0,1.4007E1,3E0,3.2067E1,-1.3443941E0,-4.04989E0,4E0,1.5999E1,-8.585849E-1,-5.359445E-2,-4.951943E-1,7.773281E-1,7.132775E-1,1.3277292E0,1.4170518E0,3.1584747E0,-5.409758E-1,-1.6495835E0,1.9032383E0,1.5487006E-1],"split_indices":[24,45,5,21,29,11,7,54,14,32,21,0,0,18,7,0,0,0,0,0,0,0,0,0,0,0,0],"split_type":[0,0,0,0,0,0,0,0,0,0,0,0,0,0,0,0,0,0,0,0,0,0,0,0,0,0,0],"sum_hessian":[2.276E3,9E2,1.376E3,3.63E2,5.37E2,3.4E1,1.342E3,8.5E1,2.78E2,5.04E2,3.3E1,7E0,2.7E1,1.15E3,1.92E2,1.8E1,6.7E1,7E0,2.71E2,1.28E2,3.76E2,1.9E1,1.4E1,9.89E2,1.61E2,1.4E1,1.78E2],"tree_param":{"num_deleted":"0","num_feature":"231","num_nodes":"27","size_leaf_vector":"1"}},{"base_weights":[-5.001324E-2,8.783025E0,-5.839042E0,6.9918156E0,1.5896787E1,-3.4347027E1,-4.9912276E0,-3.1757176E0,8.00796E0,1.3780886E1,2.71168E0,-3.4793098E0,-2.7327272E-1,-3.3843E0,-1.2110355E1,-8.139302E-1,9.787734E-3,-5.445451E-1,8.3396214E-1,1.0539994E0,1.5945141E0,5.8813816E-1,-5.4382783E-1,-7.835594E-1,-2.33958E0],"categories":[],"categories_nodes":[],"categories_segments":[],"categories_sizes":[],"default_left":[0,0,0,0,0,1,0,0,0,1,0,0,0,0,0,0,0,0,0,0,0,0,0,0,0],"id":12,"left_children":[1,3,5,7,9,11,13,15,17,19,-1,-1,-1,21,23,-1,-1,-1,-1,-1,-1,-1,-1,-1,-1],"loss_changes":[1.1689175E5,1.0953102E4,3.2481559E4,7.6947773E3,2.3164336E3,3.7058594E1,1.5189152E4,1.1494385E3,3.2060977E3,2.5546289E2,0E0,0E0,0E0,2.1208326E4,1.0919848E4,0E0,0E0,0E0,0E0,0E0,0E0,0E0,0E0,0E0,0E0],"parents":[2147483647,0,0,1,1,2,2,3,3,4,4,5,5,6,6,7,7,8,8,9,9,13,13,14,14],"right_children":[2,4,6,8,10,12,14,16,18,20,-1,-1,-1,22,24,-1,-1,-1,-1,-1,-1,-1,-1,-1,-1],"split_conditions":[4E0,1E0,3E0,6.00001E0,3.2067E1,3E0,4E0,1E0,1.4007E1,1.5999E1,2.71168E0,-3.4793098E0,-2.7327272E-1,3E0,3E0,-8.139302E-1,9.787734E-3,-5.445451E-1,8.3396214E-1,1.0539994E0,1.5945141E0,5.8813816E-1,-5.4382783E-1,-7.835594E-1,-2.33958E0],"split_indices":[24,30,5,50,21,101,18,58,14,175,0,0,0,10,1,0,0,0,0,0,0,0,0,0,0],"split_type":[0,0,0,0,0,0,0,0,0,0,0,0,0,0,0,0,0,0,0,0,0,0,0,0,0],"sum_hessian":[2.276E3,9E2,1.376E3,7.27E2,1.73E2,3.4E1,1.342E3,6.5E1,6.62E2,1.55E2,1.8E1,3.3E1,1E0,1.101E3,2.41E2,2.3E1,4.2E1,1.4E1,6.48E2,7.4E1,8.1E1,1.98E2,9.03E2,1.81E2,6E1],"tree_param":{"num_deleted":"0","num_feature":"231","num_nodes":"25","size_leaf_vector":"1"}},{"base_weights":[-4.9363643E-2,7.931714E0,-5.2800865E0,5.1451526E0,1.1925348E1,-3.2603183E0,-1.5157307E1,-2.4057271E0,6.4045854E0,1.1011798E1,2.6574447E0,3.7092748E0,-5.0945363E0,-3.1395988E1,-1.1588989E1,-5.0528955E-1,5.324718E-1,5.892547E-1,1.6299914E0,1.1133299E-1,1.1646031E0,-8.7664765E-1,6.693021E-1,-4.4207484E-1,-1.1164073E0,-1.0897286E0,-3.414613E0,-1.6402489E0,-5.329097E-1],"categories":[],"categories_nodes":[],"categories_segments":[],"categories_sizes":[],"default_left":[0,0,0,0,0,0,0,0,0,0,0,0,0,0,0,0,0,0,0,0,0,0,0,0,0,0,0,0,0],"id":13,"left_children":[1,3,5,7,9,11,13,15,17,19,-1,21,23,25,27,-1,-1,-1,-1,-1,-1,-1,-1,-1,-1,-1,-1,-1,-1],"loss_changes":[9.543121E4,9.7474375E3,2.7285027E4,5.2353604E3,3.424086E3,1.4835538E4,1.163891E4,1.7918212E3,1.8586934E3,2.1510781E3,0E0,9.336844E3,3.4796152E3,2.930547E2,5.5374805E3,0E0,0E0,0E0,0E0,0E0,0E0,0E0,0E0,0E0,0E0,0E0,0E0,0E0,0E0],"parents":[2147483647,0,0,1,1,2,2,3,3,4,4,5,5,6,6,7,7,8,8,9,9,11,11,12,12,13,13,14,14],"right_children":[2,4,6,8,10,12,14,16,18,20,-1,22,24,26,28,-1,-1,-1,-1,-1,-1,-1,-1,-1,-1,-1,-1,-1,-1],"split_conditions":[4E0,1E0,3E0,1.5999E1,7.9904E1,3E0,3E0,1.4007E1,3.5453E1,2E0,2.6574447E0,4E0,1E0,3E0,3E0,-5.0528955E-1,5.324718E-1,5.892547E-1,1.6299914E0,1.1133299E-1,1.1646031E0,-8.7664765E-1,6.693021E-1,-4.4207484E-1,-1.1164073E0,-1.0897286E0,-3.414613E0,-1.6402489E0,-5.329097E-1],"split_indices":[24,37,17,21,21,10,5,7,21,33,0,5,111,11,47,0,0,0,0,0,0,0,0,0,0,0,0,0,0],"split_type":[0,0,0,0,0,0,0,0,0,0,0,0,0,0,0,0,0,0,0,0,0,0,0,0,0,0,0,0,0],"sum_hessian":[2.276E3,9E2,1.376E3,5.37E2,3.63E2,1.148E3,2.28E2,7.6E1,4.61E2,3.5E2,1.3E1,2.38E2,9.1E2,3.4E1,1.94E2,5.8E1,1.8E1,4.46E2,1.5E1,2.2E1,3.28E2,4.4E1,1.94E2,8.27E2,8.3E1,7E0,2.7E1,1.05E2,8.9E1],"tree_param":{"num_deleted":"0","num_feature":"231","num_nodes":"29","size_leaf_vector":"1"}},{"base_weights":[-4.9388677E-2,7.1731257E0,-4.783008E0,3.9864988E0,1.0117044E1,-1.5815608E1,-3.2201324E0,-2.8984163E0,5.211397E0,7.7303424E0,1.4053508E1,-2.2992322E0,-2.2171299E1,-4.697901E0,5.7587414E0,-7.329299E-1,2.8323883E-3,-4.3562624E-1,5.924406E-1,-1.3946727E-1,8.070149E-1,1.21789E0,2.5694103E0,4.4730583E-1,-8.9551514E-1,-6.717503E-1,-2.5866945E0,-3.7281144E-1,-1.2539846E0,1.6683039E-1,1.4921032E0],"categories":[],"categories_nodes":[],"categories_segments":[],"categories_sizes":[],"default_left":[0,0,0,0,0,0,0,0,0,0,0,1,0,0,0,0,0,0,0,0,0,0,0,0,0,0,0,0,0,0,0],"id":14,"left_children":[1,3,5,7,9,11,13,15,17,19,21,23,25,27,29,-1,-1,-1,-1,-1,-1,-1,-1,-1,-1,-1,-1,-1,-1,-1,-1],"loss_changes":[7.815343E4,8.274203E3,2.3538332E4,3.8137993E3,3.8225625E3,1.4324648E4,1.6268941E4,9.1610175E2,2.7092588E3,9.9937695E2,2.107164E3,2.909316E3,5.666461E3,7.7124277E3,6.380079E3,0E0,0E0,0E0,0E0,0E0,0E0,0E0,0E0,0E0,0E0,0E0,0E0,0E0,0E0,0E0,0E0],"parents":[2147483647,0,0,1,1,2,2,3,3,4,4,5,5,6,6,7,7,8,8,9,9,10,10,11,11,12,12,13,13,14,14],"right_children":[2,4,6,8,10,12,14,16,18,20,22,24,26,28,30,-1,-1,-1,-1,-1,-1,-1,-1,-1,-1,-1,-1,-1,-1,-1,-1],"split_conditions":[4E0,3.2067E1,4E0,6.00001E0,4E0,2E0,4E0,1E0,2E0,1.4007E1,3.2067E1,1.5999E1,3E0,2E0,4E0,-7.329299E-1,2.8323883E-3,-4.3562624E-1,5.924406E-1,-1.3946727E-1,8.070149E-1,1.21789E0,2.5694103E0,4.4730583E-1,-8.9551514E-1,-6.717503E-1,-2.5866945E0,-3.7281144E-1,-1.2539846E0,1.6683039E-1,1.4921032E0],"split_indices":[24,42,5,50,33,18,47,58,33,14,21,35,1,18,40,0,0,0,0,0,0,0,0,0,0,0,0,0,0,0,0],"split_type":[0,0,0,0,0,0,0,0,0,0,0,0,0,0,0,0,0,0,0,0,0,0,0,0,0,0,0,0,0,0,0],"sum_hessian":[2.276E3,9E2,1.376E3,4.38E2,4.62E2,1.65E2,1.211E3,6.5E1,3.73E2,2.97E2,1.65E2,5.5E1,1.1E2,1.042E3,1.69E2,2.3E1,4.2E1,2.4E1,3.49E2,1E1,2.87E2,1.51E2,1.4E1,2.8E1,2.7E1,2.4E1,8.6E1,9.34E2,1.08E2,1.21E2,4.8E1],"tree_param":{"num_deleted":"0","num_feature":"231","num_nodes":"31","size_leaf_vector":"1"}},{"base_weights":[-4.3951765E-2,6.4773703E0,-4.3180842E0,5.78072E0,1.9429924E1,-2.6581364E1,-3.6567194E0,2.488421E0,8.019979E0,6.5607924E0,2.3199475E0,-8.752706E0,-2.9082523E1,-4.8532286E0,3.4460819E0,-3.5146755E-1,3.783917E-1,3.9549473E-1,9.195014E-1,1.2929636E-1,7.607446E-1,-2.8038025E-2,-1.1309937E0,-2.96567E0,-1.7138316E-1,-1.3750383E0,-3.9530677E-1,1.8842223E0,1.7479557E-1],"categories":[],"categories_nodes":[],"categories_segments":[],"categories_sizes":[],"default_left":[0,0,0,0,0,0,0,0,0,0,0,0,1,0,0,0,0,0,0,0,0,0,0,0,0,0,0,0,0],"id":15,"left_children":[1,3,5,7,9,11,13,15,17,19,-1,21,23,25,27,-1,-1,-1,-1,-1,-1,-1,-1,-1,-1,-1,-1,-1,-1],"loss_changes":[6.3715992E4,7.579375E3,1.9817807E4,6.274123E3,1.3436816E3,4.2851172E2,1.15326E4,2.850927E3,2.2553945E3,3.564984E1,0E0,2.3254248E2,2.1736133E2,8.960762E3,4.9652173E3,0E0,0E0,0E0,0E0,0E0,0E0,0E0,0E0,0E0,0E0,0E0,0E0,0E0,0E0],"parents":[2147483647,0,0,1,1,2,2,3,3,4,4,5,5,6,6,7,7,8,8,9,9,11,11,12,12,13,13,14,14],"right_children":[2,4,6,8,10,12,14,16,18,20,-1,22,24,26,28,-1,-1,-1,-1,-1,-1,-1,-1,-1,-1,-1,-1,-1,-1],"split_conditions":[4E0,3.5453E1,3E0,3E0,1.4007E1,3E0,1.4007E1,1.5999E1,3E0,3E0,2.3199475E0,1.8998E1,3.5453E1,4E0,1.5999E1,-3.5146755E-1,3.783917E-1,3.9549473E-1,9.195014E-1,1.2929636E-1,7.607446E-1,-2.8038025E-2,-1.1309937E0,-2.96567E0,-1.7138316E-1,-1.3750383E0,-3.9530677E-1,1.8842223E0,1.7479557E-1],"split_indices":[24,21,5,45,35,11,7,21,32,164,0,7,42,5,7,0,0,0,0,0,0,0,0,0,0,0,0,0,0],"split_type":[0,0,0,0,0,0,0,0,0,0,0,0,0,0,0,0,0,0,0,0,0,0,0,0,0,0,0,0,0],"sum_hessian":[2.276E3,9E2,1.376E3,8.61E2,3.9E1,3.4E1,1.342E3,3.53E2,5.08E2,1.2E1,2.7E1,7E0,2.7E1,1.15E3,1.92E2,6.1E1,2.92E2,1.19E2,3.89E2,4E0,8E0,3E0,4E0,2.6E1,1E0,9.9E1,1.051E3,1.4E1,1.78E2],"tree_param":{"num_deleted":"0","num_feature":"231","num_nodes":"29","size_leaf_vector":"1"}},{"base_weights":[-3.8274355E-2,5.855223E0,-3.9009998E0,5.3422503E0,2.1510002E1,-2.0620508E0,-1.1091617E1,2.3029518E0,7.3620157E0,2.2339058E0,3.04195E-1,4.995794E0,-3.6297073E0,-5.388657E0,-2.1235985E1,-2.2692318E-1,3.7610674E-1,-3.9123002E-1,7.686536E-1,3.568842E-1,1.6465362E0,-3.8086167E-1,1.4240671E0,8.762157E-2,-1.2130978E0,-2.3281617E0,-4.2979214E-2],"categories":[],"categories_nodes":[],"categories_segments":[],"categories_sizes":[],"default_left":[0,0,0,0,0,0,0,0,0,0,0,0,0,0,1,0,0,0,0,0,0,0,0,0,0,0,0],"id":16,"left_children":[1,3,5,7,9,11,13,15,17,-1,-1,19,21,23,25,-1,-1,-1,-1,-1,-1,-1,-1,-1,-1,-1,-1],"loss_changes":[5.2039133E4,6.666172E3,1.8133695E4,5.32601E3,4.824414E1,1.2326389E4,1.5600027E4,2.4442034E3,2.0859473E3,0E0,0E0,3.0085576E3,3.163792E3,7.921E3,4.139875E3,0E0,0E0,0E0,0E0,0E0,0E0,0E0,0E0,0E0,0E0,0E0,0E0],"parents":[2147483647,0,0,1,1,2,2,3,3,4,4,5,5,6,6,7,7,8,8,11,11,12,12,13,13,14,14],"right_children":[2,4,6,8,10,12,14,16,18,-1,-1,20,22,24,26,-1,-1,-1,-1,-1,-1,-1,-1,-1,-1,-1,-1],"split_conditions":[4E0,7.9904E1,4E0,3E0,1E0,3E0,3E0,1.8998E1,1.4007E1,2.2339058E0,3.04195E-1,1E0,1E0,3E0,1E0,-2.2692318E-1,3.7610674E-1,-3.9123002E-1,7.686536E-1,3.568842E-1,1.6465362E0,-3.8086167E-1,1.4240671E0,8.762157E-2,-1.2130978E0,-2.3281617E0,-4.2979214E-2],"split_indices":[24,21,18,45,9,10,1,21,14,0,0,30,2,10,16,0,0,0,0,0,0,0,0,0,0,0,0],"split_type":[0,0,0,0,0,0,0,0,0,0,0,0,0,0,0,0,0,0,0,0,0,0,0,0,0,0,0],"sum_hessian":[2.276E3,9E2,1.376E3,8.78E2,2.2E1,1.101E3,2.75E2,3.55E2,5.23E2,2E1,2E0,1.98E2,9.03E2,1.81E2,9.4E1,8.5E1,2.7E2,1.3E1,5.1E2,1.82E2,1.6E1,8.98E2,5E0,9.6E1,8.5E1,8.5E1,9E0],"tree_param":{"num_deleted":"0","num_feature":"231","num_nodes":"27","size_leaf_vector":"1"}},{"base_weights":[-2.8585121E-2,5.286743E0,-3.5124586E0,4.8108935E0,1.9832724E1,-2.0069356E0,-1.0882868E1,2.0744507E0,6.629198E0,2.0551932E0,2.9550368E-1,-2.517044E0,1.3692153E1,-6.276518E0,-1.6897917E1,-6.585362E-1,2.7661496E-1,2.890832E-1,7.750394E-1,-3.4673852E-1,4.1500035E-1,3.118453E-1,1.7527478E0,-2.6143616E-1,-1.4486507E0,-4.9484107E-1,-2.0855486E0],"categories":[],"categories_nodes":[],"categories_segments":[],"categories_sizes":[],"default_left":[0,0,0,0,0,0,0,0,0,0,0,0,0,0,0,0,0,0,0,0,0,0,0,0,0,0,0],"id":17,"left_children":[1,3,5,7,9,11,13,15,17,-1,-1,19,21,23,25,-1,-1,-1,-1,-1,-1,-1,-1,-1,-1,-1,-1],"loss_changes":[4.2330473E4,5.762426E3,1.5201922E4,4.3160703E3,5.761719E-1,9.394643E3,5.9023535E3,2.2436548E3,2.090412E3,0E0,0E0,7.1738857E3,1.206543E3,4.0028115E3,4.092709E3,0E0,0E0,0E0,0E0,0E0,0E0,0E0,0E0,0E0,0E0,0E0,0E0],"parents":[2147483647,0,0,1,1,2,2,3,3,4,4,5,5,6,6,7,7,8,8,11,11,12,12,13,13,14,14],"right_children":[2,4,6,8,10,12,14,16,18,-1,-1,20,22,24,26,-1,-1,-1,-1,-1,-1,-1,-1,-1,-1,-1,-1],"split_conditions":[4E0,7.9904E1,3E0,3E0,1E0,1E0,1.4007E1,1E0,3E0,2.0551932E0,2.9550368E-1,1.4007E1,1.4007E1,3E0,2E0,-6.585362E-1,2.7661496E-1,2.890832E-1,7.750394E-1,-3.4673852E-1,4.1500035E-1,3.118453E-1,1.7527478E0,-2.6143616E-1,-1.4486507E0,-4.9484107E-1,-2.0855486E0],"split_indices":[24,21,17,45,9,30,28,58,32,0,0,7,14,1,10,0,0,0,0,0,0,0,0,0,0,0,0],"split_type":[0,0,0,0,0,0,0,0,0,0,0,0,0,0,0,0,0,0,0,0,0,0,0,0,0,0,0],"sum_hessian":[2.276E3,9E2,1.376E3,8.78E2,2.2E1,1.148E3,2.28E2,3.55E2,5.23E2,2E1,2E0,1.116E3,3.2E1,1.35E2,9.3E1,2.3E1,3.32E2,1.25E2,3.98E2,9.79E2,1.37E2,1.1E1,2.1E1,9.8E1,3.7E1,2.6E1,6.7E1],"tree_param":{"num_deleted":"0","num_feature":"231","num_nodes":"27","size_leaf_vector":"1"}},{"base_weights":[-2.3675164E-2,-2.7455292E0,5.538461E0,-1.1778939E0,-9.626594E0,5.0268803E0,1.8288469E0,6.862349E0,-2.573272E0,-4.246891E0,-1.8864376E1,3.1013894E0,6.912312E0,7.9911035E-1,1.6902898E-1,1.8392766E0,-2.83774E-1,1.23537354E-1,-1.0174383E0,-5.7396674E-1,-2.2690265E0,-4.1604564E-1,3.3014864E-1,5.543298E-1,1.0058727E0],"categories":[],"categories_nodes":[],"categories_segments":[],"categories_sizes":[],"default_left":[1,0,0,0,0,0,0,1,0,0,0,0,1,0,0,0,0,0,0,0,0,0,0,0,0],"id":18,"left_children":[1,3,5,7,9,11,-1,13,15,17,19,21,23,-1,-1,-1,-1,-1,-1,-1,-1,-1,-1,-1,-1],"loss_changes":[3.4606035E4,1.6490545E4,4.415533E3,1.4175292E4,1.3690127E4,2.5293477E3,0E0,1.01448535E3,6.200573E3,6.1160547E3,4.4924023E3,6.054563E2,1.2735293E3,0E0,0E0,0E0,0E0,0E0,0E0,0E0,0E0,0E0,0E0,0E0,0E0],"parents":[2147483647,0,0,1,1,2,2,3,3,4,4,5,5,7,7,8,8,9,9,10,10,11,11,12,12],"right_children":[2,4,6,8,10,12,-1,14,16,18,20,22,24,-1,-1,-1,-1,-1,-1,-1,-1,-1,-1,-1,-1],"split_conditions":[1.5999E1,4E0,7.9904E1,4E0,3E0,3.2067E1,1.8288469E0,1.8998E1,1.5999E1,3E0,3E0,1.4007E1,1.8998E1,7.9911035E-1,1.6902898E-1,1.8392766E0,-2.83774E-1,1.23537354E-1,-1.0174383E0,-5.7396674E-1,-2.2690265E0,-4.1604564E-1,3.3014864E-1,5.543298E-1,1.0058727E0],"split_indices":[21,18,21,11,1,42,0,42,14,10,11,14,175,0,0,0,0,0,0,0,0,0,0,0,0],"split_type":[0,0,0,0,0,0,0,0,0,0,0,0,0,0,0,0,0,0,0,0,0,0,0,0,0],"sum_hessian":[2.276E3,1.53E3,7.46E2,1.251E3,2.79E2,7.24E2,2.2E1,1.82E2,1.069E3,1.81E2,9.8E1,3.65E2,3.59E2,1.47E2,3.5E1,9E0,1.06E3,9.6E1,8.5E1,2.5E1,7.3E1,7E0,3.58E2,2.6E2,9.9E1],"tree_param":{"num_deleted":"0","num_feature":"231","num_nodes":"25","size_leaf_vector":"1"}},{"base_weights":[-1.6550211E-2,-2.401923E0,5.1703615E0,-9.9539244E-1,-8.730075E0,4.54291E0,1.427133E1,6.202535E0,-2.2099042E0,-3.8456917E0,-1.711692E1,6.31849E0,2.9714222E0,2.7880223E0,1.6797322E0,7.218279E-1,1.5423892E-1,1.7210371E0,-2.4488042E-1,1.2662332E-1,-9.148432E-1,-1.9032224E0,1.78474E-1,1.0063425E0,4.8694515E-1,-3.917763E-1,3.1604692E-1,-1.2664728E-1,5.1430565E-1],"categories":[],"categories_nodes":[],"categories_segments":[],"categories_sizes":[],"default_left":[1,0,0,0,0,1,0,1,0,1,1,0,0,0,0,0,0,0,0,0,0,0,0,0,0,0,0,0,0],"id":19,"left_children":[1,3,5,7,9,11,13,15,17,19,21,23,25,27,-1,-1,-1,-1,-1,-1,-1,-1,-1,-1,-1,-1,-1,-1,-1],"loss_changes":[2.8281498E4,1.3885385E4,3.7685176E3,1.1315453E4,1.1283842E4,1.7970312E3,1.0225537E3,8.2074023E2,5.322614E3,5.107743E3,3.9159355E3,1.449415E3,5.4433545E2,1.7012296E2,0E0,0E0,0E0,0E0,0E0,0E0,0E0,0E0,0E0,0E0,0E0,0E0,0E0,0E0,0E0],"parents":[2147483647,0,0,1,1,2,2,3,3,4,4,5,5,6,6,7,7,8,8,9,9,10,10,11,11,12,12,13,13],"right_children":[2,4,6,8,10,12,14,16,18,20,22,24,26,28,-1,-1,-1,-1,-1,-1,-1,-1,-1,-1,-1,-1,-1,-1,-1],"split_conditions":[1.8998E1,4E0,3.5453E1,4E0,3E0,3E0,3E0,1.8998E1,1.5999E1,1.4007E1,1E0,1E0,1.4007E1,7.9904E1,1.6797322E0,7.218279E-1,1.5423892E-1,1.7210371E0,-2.4488042E-1,1.2662332E-1,-9.148432E-1,-1.9032224E0,1.78474E-1,1.0063425E0,4.8694515E-1,-3.917763E-1,3.1604692E-1,-1.2664728E-1,5.1430565E-1],"split_indices":[21,18,21,11,1,36,36,42,14,42,16,107,14,21,0,0,0,0,0,0,0,0,0,0,0,0,0,0,0],"split_type":[0,0,0,0,0,0,0,0,0,0,0,0,0,0,0,0,0,0,0,0,0,0,0,0,0,0,0,0,0],"sum_hessian":[2.276E3,1.561E3,7.15E2,1.282E3,2.79E2,6.76E2,3.9E1,1.82E2,1.1E3,1.81E2,9.8E1,3.1E2,3.66E2,9E0,3E1,1.47E2,3.5E1,9E0,1.091E3,9.4E1,8.7E1,8.9E1,9E0,7.8E1,2.32E2,7E0,3.59E2,4E0,5E0],"tree_param":{"num_deleted":"0","num_feature":"231","num_nodes":"29","size_leaf_vector":"1"}},{"base_weights":[-7.3450534E-3,-2.235092E0,4.5447564E0,-9.442631E-1,-7.900956E0,4.1010766E0,1.5645445E1,-2.218412E0,4.939024E0,-3.4817739E0,-1.5487977E1,5.809015E0,2.6291347E0,1.6240762E0,2.201135E-1,1.6103989E0,-2.458355E-1,1.500677E-1,6.469019E-1,3.705331E-2,-1.020861E0,-3.8141236E-1,-1.8972281E0,8.699507E-1,4.6552044E-1,-3.6892262E-1,2.7907455E-1],"categories":[],"categories_nodes":[],"categories_segments":[],"categories_sizes":[],"default_left":[1,0,0,0,0,1,0,0,0,1,0,0,0,0,0,0,0,0,0,0,0,0,0,0,0,0,0],"id":20,"left_children":[1,3,5,7,9,11,13,15,17,19,21,23,25,-1,-1,-1,-1,-1,-1,-1,-1,-1,-1,-1,-1,-1,-1],"loss_changes":[2.317994E4,1.118032E4,3.3582246E3,9.46727E3,9.233479E3,1.7478926E3,1.8916016E1,4.7389014E3,1.1271377E3,4.8487246E3,3.8049492E3,8.947373E2,4.6004712E2,0E0,0E0,0E0,0E0,0E0,0E0,0E0,0E0,0E0,0E0,0E0,0E0,0E0,0E0],"parents":[2147483647,0,0,1,1,2,2,3,3,4,4,5,5,6,6,7,7,8,8,9,9,10,10,11,11,12,12],"right_children":[2,4,6,8,10,12,14,16,18,20,22,24,26,-1,-1,-1,-1,-1,-1,-1,-1,-1,-1,-1,-1,-1,-1],"split_conditions":[1.5999E1,4E0,7.9904E1,1.4007E1,3E0,3E0,1E0,1.5999E1,4E0,1.4007E1,3E0,1E0,1.4007E1,1.6240762E0,2.201135E-1,1.6103989E0,-2.458355E-1,1.500677E-1,6.469019E-1,3.705331E-2,-1.020861E0,-3.8141236E-1,-1.8972281E0,8.699507E-1,4.6552044E-1,-3.6892262E-1,2.7907455E-1],"split_indices":[21,18,21,7,1,36,9,14,45,28,11,107,14,0,0,0,0,0,0,0,0,0,0,0,0,0,0],"split_type":[0,0,0,0,0,0,0,0,0,0,0,0,0,0,0,0,0,0,0,0,0,0,0,0,0,0,0],"sum_hessian":[2.276E3,1.53E3,7.46E2,1.251E3,2.79E2,7.24E2,2.2E1,1.031E3,2.2E2,1.81E2,9.8E1,3.28E2,3.96E2,2E1,2E0,9E0,1.022E3,7.1E1,1.49E2,1.18E2,6.3E1,2.5E1,7.3E1,8.4E1,2.44E2,7E0,3.89E2],"tree_param":{"num_deleted":"0","num_feature":"231","num_nodes":"27","size_leaf_vector":"1"}},{"base_weights":[-2.0326083E-3,-1.9543265E0,4.2428317E0,-7.953216E-1,-7.168649E0,3.6976125E0,1.217647E1,3.4812865E0,-2.1595726E0,-3.1595044E0,-1.4050762E1,3.1813962E0,7.8945847E0,2.1280599E0,1.4427767E0,1.6231117E0,2.9644963E-1,-1.9812211E-1,-1.4573534E0,2.6950893E-1,-7.3360914E-1,-1.5804809E0,2.6731142E-1,2.729429E-1,6.386549E-1,8.095784E-1,1.12527564E-1,-1.417083E-1,4.3546587E-1],"categories":[],"categories_nodes":[],"categories_segments":[],"categories_sizes":[],"default_left":[1,0,0,0,0,1,0,0,1,1,1,0,1,0,0,0,0,0,0,0,0,0,0,0,0,0,0,0,0],"id":21,"left_children":[1,3,5,7,9,11,13,15,17,19,21,23,25,27,-1,-1,-1,-1,-1,-1,-1,-1,-1,-1,-1,-1,-1,-1,-1],"loss_changes":[1.8942326E4,9.427532E3,2.873417E3,7.5450986E3,7.5967764E3,1.3387627E3,8.2529443E2,1.8025715E3,2.0066323E3,4.651611E3,3.2458223E3,7.946294E2,4.1929688E1,1.4430267E2,0E0,0E0,0E0,0E0,0E0,0E0,0E0,0E0,0E0,0E0,0E0,0E0,0E0,0E0,0E0],"parents":[2147483647,0,0,1,1,2,2,3,3,4,4,5,5,6,6,7,7,8,8,9,9,10,10,11,11,12,12,13,13],"right_children":[2,4,6,8,10,12,14,16,18,20,22,24,26,28,-1,-1,-1,-1,-1,-1,-1,-1,-1,-1,-1,-1,-1,-1,-1],"split_conditions":[1.8998E1,4E0,3.5453E1,3E0,3E0,3E0,3E0,1.5999E1,1E0,1.4007E1,1E0,1.4007E1,1.8998E1,7.9904E1,1.4427767E0,1.6231117E0,2.9644963E-1,-1.9812211E-1,-1.4573534E0,2.6950893E-1,-7.3360914E-1,-1.5804809E0,2.6731142E-1,2.729429E-1,6.386549E-1,8.095784E-1,1.12527564E-1,-1.417083E-1,4.3546587E-1],"split_indices":[21,18,21,10,1,197,36,14,69,35,16,7,42,21,0,0,0,0,0,0,0,0,0,0,0,0,0,0,0],"split_type":[0,0,0,0,0,0,0,0,0,0,0,0,0,0,0,0,0,0,0,0,0,0,0,0,0,0,0,0,0],"sum_hessian":[2.276E3,1.561E3,7.15E2,1.282E3,2.79E2,6.76E2,3.9E1,3.08E2,9.74E2,1.81E2,9.8E1,6.1E2,6.6E1,9E0,3E1,6E0,3.02E2,9.66E2,8E0,7.6E1,1.05E2,8.9E1,9E0,5.43E2,6.7E1,6.3E1,3E0,4E0,5E0],"tree_param":{"num_deleted":"0","num_feature":"231","num_nodes":"29","size_leaf_vector":"1"}},{"base_weights":[2.0654069E-3,-1.8245912E0,3.736962E0,3.5378995E0,-2.8476365E0,3.3506966E0,1.3437063E1,4.5663633E0,-1.0816463E1,-1.0345145E1,-1.9490186E0,1.9745404E0,4.7007637E0,1.3691598E0,9.698614E-2,1.6859629E0,3.462262E-1,-1.4341254E0,5.6458026E-2,-3.076223E-1,-1.3173761E0,-7.431017E-2,-3.514768E-1,-3.633239E-1,2.1354787E-1,3.7182412E-1,6.968693E-1],"categories":[],"categories_nodes":[],"categories_segments":[],"categories_sizes":[],"default_left":[1,0,0,0,0,0,0,0,0,0,0,0,1,0,0,0,0,0,0,0,0,0,0,0,0,0,0],"id":22,"left_children":[1,3,5,7,9,11,13,15,17,19,21,23,25,-1,-1,-1,-1,-1,-1,-1,-1,-1,-1,-1,-1,-1,-1],"loss_changes":[1.5597838E4,8.470803E3,2.5719531E3,3.9019197E3,8.591606E3,1.3013262E3,4.623535E0,2.8774746E3,7.76345E2,2.5979785E3,2.1729526E3,3.712235E2,6.7085547E2,0E0,0E0,0E0,0E0,0E0,0E0,0E0,0E0,0E0,0E0,0E0,0E0,0E0,0E0],"parents":[2147483647,0,0,1,1,2,2,3,3,4,4,5,5,6,6,7,7,8,8,9,9,10,10,11,11,12,12],"right_children":[2,4,6,8,10,12,14,16,18,20,22,24,26,-1,-1,-1,-1,-1,-1,-1,-1,-1,-1,-1,-1,-1,-1],"split_conditions":[1.5999E1,4E0,7.9904E1,3.0974E1,4E0,3.2067E1,3.0974E1,1.5999E1,4E0,2E0,1E0,1.4007E1,1.8998E1,1.3691598E0,9.698614E-2,1.6859629E0,3.462262E-1,-1.4341254E0,5.6458026E-2,-3.076223E-1,-1.3173761E0,-7.431017E-2,-3.514768E-1,-3.633239E-1,2.1354787E-1,3.7182412E-1,6.968693E-1],"split_indices":[21,11,21,7,5,42,14,7,3,18,114,14,175,0,0,0,0,0,0,0,0,0,0,0,0,0,0],"split_type":[0,0,0,0,0,0,0,0,0,0,0,0,0,0,0,0,0,0,0,0,0,0,0,0,0,0,0],"sum_hessian":[2.276E3,1.53E3,7.46E2,2.43E2,1.287E3,7.24E2,2.2E1,2.3E2,1.3E1,1.32E2,1.155E3,3.65E2,3.59E2,2.1E1,1E0,1.3E1,2.17E2,9E0,4E0,4E1,9.2E1,6.57E2,4.98E2,7E0,3.58E2,2.6E2,9.9E1],"tree_param":{"num_deleted":"0","num_feature":"231","num_nodes":"27","size_leaf_vector":"1"}},{"base_weights":[4.070222E-3,-1.6467451E0,3.3795445E0,3.1977062E0,-2.5710409E0,2.9642205E0,1.1423856E1,4.153388E0,-1.0111946E1,-9.370664E0,-1.756038E0,2.5679266E0,6.8161807E0,5.6900263E0,1.4702336E1,1.5641986E0,3.123831E-1,-1.3419316E0,5.394881E-2,-1.0663471E0,3.676034E-1,1.713128E-1,-2.324708E-1,2.2462706E-1,5.334039E-1,7.4658173E-1,2.765476E-1,6.411537E-1,1.0549368E-1,7.59843E-2,1.6060323E0],"categories":[],"categories_nodes":[],"categories_segments":[],"categories_sizes":[],"default_left":[1,0,0,0,0,1,0,0,0,1,1,0,1,0,0,0,0,0,0,0,0,0,0,0,0,0,0,0,0,0,0],"id":23,"left_children":[1,3,5,7,9,11,13,15,17,19,21,23,25,27,29,-1,-1,-1,-1,-1,-1,-1,-1,-1,-1,-1,-1,-1,-1,-1,-1],"loss_changes":[1.273994E4,6.9137603E3,2.3253848E3,3.3585435E3,7.06649E3,1.0037114E3,2.192622E2,2.5165396E3,6.8318567E2,2.513746E3,2.3089846E3,5.215171E2,5.495117E1,2.8944275E1,2.819043E2,0E0,0E0,0E0,0E0,0E0,0E0,0E0,0E0,0E0,0E0,0E0,0E0,0E0,0E0,0E0,0E0],"parents":[2147483647,0,0,1,1,2,2,3,3,4,4,5,5,6,6,7,7,8,8,9,9,10,10,11,11,12,12,13,13,14,14],"right_children":[2,4,6,8,10,12,14,16,18,20,22,24,26,28,30,-1,-1,-1,-1,-1,-1,-1,-1,-1,-1,-1,-1,-1,-1,-1,-1],"split_conditions":[1.5999E1,4E0,6.00001E0,3.0974E1,4E0,1.8998E1,3.2067E1,1.5999E1,4E0,1.5999E1,3E0,1.4007E1,1E0,1.8998E1,1.4007E1,1.5641986E0,3.123831E-1,-1.3419316E0,5.394881E-2,-1.0663471E0,3.676034E-1,1.713128E-1,-2.324708E-1,2.2462706E-1,5.334039E-1,7.4658173E-1,2.765476E-1,6.411537E-1,1.0549368E-1,7.59843E-2,1.6060323E0],"split_indices":[21,11,29,7,5,196,21,7,3,91,36,7,219,7,7,0,0,0,0,0,0,0,0,0,0,0,0,0,0,0,0],"split_type":[0,0,0,0,0,0,0,0,0,0,0,0,0,0,0,0,0,0,0,0,0,0,0,0,0,0,0,0,0,0,0],"sum_hessian":[2.276E3,1.53E3,7.46E2,2.43E2,1.287E3,7.16E2,3E1,2.3E2,1.3E1,1.32E2,1.155E3,6.57E2,5.9E1,1.6E1,1.4E1,1.3E1,2.17E2,9E0,4E0,1.21E2,1.1E1,1.61E2,9.94E2,5.97E2,6E1,4.7E1,1.2E1,1.2E1,4E0,2E0,1.2E1],"tree_param":{"num_deleted":"0","num_feature":"231","num_nodes":"31","size_leaf_vector":"1"}},{"base_weights":[1.2909425E-2,8.5735327E-1,-5.5528235E0,2.7546937E0,-1.9397092E0,-2.543509E0,-9.97756E0,1.9084296E0,6.796513E0,-1.7348781E0,-1.5845302E0,-6.343175E0,3.4895418E0,-1.1236575E1,3.4966202E0,-3.7293023E-1,2.2493784E-1,4.718944E-1,1.4902325E0,-8.141732E-2,-3.8709614E-1,-9.5917696E-1,5.021878E-1,1.1324373E0,-4.7564825E-1,-1.2898124E0,-1.5380107E-1,-4.9519904E-2,6.924984E-1],"categories":[],"categories_nodes":[],"categories_segments":[],"categories_sizes":[],"default_left":[0,1,0,0,0,0,1,0,0,0,0,1,1,1,0,0,0,0,0,0,0,0,0,0,0,0,0,0,0],"id":24,"left_children":[1,3,5,7,9,11,13,15,17,19,-1,21,23,25,27,-1,-1,-1,-1,-1,-1,-1,-1,-1,-1,-1,-1,-1,-1],"loss_changes":[1.0739691E4,1.0561888E4,3.8685303E3,3.979671E3,2.1378516E3,4.377313E3,2.2398945E3,1.9376536E3,3.0473613E3,1.5509519E3,0E0,4.528185E3,5.121355E3,1.6751006E3,2.1517172E2,0E0,0E0,0E0,0E0,0E0,0E0,0E0,0E0,0E0,0E0,0E0,0E0,0E0,0E0],"parents":[2147483647,0,0,1,1,2,2,3,3,4,4,5,5,6,6,7,7,8,8,9,9,11,11,12,12,13,13,14,14],"right_children":[2,4,6,8,10,12,14,16,18,20,-1,22,24,26,28,-1,-1,-1,-1,-1,-1,-1,-1,-1,-1,-1,-1,-1,-1],"split_conditions":[4E0,1.5999E1,3E0,1E0,1E0,3.2067E1,1E0,4E0,7.9904E1,3.5453E1,-1.5845302E0,1.4007E1,1.5999E1,1.8998E1,1.4007E1,-3.7293023E-1,2.2493784E-1,4.718944E-1,1.4902325E0,-8.141732E-2,-3.8709614E-1,-9.5917696E-1,5.021878E-1,1.1324373E0,-4.7564825E-1,-1.2898124E0,-1.5380107E-1,-4.9519904E-2,6.924984E-1],"split_indices":[18,56,1,34,6,42,16,5,21,112,0,112,28,21,7,0,0,0,0,0,0,0,0,0,0,0,0,0,0],"split_type":[0,0,0,0,0,0,0,0,0,0,0,0,0,0,0,0,0,0,0,0,0,0,0,0,0,0,0,0,0],"sum_hessian":[2.276E3,1.98E3,2.96E2,1.18E3,8E2,1.81E2,1.15E2,9.82E2,1.98E2,7.94E2,6E0,1.11E2,7E1,1.06E2,9E0,5.3E1,9.29E2,1.64E2,3.4E1,5.6E2,2.34E2,8.7E1,2.4E1,3.5E1,3.5E1,8.9E1,1.7E1,6E0,3E0],"tree_param":{"num_deleted":"0","num_feature":"231","num_nodes":"29","size_leaf_vector":"1"}},{"base_weights":[9.603221E-3,7.709162E-1,-5.007853E0,2.476689E0,-1.7753043E0,-2.2832465E0,-9.013999E0,1.7090665E0,6.1656833E0,-1.5796684E0,-1.4981011E0,-4.590169E0,6.6857915E0,-1.0178848E1,3.369447E0,1.8640108E-1,-8.27222E-1,4.065624E-1,1.2869624E0,-7.3347285E-2,-3.5934117E-1,-1.1218915E-1,-1.3433807E0,2.8095782E-1,9.4762754E-1,-2.3628128E-1,-1.2076062E0,-4.68191E-2,6.665295E-1],"categories":[],"categories_nodes":[],"categories_segments":[],"categories_sizes":[],"default_left":[0,1,0,0,0,0,1,0,0,0,0,0,0,0,0,0,0,0,0,0,0,0,0,0,0,0,0,0,0],"id":25,"left_children":[1,3,5,7,9,11,13,15,17,19,-1,21,23,25,27,-1,-1,-1,-1,-1,-1,-1,-1,-1,-1,-1,-1,-1,-1],"loss_changes":[8.728154E3,8.644085E3,3.1712637E3,3.3120586E3,1.9293391E3,3.9998518E3,1.9092764E3,1.6064065E3,2.5794214E3,1.333783E3,0E0,4.5415884E3,2.8725293E2,1.488877E3,1.9887602E2,0E0,0E0,0E0,0E0,0E0,0E0,0E0,0E0,0E0,0E0,0E0,0E0,0E0,0E0],"parents":[2147483647,0,0,1,1,2,2,3,3,4,4,5,5,6,6,7,7,8,8,9,9,11,11,12,12,13,13,14,14],"right_children":[2,4,6,8,10,12,14,16,18,20,-1,22,24,26,28,-1,-1,-1,-1,-1,-1,-1,-1,-1,-1,-1,-1,-1,-1],"split_conditions":[4E0,1.8998E1,3E0,1E0,1E0,3.2067E1,1E0,2E0,3.2067E1,3.5453E1,-1.4981011E0,1.5999E1,2E0,3E0,1.4007E1,1.8640108E-1,-8.27222E-1,4.065624E-1,1.2869624E0,-7.3347285E-2,-3.5934117E-1,-1.1218915E-1,-1.3433807E0,2.8095782E-1,9.4762754E-1,-2.3628128E-1,-1.2076062E0,-4.68191E-2,6.665295E-1],"split_indices":[18,56,1,34,6,35,16,17,21,112,0,28,31,11,7,0,0,0,0,0,0,0,0,0,0,0,0,0,0],"split_type":[0,0,0,0,0,0,0,0,0,0,0,0,0,0,0,0,0,0,0,0,0,0,0,0,0,0,0,0,0],"sum_hessian":[2.276E3,1.98E3,2.96E2,1.186E3,7.94E2,1.81E2,1.15E2,9.88E2,1.98E2,7.88E2,6E0,1.46E2,3.5E1,1.06E2,9E0,9.77E2,1.1E1,1.57E2,4.1E1,5.6E2,2.28E2,1.09E2,3.7E1,1.9E1,1.6E1,2.3E1,8.3E1,6E0,3E0],"tree_param":{"num_deleted":"0","num_feature":"231","num_nodes":"29","size_leaf_vector":"1"}},{"base_weights":[4.239101E-3,2.685914E0,-1.2181178E0,7.653359E0,2.188378E0,-2.031077E0,2.401685E0,5.0525455E0,1.3145988E0,1.7878878E0,5.3594823E0,-1.0479236E0,-6.264157E0,1.522035E0,1.4721086E0,5.343004E-1,6.176266E-2,1.5972276E-1,4.843625E-1,7.06417E-1,3.4879503E-1,-1.3552956E-1,9.232114E-1,-7.7388924E-1,3.4926975E-1,2.3084931E-1,-1.4933264E0],"categories":[],"categories_nodes":[],"categories_segments":[],"categories_sizes":[],"default_left":[0,0,1,0,1,0,0,0,0,0,0,0,1,0,0,0,0,0,0,0,0,0,0,0,0,0,0],"id":26,"left_children":[1,3,5,7,9,11,13,15,-1,17,19,21,23,-1,25,-1,-1,-1,-1,-1,-1,-1,-1,-1,-1,-1,-1],"loss_changes":[7.494863E3,1.6759971E3,4.6441387E3,5.496721E2,7.8059985E2,5.307735E3,3.3268965E3,4.3235474E1,0E0,2.99781E2,9.276721E1,3.3693098E3,3.6070898E3,0E0,3.946793E3,0E0,0E0,0E0,0E0,0E0,0E0,0E0,0E0,0E0,0E0,0E0,0E0],"parents":[2147483647,0,0,1,1,2,2,3,3,4,4,5,5,6,6,7,7,9,9,10,10,11,11,12,12,14,14],"right_children":[2,4,6,8,10,12,14,16,-1,18,20,22,24,-1,26,-1,-1,-1,-1,-1,-1,-1,-1,-1,-1,-1,-1],"split_conditions":[2E0,3E0,1.4007E1,3.2067E1,3E0,2.5380801E2,1.5999E1,1.8998E1,1.3145988E0,3.2067E1,1E0,3.2067E1,1.5999E1,1.522035E0,1E0,5.343004E-1,6.176266E-2,1.5972276E-1,4.843625E-1,7.06417E-1,3.4879503E-1,-1.3552956E-1,9.232114E-1,-7.7388924E-1,3.4926975E-1,2.3084931E-1,-1.4933264E0],"split_indices":[25,11,7,21,197,105,7,7,0,21,219,42,91,0,6,0,0,0,0,0,0,0,0,0,0,0,0],"split_type":[0,0,0,0,0,0,0,0,0,0,0,0,0,0,0,0,0,0,0,0,0,0,0,0,0,0,0],"sum_hessian":[2.276E3,7.11E2,1.565E3,5.8E1,6.53E2,1.28E3,2.85E2,4.6E1,1.2E1,5.87E2,6.6E1,1.044E3,2.36E2,1.4E1,2.71E2,4.2E1,4E0,5.6E2,2.7E1,2.7E1,3.9E1,1.018E3,2.6E1,2.06E2,3E1,2.62E2,9E0],"tree_param":{"num_deleted":"0","num_feature":"231","num_nodes":"27","size_leaf_vector":"1"}},{"base_weights":[1.3399962E-2,6.725509E-1,-4.330393E0,2.1164498E0,-1.4827012E0,-3.4349632E0,-1.7398827E1,1.4482358E0,1.9389611E0,-1.2988218E0,-1.3973876E0,5.286888E0,-4.829955E0,-2.0731645E0,-1.5052795E-1,1.6406704E-1,9.092404E-1,-3.2975194E-1,-5.9523474E-2,7.2572535E-1,-6.121877E-2,-6.5148556E-1,2.3966007E-1,1.2489538E-2,-5.1308185E-2],"categories":[],"categories_nodes":[],"categories_segments":[],"categories_sizes":[],"default_left":[0,1,0,0,0,0,1,0,0,1,0,1,0,0,0,0,0,0,0,0,0,0,0,0,0],"id":27,"left_children":[1,3,5,7,9,11,13,-1,15,17,-1,19,21,-1,23,-1,-1,-1,-1,-1,-1,-1,-1,-1,-1],"loss_changes":[6.541898E3,6.193577E3,3.202606E3,2.4571938E3,1.7291792E3,3.6312908E3,9.9825195E2,0E0,2.4325693E3,1.1014554E3,0E0,5.170392E2,3.1383677E3,0E0,1.5074407E0,0E0,0E0,0E0,0E0,0E0,0E0,0E0,0E0,0E0,0E0],"parents":[2147483647,0,0,1,1,2,2,3,3,4,4,5,5,6,6,8,8,9,9,11,11,12,12,14,14],"right_children":[2,4,6,8,10,12,14,-1,16,18,-1,20,22,-1,24,-1,-1,-1,-1,-1,-1,-1,-1,-1,-1],"split_conditions":[4E0,1.8998E1,3.0974E1,1.5999E1,1E0,3E0,3.5453E1,1.4482358E0,6.00001E0,4E0,-1.3973876E0,3E0,1.4007E1,-2.0731645E0,3E0,1.6406704E-1,9.092404E-1,-3.2975194E-1,-5.9523474E-2,7.2572535E-1,-6.121877E-2,-6.5148556E-1,2.3966007E-1,1.2489538E-2,-5.1308185E-2],"split_indices":[18,56,7,14,6,115,7,0,29,68,0,29,7,0,1,0,0,0,0,0,0,0,0,0,0],"split_type":[0,0,0,0,0,0,0,0,0,0,0,0,0,0,0,0,0,0,0,0,0,0,0,0,0],"sum_hessian":[2.276E3,1.98E3,2.96E2,1.186E3,7.94E2,2.83E2,1.3E1,1.1E1,1.175E3,7.88E2,6E0,3.7E1,2.46E2,1E1,3E0,1.134E3,4.1E1,2E2,5.88E2,2.7E1,1E1,2E2,4.6E1,2E0,1E0],"tree_param":{"num_deleted":"0","num_feature":"231","num_nodes":"25","size_leaf_vector":"1"}},{"base_weights":[9.506857E-3,5.4120874E-1,-4.519283E0,-3.438795E-1,3.864032E0,-1.7781895E0,-9.226137E0,-7.4286733E0,-1.3113888E-1,1.2414763E1,2.9250443E0,-8.566936E0,-4.436644E-2,-1.1407563E1,3.9563017E0,-3.477963E-1,-1.2772051E0,1.10638574E-1,-1.3458617E-1,1.5728016E0,2.260303E-1,3.4322834E-1,-3.785079E-1,-1.6474097E0,-1.8480264E-1,6.665781E-1,-3.9546636E-1,-2.967902E-1,-1.4138879E0,4.3893957E-1,1.21327E-2],"categories":[],"categories_nodes":[],"categories_segments":[],"categories_sizes":[],"default_left":[0,0,0,0,0,0,1,0,1,1,0,0,0,0,0,0,0,0,0,0,0,0,0,0,0,0,0,0,0,0,0],"id":28,"left_children":[1,3,5,7,9,11,13,15,17,19,21,23,25,27,29,-1,-1,-1,-1,-1,-1,-1,-1,-1,-1,-1,-1,-1,-1,-1,-1],"loss_changes":[5.500822E3,6.027433E3,3.0034297E3,2.4292712E3,3.263604E3,1.8492249E3,2.7349263E3,7.5382275E2,2.379812E3,1.1836772E3,1.4090413E3,1.5295347E3,3.5663594E3,1.5249844E3,1.940097E1,0E0,0E0,0E0,0E0,0E0,0E0,0E0,0E0,0E0,0E0,0E0,0E0,0E0,0E0,0E0,0E0],"parents":[2147483647,0,0,1,1,2,2,3,3,4,4,5,5,6,6,7,7,8,8,9,9,10,10,11,11,12,12,13,13,14,14],"right_children":[2,4,6,8,10,12,14,16,18,20,22,24,26,28,30,-1,-1,-1,-1,-1,-1,-1,-1,-1,-1,-1,-1,-1,-1,-1,-1],"split_conditions":[3E0,4E0,1.5999E1,4E0,3E0,3E0,3.5453E1,2E0,1.8998E1,1.5999E1,2E0,3E0,4E0,2E0,3.0974E1,-3.477963E-1,-1.2772051E0,1.10638574E-1,-1.3458617E-1,1.5728016E0,2.260303E-1,3.4322834E-1,-3.785079E-1,-1.6474097E0,-1.8480264E-1,6.665781E-1,-3.9546636E-1,-2.967902E-1,-1.4138879E0,4.3893957E-1,1.21327E-2],"split_indices":[17,40,28,5,1,12,35,18,56,28,18,1,12,10,7,0,0,0,0,0,0,0,0,0,0,0,0,0,0,0,0],"split_type":[0,0,0,0,0,0,0,0,0,0,0,0,0,0,0,0,0,0,0,0,0,0,0,0,0,0,0,0,0,0,0],"sum_hessian":[2.276E3,2.041E3,2.35E2,1.615E3,4.26E2,1.53E2,8.2E1,4.2E1,1.573E3,3.6E1,3.9E2,2.7E1,1.26E2,7.1E1,1.1E1,2.9E1,1.3E1,7.79E2,7.94E2,2.5E1,1.1E1,3.65E2,2.5E1,9E0,1.8E1,4.5E1,8.1E1,2E1,5.1E1,9E0,2E0],"tree_param":{"num_deleted":"0","num_feature":"231","num_nodes":"31","size_leaf_vector":"1"}},{"base_weights":[2.490411E-3,-5.0323286E0,4.0745583E-1,2.844619E0,-6.065277E0,-7.848541E-1,2.7704935E0,3.250693E0,-2.6261685E-2,-9.107667E0,-2.4105406E0,-3.615481E-1,-5.572546E0,-4.8680983E-2,4.1124735E0,-4.550654E-2,3.5997474E-1,-1.0948201E0,4.6536636E-1,3.7276632E-1,-3.7514415E-1,-2.6401025E-1,6.343952E-3,-1.4428059E0,-2.786459E-1,1.2080599E-1,-4.696208E-1,2.7962124E-1,1.0083939E0],"categories":[],"categories_nodes":[],"categories_segments":[],"categories_sizes":[],"default_left":[0,0,0,1,1,0,0,0,0,1,0,0,0,0,0,0,0,0,0,0,0,0,0,0,0,0,0,0,0],"id":29,"left_children":[1,3,5,7,9,11,13,15,-1,17,19,21,23,25,27,-1,-1,-1,-1,-1,-1,-1,-1,-1,-1,-1,-1,-1,-1],"loss_changes":[4.6564214E3,1.4726895E3,5.974631E3,3.6277176E1,1.5688184E3,2.8415806E3,2.6949736E3,3.8498993E1,0E0,2.312624E3,6.9547925E2,1.263247E3,2.5944038E3,1.3985873E3,3.6346587E3,0E0,0E0,0E0,0E0,0E0,0E0,0E0,0E0,0E0,0E0,0E0,0E0,0E0,0E0],"parents":[2147483647,0,0,1,1,2,2,3,3,4,4,5,5,6,6,7,7,9,9,10,10,11,11,12,12,13,13,14,14],"right_children":[2,4,6,8,10,12,14,16,-1,18,20,22,24,26,28,-1,-1,-1,-1,-1,-1,-1,-1,-1,-1,-1,-1,-1,-1],"split_conditions":[4E0,2E0,4E0,3.5453E1,2E0,1E0,3E0,3E0,-2.6261685E-2,3.2067E1,3E0,4E0,3E0,1E0,3.2067E1,-4.550654E-2,3.5997474E-1,-1.0948201E0,4.6536636E-1,3.7276632E-1,-3.7514415E-1,-2.6401025E-1,6.343952E-3,-1.4428059E0,-2.786459E-1,1.2080599E-1,-4.696208E-1,2.7962124E-1,1.0083939E0],"split_indices":[5,11,47,28,164,27,32,3,0,28,1,68,169,27,21,0,0,0,0,0,0,0,0,0,0,0,0,0,0],"split_type":[0,0,0,0,0,0,0,0,0,0,0,0,0,0,0,0,0,0,0,0,0,0,0,0,0,0,0,0,0],"sum_hessian":[2.276E3,1.65E2,2.111E3,1.8E1,1.47E2,1.405E3,7.06E2,1.6E1,2E0,7.6E1,7.1E1,1.296E3,1.09E2,2.29E2,4.77E2,1E0,1.5E1,6.8E1,8E0,1.1E1,6E1,2E2,1.096E3,2.1E1,8.8E1,1.83E2,4.6E1,3.97E2,8E1],"tree_param":{"num_deleted":"0","num_feature":"231","num_nodes":"29","size_leaf_vector":"1"}},{"base_weights":[-4.734506E-6,5.1038194E-1,-3.369166E0,-3.772699E-1,2.8026855E0,-2.563031E0,-1.5275893E1,-2.915222E-1,-1.3690449E0,1.0218852E1,2.442608E0,4.970315E0,-3.7765183E0,-1.8269697E0,-0E0,6.79652E-2,-1.1523434E-1,-6.2650734E-1,1.3186725E0,4.5530987E-1,1.5531288E-1,5.9368235E-1,-1.7606728E-1,-6.305937E-1,9.227232E-3,2.5203815E-2,-4.474818E-2],"categories":[],"categories_nodes":[],"categories_segments":[],"categories_sizes":[],"default_left":[0,0,0,1,0,0,1,1,0,0,0,1,0,0,0,0,0,0,0,0,0,0,0,0,0,0,0],"id":30,"left_children":[1,3,5,7,9,11,13,15,-1,17,19,21,23,-1,25,-1,-1,-1,-1,-1,-1,-1,-1,-1,-1,-1,-1],"loss_changes":[3.9338071E3,4.0467253E3,2.6755261E3,1.6042219E3,1.344604E3,2.7254458E3,8.06375E2,1.2007153E3,0E0,1.5941335E3,9.6473535E2,3.2967334E2,2.4653567E3,0E0,1.6461023E0,0E0,0E0,0E0,0E0,0E0,0E0,0E0,0E0,0E0,0E0,0E0,0E0],"parents":[2147483647,0,0,1,1,2,2,3,3,4,4,5,5,6,6,7,7,9,9,10,10,11,11,12,12,14,14],"right_children":[2,4,6,8,10,12,14,16,-1,18,20,22,24,-1,26,-1,-1,-1,-1,-1,-1,-1,-1,-1,-1,-1,-1],"split_conditions":[4E0,2E0,3.0974E1,1E0,3E0,3E0,3.5453E1,1.8998E1,-1.3690449E0,3E0,3E0,1.8998E1,3E0,-1.8269697E0,3E0,6.79652E-2,-1.1523434E-1,-6.2650734E-1,1.3186725E0,4.5530987E-1,1.5531288E-1,5.9368235E-1,-1.7606728E-1,-6.305937E-1,9.227232E-3,2.5203815E-2,-4.474818E-2],"split_indices":[18,40,7,132,1,115,7,56,0,169,11,21,40,0,1,0,0,0,0,0,0,0,0,0,0,0,0],"split_type":[0,0,0,0,0,0,0,0,0,0,0,0,0,0,0,0,0,0,0,0,0,0,0,0,0,0,0],"sum_hessian":[2.276E3,1.98E3,2.96E2,1.43E3,5.5E2,2.83E2,1.3E1,1.426E3,4E0,1.9E1,5.31E2,3.7E1,2.46E2,1E1,3E0,6.7E2,7.56E2,2E0,1.7E1,1.51E2,3.8E2,3.3E1,4E0,1.47E2,9.9E1,2E0,1E0],"tree_param":{"num_deleted":"0","num_feature":"231","num_nodes":"27","size_leaf_vector":"1"}},{"base_weights":[-4.702394E-3,-4.37148E0,3.4566417E-1,-1.0426591E1,-2.961061E0,-7.3046577E-1,2.2328372E0,-1.4780375E1,-1.0793498E0,-8.3742E0,-9.833414E-1,-3.8585734E-1,-5.155308E0,-2.560448E-1,3.4056334E0,-4.4216346E-2,-1.7121775E0,-2.1716669E-1,7.442322E-2,-8.500405E-2,-9.903842E-1,2.7972826E-1,-2.752291E-1,-2.2558534E-1,-2.1099593E-3,-2.2548166E-1,-1.3466215E0,1.0145686E-1,-5.0038904E-1,2.2669093E-1,8.418034E-1],"categories":[],"categories_nodes":[],"categories_segments":[],"categories_sizes":[],"default_left":[0,0,0,0,0,0,0,0,0,0,1,0,0,0,0,0,0,0,0,0,0,0,0,0,0,0,0,0,0,0,0],"id":31,"left_children":[1,3,5,7,9,11,13,15,17,19,21,23,25,27,29,-1,-1,-1,-1,-1,-1,-1,-1,-1,-1,-1,-1,-1,-1,-1,-1],"loss_changes":[3.5014492E3,1.2840847E3,4.306922E3,1.12525E3,1.501791E3,2.0445684E3,2.255102E3,6.160127E2,3.9387505E1,3.8450537E2,7.874757E2,8.5624335E2,2.1707136E3,1.5435751E3,2.8847563E3,0E0,0E0,0E0,0E0,0E0,0E0,0E0,0E0,0E0,0E0,0E0,0E0,0E0,0E0,0E0,0E0],"parents":[2147483647,0,0,1,1,2,2,3,3,4,4,5,5,6,6,7,7,8,8,9,9,10,10,11,11,12,12,13,13,14,14],"right_children":[2,4,6,8,10,12,14,16,18,20,22,24,26,28,30,-1,-1,-1,-1,-1,-1,-1,-1,-1,-1,-1,-1,-1,-1,-1,-1],"split_conditions":[4E0,2E0,2E0,1.8998E1,3E0,1E0,3E0,3E0,1.8998E1,3E0,3E0,4E0,4E0,1E0,3.2067E1,-4.4216346E-2,-1.7121775E0,-2.1716669E-1,7.442322E-2,-8.500405E-2,-9.903842E-1,2.7972826E-1,-2.752291E-1,-2.2558534E-1,-2.1099593E-3,-2.2548166E-1,-1.3466215E0,1.0145686E-1,-5.0038904E-1,2.2669093E-1,8.418034E-1],"split_indices":[5,164,47,35,5,27,32,15,28,11,29,68,108,27,21,0,0,0,0,0,0,0,0,0,0,0,0,0,0,0,0],"split_type":[0,0,0,0,0,0,0,0,0,0,0,0,0,0,0,0,0,0,0,0,0,0,0,0,0,0,0,0,0,0,0],"sum_hessian":[2.276E3,1.65E2,2.111E3,2.5E1,1.4E2,1.346E3,7.65E2,1.5E1,1E1,3.3E1,1.07E2,1.254E3,9.2E1,2.46E2,5.19E2,3E0,1.2E1,6E0,4E0,7E0,2.6E1,3.3E1,7.4E1,2E2,1.054E3,7.3E1,1.9E1,1.97E2,4.9E1,4.29E2,9E1],"tree_param":{"num_deleted":"0","num_feature":"231","num_nodes":"31","size_leaf_vector":"1"}},{"base_weights":[-1.3438026E-2,-4.0234523E0,3.0828676E-1,-9.70379E0,-2.7025738E0,-5.1853126E-1,2.4229782E0,-1.3746437E1,-1.0123302E0,-7.6809072E0,-8.839173E-1,-1.4810915E-1,-4.5136375E0,1.9996117E0,7.745524E0,-4.25581E-2,-1.5913182E0,-2.0532143E-1,7.111562E-2,-8.573845E-1,9.012604E-2,2.5458452E-1,-2.75899E-1,8.325746E-2,-9.287292E-2,-1.002794E0,-1.05753176E-1,2.3050945E-1,-2.3433755E-1,3.813246E-1,1.1873771E0],"categories":[],"categories_nodes":[],"categories_segments":[],"categories_sizes":[],"default_left":[0,0,0,0,0,0,0,0,0,1,1,1,0,1,0,0,0,0,0,0,0,0,0,0,0,0,0,0,0,0,0],"id":32,"left_children":[1,3,5,7,9,11,13,15,17,19,21,23,25,27,29,-1,-1,-1,-1,-1,-1,-1,-1,-1,-1,-1,-1,-1,-1,-1,-1],"loss_changes":[2.952683E3,1.1319834E3,3.7079382E3,9.697566E2,1.2703011E3,2.2488064E3,1.2558333E3,5.270576E2,3.5552086E1,3.3751562E2,7.5561084E2,1.0764858E3,2.3943735E3,7.686001E2,4.3972852E2,0E0,0E0,0E0,0E0,0E0,0E0,0E0,0E0,0E0,0E0,0E0,0E0,0E0,0E0,0E0,0E0],"parents":[2147483647,0,0,1,1,2,2,3,3,4,4,5,5,6,6,7,7,8,8,9,9,10,10,11,11,12,12,13,13,14,14],"right_children":[2,4,6,8,10,12,14,16,18,20,22,24,26,28,30,-1,-1,-1,-1,-1,-1,-1,-1,-1,-1,-1,-1,-1,-1,-1,-1],"split_conditions":[4E0,2E0,2E0,1.8998E1,3E0,1E0,6.00001E0,3E0,1.8998E1,3.5453E1,3E0,1.5999E1,3E0,1E0,7.9904E1,-4.25581E-2,-1.5913182E0,-2.0532143E-1,7.111562E-2,-8.573845E-1,9.012604E-2,2.5458452E-1,-2.75899E-1,8.325746E-2,-9.287292E-2,-1.002794E0,-1.05753176E-1,2.3050945E-1,-2.3433755E-1,3.813246E-1,1.1873771E0],"split_indices":[5,164,40,35,5,27,29,15,28,35,15,56,33,177,21,0,0,0,0,0,0,0,0,0,0,0,0,0,0,0,0],"split_type":[0,0,0,0,0,0,0,0,0,0,0,0,0,0,0,0,0,0,0,0,0,0,0,0,0,0,0,0,0,0,0],"sum_hessian":[2.276E3,1.65E2,2.111E3,2.5E1,1.4E2,1.52E3,5.91E2,1.5E1,1E1,3.3E1,1.07E2,1.396E3,1.24E2,5.54E2,3.7E1,3E0,1.2E1,6E0,4E0,3E1,3E0,3.7E1,7E1,6.18E2,7.78E2,4.4E1,8E1,5.2E2,3.4E1,2.4E1,1.3E1],"tree_param":{"num_deleted":"0","num_feature":"231","num_nodes":"31","size_leaf_vector":"1"}},{"base_weights":[-1.6763365E-2,3.9048314E-1,-2.7054694E0,-2.9345432E-1,2.157146E0,-1.9879926E0,-1.3378021E1,-2.1542992E-1,-1.2425195E0,8.822504E0,1.8367087E0,-3.2665222E0,3.346394E0,-1.6255124E0,2.5280952E-1,-4.6953317E-2,2.3164931E-1,-6.259633E-1,1.1661706E0,1.4597093E-1,5.7657796E-1,3.7856168E-1,-4.3957528E-1,6.289093E-1,-7.1190405E-1,6.743164E-2,-2.8295645E-2],"categories":[],"categories_nodes":[],"categories_segments":[],"categories_sizes":[],"default_left":[0,0,0,1,0,0,1,1,0,0,0,0,1,0,0,0,0,0,0,0,0,0,0,0,0,0,0],"id":33,"left_children":[1,3,5,7,9,11,13,15,-1,17,19,21,23,-1,25,-1,-1,-1,-1,-1,-1,-1,-1,-1,-1,-1,-1],"loss_changes":[2.5052148E3,2.4034783E3,2.1565066E3,1.3323064E3,1.0937039E3,2.0187847E3,7.4246094E2,9.242537E2,0E0,1.3981014E3,7.4464685E2,1.9552334E3,2.0092358E3,0E0,3.152003E0,0E0,0E0,0E0,0E0,0E0,0E0,0E0,0E0,0E0,0E0,0E0,0E0],"parents":[2147483647,0,0,1,1,2,2,3,3,4,4,5,5,6,6,7,7,9,9,10,10,11,11,12,12,14,14],"right_children":[2,4,6,8,10,12,14,16,-1,18,20,22,24,-1,26,-1,-1,-1,-1,-1,-1,-1,-1,-1,-1,-1,-1],"split_conditions":[4E0,2E0,3.0974E1,1E0,3E0,1.4007E1,3.5453E1,3E0,-1.2425195E0,3E0,6.00001E0,3E0,1.5999E1,-1.6255124E0,3E0,-4.6953317E-2,2.3164931E-1,-6.259633E-1,1.1661706E0,1.4597093E-1,5.7657796E-1,3.7856168E-1,-4.3957528E-1,6.289093E-1,-7.1190405E-1,6.743164E-2,-2.8295645E-2],"split_indices":[18,40,7,132,1,7,7,45,0,169,29,115,175,0,1,0,0,0,0,0,0,0,0,0,0,0,0],"split_type":[0,0,0,0,0,0,0,0,0,0,0,0,0,0,0,0,0,0,0,0,0,0,0,0,0,0,0],"sum_hessian":[2.276E3,1.98E3,2.96E2,1.43E3,5.5E2,2.83E2,1.3E1,1.426E3,4E0,1.9E1,5.31E2,2.3E2,5.3E1,1E1,3E0,1.3E3,1.26E2,2E0,1.7E1,4.91E2,4E1,3E1,2E2,4.3E1,1E1,2E0,1E0],"tree_param":{"num_deleted":"0","num_feature":"231","num_nodes":"27","size_leaf_vector":"1"}},{"base_weights":[-1.8388169E-2,-3.5002E0,2.609124E-1,-8.815919E0,-2.272803E0,-4.3468648E-1,2.0402474E0,-1.2513389E1,-8.8065183E-1,-6.5373216E0,-7.1551996E-1,-1.1082079E-1,-3.9274182E0,1.403229E0,4.9767566E0,-2.447815E-2,-1.4547619E0,-1.9506878E-1,8.053097E-2,-4.879761E-3,-7.962343E-1,-2.3389736E-1,3.0088508E-1,7.471021E-2,-7.940032E-2,-9.033825E-1,-7.409358E-2,1.16465844E-1,9.146536E-1,7.789549E-1,-3.6062506E-1],"categories":[],"categories_nodes":[],"categories_segments":[],"categories_sizes":[],"default_left":[0,0,0,0,0,0,0,0,0,0,0,1,0,0,1,0,0,0,0,0,0,0,0,0,0,0,0,0,0,0,0],"id":34,"left_children":[1,3,5,7,9,11,13,15,17,19,21,23,25,27,29,-1,-1,-1,-1,-1,-1,-1,-1,-1,-1,-1,-1,-1,-1,-1,-1],"loss_changes":[2.2260142E3,9.9789136E2,2.6250203E3,8.1171875E2,9.323133E2,1.7188289E3,1.0735864E3,4.665459E2,3.606051E1,3.4140503E2,7.117087E2,8.2416394E2,2.055778E3,8.5454645E2,2.6554294E3,0E0,0E0,0E0,0E0,0E0,0E0,0E0,0E0,0E0,0E0,0E0,0E0,0E0,0E0,0E0,0E0],"parents":[2147483647,0,0,1,1,2,2,3,3,4,4,5,5,6,6,7,7,8,8,9,9,10,10,11,11,12,12,13,13,14,14],"right_children":[2,4,6,8,10,12,14,16,18,20,22,24,26,28,30,-1,-1,-1,-1,-1,-1,-1,-1,-1,-1,-1,-1,-1,-1,-1,-1],"split_conditions":[4E0,2E0,2E0,1.8998E1,3E0,1E0,7.9904E1,3E0,1.8998E1,3E0,1E0,1.5999E1,3E0,3.0974E1,3E0,-2.447815E-2,-1.4547619E0,-1.9506878E-1,8.053097E-2,-4.879761E-3,-7.962343E-1,-2.3389736E-1,3.0088508E-1,7.471021E-2,-7.940032E-2,-9.033825E-1,-7.409358E-2,1.16465844E-1,9.146536E-1,7.789549E-1,-3.6062506E-1],"split_indices":[5,164,40,35,5,27,21,15,28,11,16,56,33,14,94,0,0,0,0,0,0,0,0,0,0,0,0,0,0,0,0],"split_type":[0,0,0,0,0,0,0,0,0,0,0,0,0,0,0,0,0,0,0,0,0,0,0,0,0,0,0,0,0,0,0],"sum_hessian":[2.276E3,1.65E2,2.111E3,2.5E1,1.4E2,1.52E3,5.91E2,1.5E1,1E1,3.3E1,1.07E2,1.396E3,1.24E2,4.92E2,9.9E1,3E0,1.2E1,6E0,4E0,7E0,2.6E1,7.6E1,3.1E1,6.18E2,7.78E2,4.4E1,8E1,4.83E2,9E0,7.5E1,2.4E1],"tree_param":{"num_deleted":"0","num_feature":"231","num_nodes":"31","size_leaf_vector":"1"}},{"base_weights":[-2.0758543E-2,3.5894817E-1,-2.2901547E0,-2.3203239E-1,1.9228005E0,-4.8776174E-1,-5.7827716E0,-3.8798377E-2,-5.4145727E0,1.1084712E1,1.660266E0,1.6955895E0,-4.2584095E0,6.272354E-1,-9.74446E0,7.285312E-2,-6.772759E-2,-3.6221597E-1,-1.1655744E0,1.6376514E0,-8.421292E-2,3.77081E-1,1.1158291E-1,4.659483E-1,-5.5472916E-1,-5.069625E-1,3.2648262E-1,2.6648208E-1,-5.6498426E-1,-1.1486057E0,6.1739874E-1],"categories":[],"categories_nodes":[],"categories_segments":[],"categories_sizes":[],"default_left":[0,0,0,0,0,0,0,1,1,1,0,1,1,0,1,0,0,0,0,0,0,0,0,0,0,0,0,0,0,0,0],"id":35,"left_children":[1,3,5,7,9,11,13,15,17,19,21,23,25,27,29,-1,-1,-1,-1,-1,-1,-1,-1,-1,-1,-1,-1,-1,-1,-1,-1],"loss_changes":[1.9715907E3,1.8135178E3,2.0444088E3,1.4205527E3,1.1892983E3,1.8663134E3,2.8584612E3,6.7801917E2,3.4415186E2,9.680924E2,5.8192725E2,3.2196162E3,5.911078E2,6.73428E2,2.2728086E3,0E0,0E0,0E0,0E0,0E0,0E0,0E0,0E0,0E0,0E0,0E0,0E0,0E0,0E0,0E0,0E0],"parents":[2147483647,0,0,1,1,2,2,3,3,4,4,5,5,6,6,7,7,8,8,9,9,10,10,11,11,12,12,13,13,14,14],"right_children":[2,4,6,8,10,12,14,16,18,20,22,24,26,28,30,-1,-1,-1,-1,-1,-1,-1,-1,-1,-1,-1,-1,-1,-1,-1,-1],"split_conditions":[2E0,2E0,1.5999E1,1E0,3E0,3E0,3E0,1.8998E1,4E0,1.8998E1,2E0,3E0,1E0,1E0,3.5453E1,7.285312E-2,-6.772759E-2,-3.6221597E-1,-1.1655744E0,1.6376514E0,-8.421292E-2,3.77081E-1,1.1158291E-1,4.659483E-1,-5.5472916E-1,-5.069625E-1,3.2648262E-1,2.6648208E-1,-5.6498426E-1,-1.1486057E0,6.1739874E-1],"split_indices":[18,40,28,27,1,1,12,56,66,28,11,115,16,20,28,0,0,0,0,0,0,0,0,0,0,0,0,0,0,0,0],"split_type":[0,0,0,0,0,0,0,0,0,0,0,0,0,0,0,0,0,0,0,0,0,0,0,0,0,0,0,0,0,0,0],"sum_hessian":[2.276E3,1.953E3,3.23E2,1.42E3,5.33E2,2.17E2,1.06E2,1.374E3,4.6E1,9E0,5.24E2,1.39E2,7.8E1,4.2E1,6.4E1,6.23E2,7.51E2,4.2E1,4E0,5E0,4E0,1.01E2,4.23E2,1E2,3.9E1,7.2E1,6E0,3.4E1,8E0,5.9E1,5E0],"tree_param":{"num_deleted":"0","num_feature":"231","num_nodes":"31","size_leaf_vector":"1"}},{"base_weights":[-1.990946E-2,-1.4685604E-1,5.6391325E0,1.9950615E-1,-3.2668483E0,6.9695907E0,2.316369E0,6.673098E-2,7.2687273E0,-1.0207278E0,-7.560561E0,2.2343862E0,7.997979E0,4.009495E0,-2.2456427E0,2.5848104E-2,-6.30904E-1,9.1537887E-1,1.3860422E-1,2.2818425E-1,-3.535039E-1,-2.2290094E-1,-1.0250497E0,4.2855304E-2,2.9701862E-1,1.2399101E-1,8.5922813E-1,1.0724904E-1,4.9477926E-1,-2.662894E-1,-8.150374E-3],"categories":[],"categories_nodes":[],"categories_segments":[],"categories_sizes":[],"default_left":[1,0,1,0,0,0,0,0,0,1,0,0,0,0,0,0,0,0,0,0,0,0,0,0,0,0,0,0,0,0,0],"id":36,"left_children":[1,3,5,7,9,11,13,15,17,19,21,23,25,27,29,-1,-1,-1,-1,-1,-1,-1,-1,-1,-1,-1,-1,-1,-1,-1,-1],"loss_changes":[1.6373096E3,2.4226533E3,1.3103345E2,1.8834298E3,2.1131326E3,6.1112427E1,2.1671262E2,2.4288733E3,3.363236E2,1.3120497E3,9.6323486E2,7.5103683E0,3.7307983E1,1.7051544E1,4.297333E0,0E0,0E0,0E0,0E0,0E0,0E0,0E0,0E0,0E0,0E0,0E0,0E0,0E0,0E0,0E0,0E0],"parents":[2147483647,0,0,1,1,2,2,3,3,4,4,5,5,6,6,7,7,8,8,9,9,10,10,11,11,12,12,13,13,14,14],"right_children":[2,4,6,8,10,12,14,16,18,20,22,24,26,28,30,-1,-1,-1,-1,-1,-1,-1,-1,-1,-1,-1,-1,-1,-1,-1,-1],"split_conditions":[3.2067E1,3E0,3E0,3E0,1.5999E1,4E0,7.9904E1,2E0,3E0,1.4007E1,3E0,1.4007E1,3E0,3E0,4E0,2.5848104E-2,-6.30904E-1,9.1537887E-1,1.3860422E-1,2.2818425E-1,-3.535039E-1,-2.2290094E-1,-1.0250497E0,4.2855304E-2,2.9701862E-1,1.2399101E-1,8.5922813E-1,1.0724904E-1,4.9477926E-1,-2.662894E-1,-8.150374E-3],"split_indices":[35,17,92,19,28,24,35,18,94,42,12,7,5,8,3,0,0,0,0,0,0,0,0,0,0,0,0,0,0,0,0],"split_type":[0,0,0,0,0,0,0,0,0,0,0,0,0,0,0,0,0,0,0,0,0,0,0,0,0,0,0,0,0,0,0],"sum_hessian":[2.276E3,2.231E3,4.5E1,2.012E3,2.19E2,2.8E1,1.7E1,1.98E3,3.2E1,1.48E2,7.1E1,8E0,2E1,1.3E1,4E0,1.927E3,5.3E1,2.2E1,1E1,6.4E1,8.4E1,2.7E1,4.4E1,5E0,3E0,3E0,1.7E1,6E0,7E0,2E0,2E0],"tree_param":{"num_deleted":"0","num_feature":"231","num_nodes":"31","size_leaf_vector":"1"}},{"base_weights":[-1.6107354E-2,-3.769351E-1,1.855945E0,-2.6549432E0,1.7400785E-1,1.1645565E0,1.3030366E0,-1.357373E0,-5.5830755E0,-2.465875E-1,2.5100138E0,1.8213733E0,-1.1901229E1,6.758242E-2,-2.819109E-1,-6.730808E-1,6.7981774E-1,-4.445394E-2,3.5210273E-1,8.397943E-1,1.1696571E-1,1.4995983E-1,8.355343E-1,2.8877258E-2,-1.4136552E0],"categories":[],"categories_nodes":[],"categories_segments":[],"categories_sizes":[],"default_left":[1,1,0,0,0,0,0,0,1,1,0,1,0,0,0,0,0,0,0,0,0,0,0,0,0],"id":37,"left_children":[1,3,5,7,9,-1,11,13,15,17,19,21,23,-1,-1,-1,-1,-1,-1,-1,-1,-1,-1,-1,-1],"loss_changes":[1.5428079E3,2.4107266E3,1.9084883E3,1.3761648E3,1.5262886E3,0E0,2.5280142E3,8.022207E2,1.8344902E3,9.8623096E2,1.8117053E3,6.549508E2,4.15739E2,0E0,0E0,0E0,0E0,0E0,0E0,0E0,0E0,0E0,0E0,0E0,0E0],"parents":[2147483647,0,0,1,1,2,2,3,3,4,4,6,6,7,7,8,8,9,9,10,10,11,11,12,12],"right_children":[2,4,6,8,10,-1,12,14,16,18,20,22,24,-1,-1,-1,-1,-1,-1,-1,-1,-1,-1,-1,-1],"split_conditions":[1.4007E1,4E0,1.5999E1,1E0,4E0,1.1645565E0,1E0,3E0,3.5453E1,4E0,3E0,3.5453E1,3E0,6.758242E-2,-2.819109E-1,-6.730808E-1,6.7981774E-1,-4.445394E-2,3.5210273E-1,8.397943E-1,1.1696571E-1,1.4995983E-1,8.355343E-1,2.8877258E-2,-1.4136552E0],"split_indices":[7,32,7,27,40,0,6,29,28,47,1,14,17,0,0,0,0,0,0,0,0,0,0,0,0],"split_type":[0,0,0,0,0,0,0,0,0,0,0,0,0,0,0,0,0,0,0,0,0,0,0,0,0],"sum_hessian":[2.276E3,1.912E3,3.64E2,3.69E2,1.543E3,1.4E1,3.5E2,2.61E2,1.08E2,1.311E3,2.32E2,3.41E2,9E0,1.1E2,1.51E2,1.01E2,7E0,1.25E3,6.1E1,3.8E1,1.94E2,3.31E2,1E1,2E0,7E0],"tree_param":{"num_deleted":"0","num_feature":"231","num_nodes":"25","size_leaf_vector":"1"}},{"base_weights":[-1.0238693E-2,1.1633954E0,-5.4608E-1,9.310635E-1,6.882706E0,-7.270668E-1,5.374734E0,4.8512837E-1,7.345082E-1,7.500169E0,-9.587969E-3,-4.5058694E-1,-4.7282224E0,6.848495E0,2.098075E0,2.593746E-1,5.6448977E-2,7.663129E-1,4.315224E-2,-1.6082589E-2,-3.1179902E-1,-7.172794E-1,1.9749382E-1,7.164789E-1,5.486821E-2,3.7023184E-1,-2.1648984E-1],"categories":[],"categories_nodes":[],"categories_segments":[],"categories_sizes":[],"default_left":[0,0,1,0,0,0,1,0,0,0,0,0,0,0,0,0,0,0,0,0,0,0,0,0,0,0,0],"id":38,"left_children":[1,3,5,7,9,11,13,-1,15,17,-1,19,21,23,25,-1,-1,-1,-1,-1,-1,-1,-1,-1,-1,-1,-1],"loss_changes":[1.4370381E3,9.115504E2,1.6972866E3,5.113523E2,1.2734326E2,1.6745017E3,1.461737E2,0E0,2.0036285E2,4.1689453E0,0E0,1.1033391E3,1.6818899E3,3.2408325E1,1.9206778E2,0E0,0E0,0E0,0E0,0E0,0E0,0E0,0E0,0E0,0E0,0E0,0E0],"parents":[2147483647,0,0,1,1,2,2,3,3,4,4,5,5,6,6,8,8,9,9,11,11,12,12,13,13,14,14],"right_children":[2,4,6,8,10,12,14,-1,16,18,-1,20,22,24,26,-1,-1,-1,-1,-1,-1,-1,-1,-1,-1,-1,-1],"split_conditions":[2E0,7.9904E1,3.2067E1,1E0,1E0,2.5380801E2,3E0,4.8512837E-1,3E0,3.0974E1,-9.587969E-3,1E0,3.2067E1,3.0974E1,7.9904E1,2.593746E-1,5.6448977E-2,7.663129E-1,4.315224E-2,-1.6082589E-2,-3.1179902E-1,-7.172794E-1,1.9749382E-1,7.164789E-1,5.486821E-2,3.7023184E-1,-2.1648984E-1],"split_indices":[25,21,35,219,9,91,92,0,11,14,0,6,28,7,35,0,0,0,0,0,0,0,0,0,0,0,0],"split_type":[0,0,0,0,0,0,0,0,0,0,0,0,0,0,0,0,0,0,0,0,0,0,0,0,0,0,0],"sum_hessian":[2.276E3,7.11E2,1.565E3,6.89E2,2.2E1,1.523E3,4.2E1,2.7E1,6.62E2,2E1,2E0,1.43E3,9.3E1,2.5E1,1.7E1,4.9E1,6.13E2,1.9E1,1E0,1.295E3,1.35E2,6.8E1,2.5E1,2.3E1,2E0,1.3E1,4E0],"tree_param":{"num_deleted":"0","num_feature":"231","num_nodes":"27","size_leaf_vector":"1"}},{"base_weights":[-5.3169406E-3,-8.508154E-2,7.4719377E0,1.8970338E-1,-2.4978483E0,8.046217E-1,1.16949275E-1,-2.5886574E-1,1.8644115E0,-3.2408247E0,6.1379066E0,-1.9804014E-2,-1.0851172E0,8.0220336E-1,1.19913414E-1,-4.4362494E-1,3.1472215E-1,6.8143743E-1,-0E0],"categories":[],"categories_nodes":[],"categories_segments":[],"categories_sizes":[],"default_left":[1,0,0,0,1,0,0,1,0,1,0,0,0,0,0,0,0,0,0],"id":39,"left_children":[1,3,5,7,9,-1,-1,11,13,15,17,-1,-1,-1,-1,-1,-1,-1,-1],"loss_changes":[1.3562263E3,1.5043651E3,3.0599121E1,1.5327562E3,1.5851118E3,0E0,0E0,1.014858E3,1.7082845E3,1.7282034E3,8.236456E1,0E0,0E0,0E0,0E0,0E0,0E0,0E0,0E0],"parents":[2147483647,0,0,1,1,2,2,3,3,4,4,7,7,8,8,9,9,10,10],"right_children":[2,4,6,8,10,-1,-1,12,14,16,18,-1,-1,-1,-1,-1,-1,-1,-1],"split_conditions":[3.2067E1,3E0,1.4007E1,4E0,3.5453E1,8.046217E-1,1.16949275E-1,1E0,3E0,1.4007E1,3E0,-1.9804014E-2,-1.0851172E0,8.0220336E-1,1.19913414E-1,-4.4362494E-1,3.1472215E-1,6.8143743E-1,-0E0],"split_indices":[42,17,7,40,35,0,0,132,1,112,1,0,0,0,0,0,0,0,0],"split_type":[0,0,0,0,0,0,0,0,0,0,0,0,0,0,0,0,0,0,0],"sum_hessian":[2.276E3,2.257E3,1.9E1,2.03E3,2.27E2,1.6E1,3E0,1.604E3,4.26E2,2.12E2,1.5E1,1.6E3,4E0,3.6E1,3.9E2,1.8E2,3.2E1,1.3E1,2E0],"tree_param":{"num_deleted":"0","num_feature":"231","num_nodes":"19","size_leaf_vector":"1"}},{"base_weights":[-1.774106E-3,-3.1699905E-1,1.6331719E0,-2.418487E0,1.6605866E-1,1.1037743E0,1.1040094E0,-1.6551905E0,-7.4105706E0,-6.1735123E-1,1.0564314E0,1.5767273E0,-1.0901738E1,3.0501653E-2,-3.059881E-1,-1.0325559E0,5.0675476E-1,2.990125E-3,-2.0749941E-1,5.894167E-1,5.0865002E-2,1.2765077E-1,7.7094054E-1,3.3534676E-2,-1.2997646E0],"categories":[],"categories_nodes":[],"categories_segments":[],"categories_sizes":[],"default_left":[1,1,0,0,0,0,0,1,1,0,0,1,0,0,0,0,0,0,0,0,0,0,0,0,0],"id":40,"left_children":[1,3,5,7,9,-1,11,13,15,17,19,21,23,-1,-1,-1,-1,-1,-1,-1,-1,-1,-1,-1,-1],"loss_changes":[1.1768444E3,1.9502839E3,1.7632751E3,1.2975525E3,1.0939344E3,0E0,2.0913633E3,8.8302924E2,1.9400693E3,7.892035E2,1.9237224E3,5.788468E2,3.6418262E2,0E0,0E0,0E0,0E0,0E0,0E0,0E0,0E0,0E0,0E0,0E0,0E0],"parents":[2147483647,0,0,1,1,2,2,3,3,4,4,6,6,7,7,8,8,9,9,10,10,11,11,12,12],"right_children":[2,4,6,8,10,-1,12,14,16,18,20,22,24,-1,-1,-1,-1,-1,-1,-1,-1,-1,-1,-1,-1],"split_conditions":[1.4007E1,3E0,1.5999E1,1E0,4E0,1.1037743E0,1E0,3E0,3.2067E1,1E0,3E0,3.5453E1,3E0,3.0501653E-2,-3.059881E-1,-1.0325559E0,5.0675476E-1,2.990125E-3,-2.0749941E-1,5.894167E-1,5.0865002E-2,1.2765077E-1,7.7094054E-1,3.3534676E-2,-1.2997646E0],"split_indices":[7,32,7,16,52,0,6,29,28,114,1,14,17,0,0,0,0,0,0,0,0,0,0,0,0],"split_type":[0,0,0,0,0,0,0,0,0,0,0,0,0,0,0,0,0,0,0,0,0,0,0,0,0],"sum_hessian":[2.276E3,1.912E3,3.64E2,3.54E2,1.558E3,1.4E1,3.5E2,3.13E2,4.1E1,8.29E2,7.29E2,3.41E2,9E0,1.32E2,1.81E2,3.4E1,7E0,5.77E2,2.52E2,6.9E1,6.6E2,3.31E2,1E1,2E0,7E0],"tree_param":{"num_deleted":"0","num_feature":"231","num_nodes":"25","size_leaf_vector":"1"}},{"base_weights":[-5.2138016E-4,-7.48707E-2,6.965344E0,2.3703934E-1,-1.9746035E0,7.502196E-1,1.07776836E-1,2.8575897E-1,-1.0301569E0,-1.3951777E0,-1.12529745E1,2.0084891E-2,6.2369984E-1,4.6477088E-1,-2.4177225E-1,-1.3583883E0,2.5587082E-3],"categories":[],"categories_nodes":[],"categories_segments":[],"categories_sizes":[],"default_left":[1,0,0,1,0,0,0,1,0,0,1,0,0,0,0,0,0],"id":41,"left_children":[1,3,5,7,9,-1,-1,11,-1,13,15,-1,-1,-1,-1,-1,-1],"loss_changes":[1.1770637E3,1.3444163E3,2.6850098E1,1.00436523E3,1.629213E3,0E0,0E0,9.691356E2,0E0,1.9509446E3,4.8850342E2,0E0,0E0,0E0,0E0,0E0,0E0],"parents":[2147483647,0,0,1,1,2,2,3,3,4,4,7,7,9,9,10,10],"right_children":[2,4,6,8,10,-1,-1,12,-1,14,16,-1,-1,-1,-1,-1,-1],"split_conditions":[3.2067E1,2E0,1.4007E1,1E0,3.0974E1,7.502196E-1,1.07776836E-1,7.9904E1,-1.0301569E0,3E0,3.5453E1,2.0084891E-2,6.2369984E-1,4.6477088E-1,-2.4177225E-1,-1.3583883E0,2.5587082E-3],"split_indices":[42,18,7,132,7,0,0,21,0,115,7,0,0,0,0,0,0],"split_type":[0,0,0,0,0,0,0,0,0,0,0,0,0,0,0,0,0],"sum_hessian":[2.276E3,2.257E3,1.9E1,1.942E3,3.15E2,1.6E1,3E0,1.938E3,4E0,3.02E2,1.3E1,1.916E3,2.2E1,4.1E1,2.61E2,1E1,3E0],"tree_param":{"num_deleted":"0","num_feature":"231","num_nodes":"17","size_leaf_vector":"1"}},{"base_weights":[-1.7450785E-3,-1.0588779E-1,4.6356916E0,-2.1738932E0,1.7716189E-1,5.7313976E0,1.8931118E0,2.9772392E-1,-4.815446E0,-6.459049E-1,9.1353345E-1,4.9337578E-1,6.139637E0,3.3859682E0,-2.0332184E0,-1.8971322E-1,1.8562579E-1,-7.915726E-1,-1.1473125E-1,-3.6472338E-1,-2.7061582E-2,4.022468E-1,5.869616E-2,-0E0,6.536128E-2,1.8643394E-1,7.2251225E-1,7.583937E-2,4.3004248E-1,-2.452048E-1,-1.9232614E-3],"categories":[],"categories_nodes":[],"categories_segments":[],"categories_sizes":[],"default_left":[1,0,1,0,0,0,0,0,0,1,0,0,0,0,0,0,0,0,0,0,0,0,0,0,0,0,0,0,0,0,0],"id":42,"left_children":[1,3,5,7,9,11,13,15,17,19,21,23,25,27,29,-1,-1,-1,-1,-1,-1,-1,-1,-1,-1,-1,-1,-1,-1,-1,-1],"loss_changes":[1.0995454E3,1.3127611E3,8.837756E1,1.7744912E3,1.1978075E3,4.8787476E1,1.6472662E2,5.1015607E2,1.4352915E3,1.0420466E3,1.0425334E3,6.1590064E-1,6.2783447E1,2.1884567E1,4.884575E0,0E0,0E0,0E0,0E0,0E0,0E0,0E0,0E0,0E0,0E0,0E0,0E0,0E0,0E0,0E0,0E0],"parents":[2147483647,0,0,1,1,2,2,3,3,4,4,5,5,6,6,7,7,8,8,9,9,10,10,11,11,12,12,13,13,14,14],"right_children":[2,4,6,8,10,12,14,16,18,20,22,24,26,28,30,-1,-1,-1,-1,-1,-1,-1,-1,-1,-1,-1,-1,-1,-1,-1,-1],"split_conditions":[3.2067E1,2E0,3E0,3E0,4E0,3E0,7.9904E1,3.2067E1,1E0,4E0,3E0,4E0,4E0,3E0,4E0,-1.8971322E-1,1.8562579E-1,-7.915726E-1,-1.1473125E-1,-3.6472338E-1,-2.7061582E-2,4.022468E-1,5.869616E-2,-0E0,6.536128E-2,1.8643394E-1,7.2251225E-1,7.583937E-2,4.3004248E-1,-2.452048E-1,-1.9232614E-3],"split_indices":[35,33,92,96,52,5,35,49,37,26,1,10,24,8,3,0,0,0,0,0,0,0,0,0,0,0,0,0,0,0,0],"split_type":[0,0,0,0,0,0,0,0,0,0,0,0,0,0,0,0,0,0,0,0,0,0,0,0,0,0,0,0,0,0,0],"sum_hessian":[2.276E3,2.231E3,4.5E1,2.65E2,1.966E3,2.8E1,1.7E1,1.39E2,1.26E2,9.28E2,1.038E3,3E0,2.5E1,1.3E1,4E0,5.7E1,8.2E1,6.5E1,6.1E1,9.8E1,8.3E2,9.3E1,9.45E2,2E0,1E0,8E0,1.7E1,6E0,7E0,2E0,2E0],"tree_param":{"num_deleted":"0","num_feature":"231","num_nodes":"31","size_leaf_vector":"1"}},{"base_weights":[-6.2204734E-4,-7.012755E-2,6.508734E0,2.1338527E-1,-1.797155E0,7.004138E-1,1.0153408E-1,-2.0674925E-1,1.3260276E0,-1.1443049E0,-9.568911E0,-4.464925E-3,-4.5245013E-1,9.9804986E-1,1.08117454E-1,-1.6479105E-1,8.278643E-1,-1.049851E0,1.8019766E-1],"categories":[],"categories_nodes":[],"categories_segments":[],"categories_sizes":[],"default_left":[1,0,0,0,1,0,0,0,0,1,0,0,0,0,0,0,0,0,0],"id":43,"left_children":[1,3,5,7,9,-1,-1,11,13,15,17,-1,-1,-1,-1,-1,-1,-1,-1],"loss_changes":[1.0278503E3,1.1110542E3,2.1737366E1,9.126336E2,1.5581516E3,0E0,0E0,9.8618976E2,1.0686895E3,1.489962E3,3.569756E2,0E0,0E0,0E0,0E0,0E0,0E0,0E0,0E0],"parents":[2147483647,0,0,1,1,2,2,3,3,4,4,7,7,8,8,9,9,10,10],"right_children":[2,4,6,8,10,-1,-1,12,14,16,18,-1,-1,-1,-1,-1,-1,-1,-1],"split_conditions":[3.2067E1,2E0,1.4007E1,2E0,1.5999E1,7.004138E-1,1.0153408E-1,1E0,3E0,1.4007E1,3.2067E1,-4.464925E-3,-4.5245013E-1,9.9804986E-1,1.08117454E-1,-1.6479105E-1,8.278643E-1,-1.049851E0,1.8019766E-1],"split_indices":[42,18,7,40,14,0,0,27,1,14,35,0,0,0,0,0,0,0,0],"split_type":[0,0,0,0,0,0,0,0,0,0,0,0,0,0,0,0,0,0,0],"sum_hessian":[2.276E3,2.257E3,1.9E1,1.942E3,3.15E2,1.6E1,3E0,1.412E3,5.3E2,2.96E2,1.9E1,1.366E3,4.6E1,9E0,5.21E2,2.85E2,1.1E1,1.8E1,1E0],"tree_param":{"num_deleted":"0","num_feature":"231","num_nodes":"19","size_leaf_vector":"1"}},{"base_weights":[1.4226296E-3,-9.4773844E-2,4.323187E0,-1.4473795E0,2.514227E-1,5.3517513E0,1.7523426E0,-7.902471E-1,-8.562833E0,-3.1291357E-1,1.4516677E0,4.388523E-2,5.736566E0,3.1676512E0,-1.9406874E0,-5.0031412E-2,-1.1357588E0,-9.9980253E-1,2.9429027E-1,-3.7659057E-3,-3.4093404E-1,5.813057E-1,6.813904E-2,1.7523587E-1,6.7416507E-1,7.19463E-2,4.0086362E-1,-2.3349042E-1,-1.7408099E-3],"categories":[],"categories_nodes":[],"categories_segments":[],"categories_sizes":[],"default_left":[1,0,1,0,0,0,0,0,0,0,0,0,0,0,0,0,0,0,0,0,0,0,0,0,0,0,0,0,0],"id":44,"left_children":[1,3,5,7,9,11,13,15,17,19,21,-1,23,25,27,-1,-1,-1,-1,-1,-1,-1,-1,-1,-1,-1,-1,-1,-1],"loss_changes":[9.545764E2,1.0500613E3,7.821942E1,2.0936516E3,1.2117877E3,4.3625305E1,1.4695317E2,1.2587899E3,7.8166284E2,1.0331669E3,1.8953228E3,0E0,5.2570984E1,1.7911575E1,4.268158E0,0E0,0E0,0E0,0E0,0E0,0E0,0E0,0E0,0E0,0E0,0E0,0E0,0E0,0E0],"parents":[2147483647,0,0,1,1,2,2,3,3,4,4,5,5,6,6,7,7,8,8,9,9,10,10,12,12,13,13,14,14],"right_children":[2,4,6,8,10,12,14,16,18,20,22,-1,24,26,28,-1,-1,-1,-1,-1,-1,-1,-1,-1,-1,-1,-1,-1,-1],"split_conditions":[3.2067E1,3E0,3E0,3.0974E1,3E0,3E0,7.9904E1,1E0,3.2067E1,1E0,3E0,4.388523E-2,4E0,3E0,4E0,-5.0031412E-2,-1.1357588E0,-9.9980253E-1,2.9429027E-1,-3.7659057E-3,-3.4093404E-1,5.813057E-1,6.813904E-2,1.7523587E-1,6.7416507E-1,7.19463E-2,4.0086362E-1,-2.3349042E-1,-1.7408099E-3],"split_indices":[35,32,92,14,47,5,35,30,28,111,1,0,24,8,3,0,0,0,0,0,0,0,0,0,0,0,0,0,0],"split_type":[0,0,0,0,0,0,0,0,0,0,0,0,0,0,0,0,0,0,0,0,0,0,0,0,0,0,0,0,0],"sum_hessian":[2.276E3,2.231E3,4.5E1,4.52E2,1.779E3,2.8E1,1.7E1,4.19E2,3.3E1,1.212E3,5.67E2,3E0,2.5E1,1.3E1,4E0,4.13E2,6E0,3E1,3E0,1.118E3,9.4E1,8E1,4.87E2,8E0,1.7E1,6E0,7E0,2E0,2E0],"tree_param":{"num_deleted":"0","num_feature":"231","num_nodes":"29","size_leaf_vector":"1"}},{"base_weights":[2.8332783E-4,-6.320205E-2,6.0253882E0,1.9787826E-1,-1.65385E0,7.552111E-1,2.5253174E-1,2.4222E-1,-9.3738335E-1,-1.1110842E0,-1.0396064E1,1.6519764E-2,5.6403255E-1,4.151865E-1,-2.0040928E-1,-1.2393355E0,-2.8600693E-3],"categories":[],"categories_nodes":[],"categories_segments":[],"categories_sizes":[],"default_left":[1,0,0,1,0,0,0,1,0,0,1,0,0,0,0,0,0],"id":45,"left_children":[1,3,5,7,9,-1,-1,11,-1,13,15,-1,-1,-1,-1,-1,-1],"loss_changes":[8.803626E2,9.4247107E2,2.2812561E1,8.285793E2,1.4491301E3,0E0,0E0,7.973861E2,0E0,1.4823121E3,3.5852905E2,0E0,0E0,0E0,0E0,0E0,0E0],"parents":[2147483647,0,0,1,1,2,2,3,3,4,4,7,7,9,9,10,10],"right_children":[2,4,6,8,10,-1,-1,12,-1,14,16,-1,-1,-1,-1,-1,-1],"split_conditions":[3.2067E1,2E0,4E0,1E0,3.0974E1,7.552111E-1,2.5253174E-1,7.9904E1,-9.3738335E-1,3E0,3.5453E1,1.6519764E-2,5.6403255E-1,4.151865E-1,-2.0040928E-1,-1.2393355E0,-2.8600693E-3],"split_indices":[42,18,10,132,7,0,0,21,0,115,7,0,0,0,0,0,0],"split_type":[0,0,0,0,0,0,0,0,0,0,0,0,0,0,0,0,0],"sum_hessian":[2.276E3,2.257E3,1.9E1,1.942E3,3.15E2,9E0,1E1,1.938E3,4E0,3.02E2,1.3E1,1.916E3,2.2E1,4.1E1,2.61E2,1E1,3E0],"tree_param":{"num_deleted":"0","num_feature":"231","num_nodes":"17","size_leaf_vector":"1"}},{"base_weights":[-0E0,-2.7195042E-1,1.4120071E0,-1.9533511E0,1.1447481E-1,9.713747E-1,9.4498426E-1,-1.6525117E0,-1.0628769E1,-1.3389923E-1,2.0082884E0,1.3779975E0,-1.0022696E1,-1.16769925E-1,-6.146496E-1,-1.2584437E0,1.3213196E-1,-2.3378804E-1,5.3232946E-3,7.452733E-2,6.373832E-1,1.1028899E-1,7.014409E-1,1.3024248E-2,-1.1852453E0],"categories":[],"categories_nodes":[],"categories_segments":[],"categories_sizes":[],"default_left":[1,1,0,1,1,0,0,0,0,0,0,1,0,0,0,0,0,0,0,0,0,0,0,0,0],"id":46,"left_children":[1,3,5,7,9,-1,11,13,15,17,19,21,23,-1,-1,-1,-1,-1,-1,-1,-1,-1,-1,-1,-1],"loss_changes":[8.7747455E2,1.2485002E3,1.374095E3,8.3685486E2,7.384137E2,0E0,1.7463602E3,7.2589453E2,3.5147803E2,5.7454297E2,9.726317E2,4.8971637E2,2.795244E2,0E0,0E0,0E0,0E0,0E0,0E0,0E0,0E0,0E0,0E0,0E0,0E0],"parents":[2147483647,0,0,1,1,2,2,3,3,4,4,6,6,7,7,8,8,9,9,10,10,11,11,12,12],"right_children":[2,4,6,8,10,-1,12,14,16,18,20,22,24,-1,-1,-1,-1,-1,-1,-1,-1,-1,-1,-1,-1],"split_conditions":[1.4007E1,3E0,1.5999E1,1E0,2E0,9.713747E-1,1E0,4E0,1.8998E1,1.4007E1,3.2067E1,3.5453E1,3E0,-1.16769925E-1,-6.146496E-1,-1.2584437E0,1.3213196E-1,-2.3378804E-1,5.3232946E-3,7.452733E-2,6.373832E-1,1.1028899E-1,7.014409E-1,1.3024248E-2,-1.1852453E0],"split_indices":[7,32,7,30,110,0,6,17,28,14,175,14,17,0,0,0,0,0,0,0,0,0,0,0,0],"split_type":[0,0,0,0,0,0,0,0,0,0,0,0,0,0,0,0,0,0,0,0,0,0,0,0,0],"sum_hessian":[2.276E3,1.912E3,3.64E2,3.54E2,1.558E3,1.4E1,3.5E2,3.48E2,6E0,1.381E3,1.77E2,3.41E2,9E0,3.2E2,2.8E1,5E0,1E0,1.04E2,1.277E3,1.42E2,3.5E1,3.31E2,1E1,2E0,7E0],"tree_param":{"num_deleted":"0","num_feature":"231","num_nodes":"25","size_leaf_vector":"1"}},{"base_weights":[-1.2222033E-3,-9.248626E-2,4.060229E0,-4.2055553E-1,1.0487758E0,5.013209E0,1.6625245E0,-3.2076713E-2,-2.9174666E0,4.1325545E0,4.0092653E-1,5.322799E0,-0E0,2.985919E0,-1.7967783E0,-9.618425E-3,5.575082E-1,-1.925008E-1,-1.078942E0,-5.1603264E-1,6.154596E-1,9.8185174E-2,-3.5980916E-1,1.6538133E-1,6.1959654E-1,7.349022E-2,3.721885E-1,-2.1441345E-1,-2.3151943E-3],"categories":[],"categories_nodes":[],"categories_segments":[],"categories_sizes":[],"default_left":[1,0,1,0,0,0,0,1,1,0,0,0,0,0,0,0,0,0,0,0,0,0,0,0,0,0,0,0,0],"id":47,"left_children":[1,3,5,7,9,11,13,15,17,19,21,23,-1,25,27,-1,-1,-1,-1,-1,-1,-1,-1,-1,-1,-1,-1,-1,-1],"loss_changes":[8.4339557E2,8.387646E2,6.58996E1,1.6853474E3,9.860941E2,4.8933228E1,1.2873082E2,5.4070746E2,1.7115825E3,1.7757842E3,9.8843933E2,4.0227966E1,0E0,1.1687195E1,3.1292324E0,0E0,0E0,0E0,0E0,0E0,0E0,0E0,0E0,0E0,0E0,0E0,0E0,0E0,0E0],"parents":[2147483647,0,0,1,1,2,2,3,3,4,4,5,5,6,6,7,7,8,8,9,9,10,10,11,11,13,13,14,14],"right_children":[2,4,6,8,10,12,14,16,18,20,22,24,-1,26,28,-1,-1,-1,-1,-1,-1,-1,-1,-1,-1,-1,-1,-1,-1],"split_conditions":[3.2067E1,4E0,3E0,1E0,3E0,3.0974E1,7.9904E1,3.2067E1,1.4007E1,3E0,2E0,4E0,-0E0,3E0,4E0,-9.618425E-3,5.575082E-1,-1.925008E-1,-1.078942E0,-5.1603264E-1,6.154596E-1,9.8185174E-2,-3.5980916E-1,1.6538133E-1,6.1959654E-1,7.349022E-2,3.721885E-1,-2.1441345E-1,-2.3151943E-3],"split_indices":[35,40,92,27,1,7,35,63,49,169,18,24,0,8,3,0,0,0,0,0,0,0,0,0,0,0,0,0,0],"split_type":[0,0,0,0,0,0,0,0,0,0,0,0,0,0,0,0,0,0,0,0,0,0,0,0,0,0,0,0,0],"sum_hessian":[2.276E3,2.231E3,4.5E1,1.736E3,4.95E2,2.8E1,1.7E1,1.507E3,2.29E2,8.1E1,4.14E2,2.6E1,2E0,1.3E1,4E0,1.495E3,1.2E1,2.09E2,2E1,1.3E1,6.8E1,3.65E2,4.9E1,8E0,1.8E1,6E0,7E0,2E0,2E0],"tree_param":{"num_deleted":"0","num_feature":"231","num_nodes":"29","size_leaf_vector":"1"}},{"base_weights":[-7.549814E-4,-6.0503453E-2,5.589029E0,-3.1301743E-1,1.2491456E0,7.004532E-1,2.3382166E-1,-1.9431652E0,7.608543E-2,8.9272165E-1,8.141199E-1,-1.4481333E-1,-7.229335E-1,-2.0645766E-2,1.6368592E-1,1.1534869E-1,-1.1268977E0],"categories":[],"categories_nodes":[],"categories_segments":[],"categories_sizes":[],"default_left":[1,1,0,1,0,0,0,0,0,0,0,0,0,0,0,0,0],"id":48,"left_children":[1,3,5,7,9,-1,-1,11,13,-1,15,-1,-1,-1,-1,-1,-1],"loss_changes":[7.57973E2,7.4907294E2,1.9203552E1,1.2084015E3,1.1764177E3,0E0,0E0,8.993511E2,6.817973E2,0E0,1.4982903E3,0E0,0E0,0E0,0E0,0E0,0E0],"parents":[2147483647,0,0,1,1,2,2,3,3,4,4,7,7,8,8,10,10],"right_children":[2,4,6,8,10,-1,-1,12,14,-1,16,-1,-1,-1,-1,-1,-1],"split_conditions":[3.2067E1,1.4007E1,4E0,4E0,1.5999E1,7.004532E-1,2.3382166E-1,1E0,4E0,8.9272165E-1,1E0,-1.4481333E-1,-7.229335E-1,-2.0645766E-2,1.6368592E-1,1.1534869E-1,-1.1268977E0],"split_indices":[42,7,10,32,7,0,0,13,40,0,2,0,0,0,0,0,0],"split_type":[0,0,0,0,0,0,0,0,0,0,0,0,0,0,0,0,0],"sum_hessian":[2.276E3,2.257E3,1.9E1,1.896E3,3.61E2,9E0,1E1,3.62E2,1.534E3,1.4E1,3.47E2,3.37E2,2.5E1,1.302E3,2.32E2,3.42E2,5E0],"tree_param":{"num_deleted":"0","num_feature":"231","num_nodes":"17","size_leaf_vector":"1"}},{"base_weights":[-3.9334613E-4,-8.449865E-2,3.7408352E0,-1.6833982E0,1.3423568E-1,5.4020867E0,2.2285721E0,3.8728797E-1,-3.902954E0,-5.074398E-1,7.085521E-1,6.841508E-1,1.0236927E0,3.1475065E0,-1.5425171E0,-4.387086E-2,3.7729138E-1,-6.43788E-1,-4.4993456E-2,-2.7683591E-2,-3.601355E-1,3.2087284E-1,4.4585735E-2,-2.5227526E-2,2.0758711E-1,3.8687035E-1,1.2449894E-1,-2.0769742E-1,-0E0],"categories":[],"categories_nodes":[],"categories_segments":[],"categories_sizes":[],"default_left":[1,0,0,0,0,0,0,0,0,0,0,0,0,0,0,0,0,0,0,0,0,0,0,0,0,0,0,0,0],"id":49,"left_children":[1,3,5,7,9,11,13,15,17,19,21,-1,23,25,27,-1,-1,-1,-1,-1,-1,-1,-1,-1,-1,-1,-1,-1,-1],"loss_changes":[7.1565704E2,7.8468475E2,5.778711E1,1.2519946E3,7.283611E2,8.316388E1,1.4716882E2,4.1430844E2,1.1252914E3,6.568032E2,6.7421716E2,0E0,1.9210052E1,1.1966522E1,6.403158E0,0E0,0E0,0E0,0E0,0E0,0E0,0E0,0E0,0E0,0E0,0E0,0E0,0E0,0E0],"parents":[2147483647,0,0,1,1,2,2,3,3,4,4,5,5,6,6,7,7,8,8,9,9,10,10,12,12,13,13,14,14],"right_children":[2,4,6,8,10,12,14,16,18,20,22,-1,24,26,28,-1,-1,-1,-1,-1,-1,-1,-1,-1,-1,-1,-1,-1,-1],"split_conditions":[3.2067E1,2E0,3E0,3E0,4E0,1.4007E1,7.9904E1,2E0,3E0,1E0,3E0,6.841508E-1,7.9904E1,3E0,1.4007E1,-4.387086E-2,3.7729138E-1,-6.43788E-1,-4.4993456E-2,-2.7683591E-2,-3.601355E-1,3.2087284E-1,4.4585735E-2,-2.5227526E-2,2.0758711E-1,3.8687035E-1,1.2449894E-1,-2.0769742E-1,-0E0],"split_indices":[35,33,1,96,52,7,35,38,38,34,1,0,35,10,14,0,0,0,0,0,0,0,0,0,0,0,0,0,0],"split_type":[0,0,0,0,0,0,0,0,0,0,0,0,0,0,0,0,0,0,0,0,0,0,0,0,0,0,0,0,0],"sum_hessian":[2.276E3,2.231E3,4.5E1,2.65E2,1.966E3,1.5E1,3E1,1.39E2,1.26E2,9.28E2,1.038E3,9E0,6E0,2.5E1,5E0,1.15E2,2.4E1,7E1,5.6E1,8.69E2,5.9E1,9.3E1,9.45E2,4E0,2E0,1.4E1,1.1E1,2E0,3E0],"tree_param":{"num_deleted":"0","num_feature":"231","num_nodes":"29","size_leaf_vector":"1"}},{"base_weights":[5.123577E-4,-5.961199E-2,5.067858E0,-1.173869E-1,5.303465E0,5.657238E-1,-5.1410895E-2,2.1597164E-2,-2.1942346E0,6.7195624E-1,2.147286E-1,-3.9254376E-1,9.4450535E-3,-4.7356826E-1,4.7898823E-1],"categories":[],"categories_nodes":[],"categories_segments":[],"categories_sizes":[],"default_left":[1,1,0,0,0,0,0,0,0,0,0,0,0,0,0],"id":50,"left_children":[1,3,5,7,9,-1,-1,11,13,-1,-1,-1,-1,-1,-1],"loss_changes":[7.014731E2,6.978807E2,1.0851251E2,6.489827E2,2.6255981E1,0E0,0E0,6.030381E2,2.6160803E3,0E0,0E0,0E0,0E0,0E0,0E0],"parents":[2147483647,0,0,1,1,2,2,3,3,4,4,7,7,8,8],"right_children":[2,4,6,8,10,-1,-1,12,14,-1,-1,-1,-1,-1,-1],"split_conditions":[7.9904E1,3.2067E1,1E0,1E0,4E0,5.657238E-1,-5.1410895E-2,3E0,6.00001E0,6.7195624E-1,2.147286E-1,-3.9254376E-1,9.4450535E-3,-4.7356826E-1,4.7898823E-1],"split_indices":[21,42,9,6,10,0,0,5,169,0,0,0,0,0,0],"split_type":[0,0,0,0,0,0,0,0,0,0,0,0,0,0,0],"sum_hessian":[2.276E3,2.254E3,2.2E1,2.235E3,1.9E1,2E1,2E0,2.099E3,1.36E2,9E0,1E1,3.3E1,2.066E3,1.01E2,3.5E1],"tree_param":{"num_deleted":"0","num_feature":"231","num_nodes":"15","size_leaf_vector":"1"}},{"base_weights":[2.7481767E-3,-1.19595736E-1,2.2792456E0,1.9904791E-1,-1.0277367E0,9.8451644E-1,1.3411797E0,-3.8164876E-2,2.0202556E0,-5.4554904E-1,-4.0811844E0,-5.8384883E-1,3.4854414E0,-4.2536688E-1,4.526924E-3,7.412789E-1,1.14125185E-1,2.3384897E-2,-2.4737863E-1,-5.1670957E-1,1.9905528E-1,-4.288635E-1,8.162611E-2,1.2155555E-2,4.4307795E-1],"categories":[],"categories_nodes":[],"categories_segments":[],"categories_sizes":[],"default_left":[0,0,0,0,0,0,1,0,1,1,1,1,0,0,0,0,0,0,0,0,0,0,0,0,0],"id":51,"left_children":[1,3,5,7,9,-1,11,13,15,17,19,21,23,-1,-1,-1,-1,-1,-1,-1,-1,-1,-1,-1,-1],"loss_changes":[6.388167E2,6.295024E2,7.5318066E2,6.9747766E2,8.161099E2,0E0,4.671306E2,5.0742282E2,8.307972E2,7.4754736E2,5.5569934E2,3.4257626E2,1.6129517E2,0E0,0E0,0E0,0E0,0E0,0E0,0E0,0E0,0E0,0E0,0E0,0E0],"parents":[2147483647,0,0,1,1,2,2,3,3,4,4,6,6,7,7,8,8,9,9,10,10,11,11,12,12],"right_children":[2,4,6,8,10,-1,12,14,16,18,20,22,24,-1,-1,-1,-1,-1,-1,-1,-1,-1,-1,-1,-1],"split_conditions":[3.2067E1,1.26904E2,3E0,3.2067E1,1.8998E1,9.8451644E-1,1.5999E1,4E0,1.5999E1,3E0,3.5453E1,2E0,4E0,-4.2536688E-1,4.526924E-3,7.412789E-1,1.14125185E-1,2.3384897E-2,-2.4737863E-1,-5.1670957E-1,1.9905528E-1,-4.288635E-1,8.162611E-2,1.2155555E-2,4.4307795E-1],"split_indices":[28,105,8,42,28,0,7,5,14,36,35,10,5,0,0,0,0,0,0,0,0,0,0,0,0],"split_type":[0,0,0,0,0,0,0,0,0,0,0,0,0,0,0,0,0,0,0,0,0,0,0,0,0],"sum_hessian":[2.276E3,2.164E3,1.12E2,1.604E3,5.6E2,7E0,1.05E2,1.423E3,1.81E2,4.89E2,7.1E1,5.7E1,4.8E1,2.3E1,1.4E3,2E1,1.61E2,3.51E2,1.38E2,6.1E1,1E1,1.3E1,4.4E1,1.2E1,3.6E1],"tree_param":{"num_deleted":"0","num_feature":"231","num_nodes":"25","size_leaf_vector":"1"}},{"base_weights":[4.809906E-3,-7.247295E-2,3.4804184E0,1.4104367E-2,-3.2301857E0,2.2224545E0,5.608183E0,-8.355685E-2,4.0398455E0,8.871501E-1,-8.129847E0,-2.2709304E-1,2.9015746E0,6.657747E-1,4.037228E-2,5.569514E-3,-2.076035E-1,7.383671E-1,2.2178833E-1,4.865194E-1,-1.9553497E-1,-1.0070502E0,2.890853E-1,8.813948E-2,-1.9496505E-1,3.1163558E-1,-0E0],"categories":[],"categories_nodes":[],"categories_segments":[],"categories_sizes":[],"default_left":[1,0,0,0,0,0,0,0,1,0,1,0,0,0,0,0,0,0,0,0,0,0,0,0,0,0,0],"id":52,"left_children":[1,3,5,7,9,11,13,15,17,19,21,23,25,-1,-1,-1,-1,-1,-1,-1,-1,-1,-1,-1,-1,-1,-1],"loss_changes":[6.1735706E2,6.147357E2,6.368225E1,8.6312335E2,1.2537178E3,7.2510605E1,6.1435272E1,5.9469073E2,2.253186E2,4.688564E2,7.515875E2,3.4482956E1,2.1937897E1,0E0,0E0,0E0,0E0,0E0,0E0,0E0,0E0,0E0,0E0,0E0,0E0,0E0,0E0],"parents":[2147483647,0,0,1,1,2,2,3,3,4,4,5,5,6,6,7,7,8,8,9,9,10,10,11,11,12,12],"right_children":[2,4,6,8,10,12,14,16,18,20,22,24,26,-1,-1,-1,-1,-1,-1,-1,-1,-1,-1,-1,-1,-1,-1],"split_conditions":[3.2067E1,5E0,1E0,6.00001E0,1.4007E1,1.4007E1,3E0,1E0,3E0,3E0,3.5453E1,3E0,7.9904E1,6.657747E-1,4.037228E-2,5.569514E-3,-2.076035E-1,7.383671E-1,2.2178833E-1,4.865194E-1,-1.9553497E-1,-1.0070502E0,2.890853E-1,8.813948E-2,-1.9496505E-1,3.1163558E-1,-0E0],"split_indices":[35,18,16,29,28,14,1,6,8,1,28,1,35,0,0,0,0,0,0,0,0,0,0,0,0,0,0],"split_type":[0,0,0,0,0,0,0,0,0,0,0,0,0,0,0,0,0,0,0,0,0,0,0,0,0,0,0],"sum_hessian":[2.276E3,2.231E3,4.5E1,2.176E3,5.5E1,3.5E1,1E1,2.129E3,4.7E1,3.2E1,2.3E1,8E0,2.7E1,7E0,3E0,1.994E3,1.35E2,1.1E1,3.6E1,1.2E1,2E1,2E1,3E0,6E0,2E0,2.5E1,2E0],"tree_param":{"num_deleted":"0","num_feature":"231","num_nodes":"27","size_leaf_vector":"1"}},{"base_weights":[7.1992837E-3,-4.3673497E-2,4.8421254E0,-8.3553314E-2,6.3182986E-1,6.1482894E-1,1.942331E-1,3.8443622E-1,-1.4565825E-1,-1.8689737E-2,5.2018696E-1],"categories":[],"categories_nodes":[],"categories_segments":[],"categories_sizes":[],"default_left":[1,1,0,0,0,0,0,0,1,0,0],"id":53,"left_children":[1,3,5,7,-1,-1,-1,-1,9,-1,-1],"loss_changes":[5.6690454E2,5.7030664E2,2.3101868E1,5.4870447E2,0E0,0E0,0E0,0E0,4.9007825E2,0E0,0E0],"parents":[2147483647,0,0,1,1,2,2,3,3,8,8],"right_children":[2,4,6,8,-1,-1,-1,-1,10,-1,-1],"split_conditions":[3.2067E1,1.26904E2,4E0,1E0,6.3182986E-1,6.1482894E-1,1.942331E-1,3.8443622E-1,3.2067E1,-1.8689737E-2,5.2018696E-1],"split_indices":[42,21,10,219,0,0,0,0,63,0,0],"split_type":[0,0,0,0,0,0,0,0,0,0,0],"sum_hessian":[2.276E3,2.257E3,1.9E1,2.248E3,9E0,9E0,1E1,3E1,2.218E3,2.206E3,1.2E1],"tree_param":{"num_deleted":"0","num_feature":"231","num_nodes":"11","size_leaf_vector":"1"}},{"base_weights":[1.1713118E-2,-5.946023E-2,3.213414E0,1.902051E-2,-2.9239469E0,2.008887E0,5.287681E0,-7.0482045E-2,3.7094696E0,8.5122204E-1,-7.426144E0,-2.2627728E-1,2.634284E0,6.2802833E-1,3.689766E-2,5.595458E-3,-1.880442E-1,6.8888915E-1,1.991955E-1,4.5349583E-1,-1.783963E-1,-9.249908E-1,2.7894583E-1,8.435128E-2,-1.8886064E-1,3.8963735E-2,3.0388877E-1],"categories":[],"categories_nodes":[],"categories_segments":[],"categories_sizes":[],"default_left":[1,0,0,0,0,0,0,0,1,0,1,0,0,0,0,0,0,0,0,0,0,0,0,0,0,0,0],"id":54,"left_children":[1,3,5,7,9,11,13,15,17,19,21,23,25,-1,-1,-1,-1,-1,-1,-1,-1,-1,-1,-1,-1,-1,-1],"loss_changes":[5.23894E2,5.058516E2,6.451715E1,7.2534064E2,1.0579746E3,6.1302994E1,5.4999146E1,4.907063E2,2.0646387E2,4.0237308E2,6.5713513E2,3.2128876E1,1.9713303E1,0E0,0E0,0E0,0E0,0E0,0E0,0E0,0E0,0E0,0E0,0E0,0E0,0E0,0E0],"parents":[2147483647,0,0,1,1,2,2,3,3,4,4,5,5,6,6,7,7,8,8,9,9,10,10,11,11,12,12],"right_children":[2,4,6,8,10,12,14,16,18,20,22,24,26,-1,-1,-1,-1,-1,-1,-1,-1,-1,-1,-1,-1,-1,-1],"split_conditions":[3.2067E1,5E0,1E0,6.00001E0,1.4007E1,1.4007E1,3E0,1E0,3E0,3E0,3.5453E1,3E0,2E0,6.2802833E-1,3.689766E-2,5.595458E-3,-1.880442E-1,6.8888915E-1,1.991955E-1,4.5349583E-1,-1.783963E-1,-9.249908E-1,2.7894583E-1,8.435128E-2,-1.8886064E-1,3.8963735E-2,3.0388877E-1],"split_indices":[35,18,16,29,28,14,1,6,8,1,28,1,164,0,0,0,0,0,0,0,0,0,0,0,0,0,0],"split_type":[0,0,0,0,0,0,0,0,0,0,0,0,0,0,0,0,0,0,0,0,0,0,0,0,0,0,0],"sum_hessian":[2.276E3,2.231E3,4.5E1,2.176E3,5.5E1,3.5E1,1E1,2.129E3,4.7E1,3.2E1,2.3E1,8E0,2.7E1,7E0,3E0,1.994E3,1.35E2,1.1E1,3.6E1,1.2E1,2E1,2E1,3E0,6E0,2E0,6E0,2.1E1],"tree_param":{"num_deleted":"0","num_feature":"231","num_nodes":"27","size_leaf_vector":"1"}},{"base_weights":[1.3476786E-2,-1.917005E-1,1.0819253E0,-1.4715606E0,1.02239534E-1,8.439724E-1,6.7007226E-1,-1.2104055E0,-9.092467E0,2.0922997E0,-8.0350384E-2,9.8033816E-1,-1.042427E1,1.855424E-2,-2.1589947E-1,-1.0999192E0,1.4957963E-1,6.1955404E-1,-1.6346717E-1,8.445676E-3,-3.3167624E-1,7.270073E-2,6.329058E-1,-4.4047166E-2,-1.1177763E0],"categories":[],"categories_nodes":[],"categories_segments":[],"categories_sizes":[],"default_left":[1,1,0,1,0,0,0,0,0,1,0,1,0,0,0,0,0,0,0,0,0,0,0,0,0],"id":55,"left_children":[1,3,5,7,9,-1,11,13,15,17,19,21,23,-1,-1,-1,-1,-1,-1,-1,-1,-1,-1,-1,-1],"loss_changes":[5.019712E2,7.23301E2,1.0808064E3,6.4916504E2,5.707919E2,0E0,1.2636322E3,4.714123E2,3.1384393E2,2.0738306E3,7.705722E2,4.441861E2,3.8991577E1,0E0,0E0,0E0,0E0,0E0,0E0,0E0,0E0,0E0,0E0,0E0,0E0],"parents":[2147483647,0,0,1,1,2,2,3,3,4,4,6,6,7,7,8,8,9,9,10,10,11,11,12,12],"right_children":[2,4,6,8,10,-1,12,14,16,18,20,22,24,-1,-1,-1,-1,-1,-1,-1,-1,-1,-1,-1,-1],"split_conditions":[1.4007E1,3E0,1.5999E1,1E0,3E0,8.439724E-1,1E0,1.8998E1,1.8998E1,1.4007E1,2E0,3.5453E1,3E0,1.855424E-2,-2.1589947E-1,-1.0999192E0,1.4957963E-1,6.1955404E-1,-1.6346717E-1,8.445676E-3,-3.3167624E-1,7.270073E-2,6.329058E-1,-4.4047166E-2,-1.1177763E0],"split_indices":[7,32,7,30,1,0,2,35,28,168,